{"learner":{"attributes":{"best_iteration":"193","best_score":"15.43134644924981"},"feature_names":["CharacteristicName","ActivityLocation/LatitudeMeasure","ActivityLocation/LongitudeMeasure","cluster","year","season"],"feature_types":["float","float","float","float","float","float"],"gradient_booster":{"model":{"cats":{"enc":[],"feature_segments":[],"sorted_idx":[]},"gbtree_model_param":{"num_parallel_tree":"1","num_trees":"214"},"iteration_indptr":[0,1,2,3,4,5,6,7,8,9,10,11,12,13,14,15,16,17,18,19,20,21,22,23,24,25,26,27,28,29,30,31,32,33,34,35,36,37,38,39,40,41,42,43,44,45,46,47,48,49,50,51,52,53,54,55,56,57,58,59,60,61,62,63,64,65,66,67,68,69,70,71,72,73,74,75,76,77,78,79,80,81,82,83,84,85,86,87,88,89,90,91,92,93,94,95,96,97,98,99,100,101,102,103,104,105,106,107,108,109,110,111,112,113,114,115,116,117,118,119,120,121,122,123,124,125,126,127,128,129,130,131,132,133,134,135,136,137,138,139,140,141,142,143,144,145,146,147,148,149,150,151,152,153,154,155,156,157,158,159,160,161,162,163,164,165,166,167,168,169,170,171,172,173,174,175,176,177,178,179,180,181,182,183,184,185,186,187,188,189,190,191,192,193,194,195,196,197,198,199,200,201,202,203,204,205,206,207,208,209,210,211,212,213,214],"tree_info":[0,0,0,0,0,0,0,0,0,0,0,0,0,0,0,0,0,0,0,0,0,0,0,0,0,0,0,0,0,0,0,0,0,0,0,0,0,0,0,0,0,0,0,0,0,0,0,0,0,0,0,0,0,0,0,0,0,0,0,0,0,0,0,0,0,0,0,0,0,0,0,0,0,0,0,0,0,0,0,0,0,0,0,0,0,0,0,0,0,0,0,0,0,0,0,0,0,0,0,0,0,0,0,0,0,0,0,0,0,0,0,0,0,0,0,0,0,0,0,0,0,0,0,0,0,0,0,0,0,0,0,0,0,0,0,0,0,0,0,0,0,0,0,0,0,0,0,0,0,0,0,0,0,0,0,0,0,0,0,0,0,0,0,0,0,0,0,0,0,0,0,0,0,0,0,0,0,0,0,0,0,0,0,0,0,0,0,0,0,0,0,0,0,0,0,0,0,0,0,0,0,0,0,0,0,0,0,0,0,0,0,0,0,0],"trees":[{"base_weights":[1.912145E-2,-1.8119268E0,2.3738322E0,2.1287988E-1,-3.4375675E0,-6.629219E-1,1.0139253E1,-1.2568098E-1,1.3437696E1,-3.9012227E0,3.6261027E0,-1.8046674E0,2.2054372E0,1.1560189E1,8.9982665E-1,-5.520677E0,4.795951E-1,2.2817593E1,7.3652973E0,-3.080887E0,-6.5974145E0,2.7184951E0,1.2896822E1,-4.0318134E-1,-3.316819E0,4.8562655E0,1.5659213E-1,4.116651E0,1.3411522E1,-1.5474265E0,6.7619863E0,2.6302814E-1,-5.829908E0,5.349504E0,-6.0039467E-1,1.37842E0,1.7384481E1,3.1109898E0,8.2741517E-1,-4.183271E0,4.6139293E0,-1.8140833E0,-7.7529235E0,9.307426E0,1.5650977E0,5.4890317E-1,1.5776001E-1,-1.8974916E0,5.294884E0,1.056053E1,-3.4803307E0,3.9656847E0,4.5348692E-1,-4.218721E0,2.4641626E0,1.6127987E1,-8.684266E-1,3.8124798E1,1.0689693E1,-4.099396E0,7.92461E-1,1.9324226E1,-1.5799251E0,-6.402787E0,-1.7146153E0,1.0101084E1,4.31201E0,1.0198399E0,-7.0098834E0,3.4085846E-1,8.683242E-1,1.4837014E1,-6.764396E0,-5.173084E0,-2.224364E0,5.6947503E0,5.192846E-1,-2.0539775E-1,-1.2245424E-2,-8.7327795E0,-5.9603252E0,1.7306038E0,7.4635977E-1,3.064411E0,-6.8453E-1,-2.4723936E-2,-3.270117E0,-3.718178E0,1.2465424E1,-1.797949E-1,7.470281E-1,-6.618948E0,-2.8828733E0,6.367605E0,2.4262648E0,5.634066E-1,-6.3952603E0,8.17797E0,9.03745E-1,6.296061E-2,1.7613947E1,-4.482173E0,4.471342E0,4.3018536E1,4.7452286E-1,5.6496873E0,1.4725133E1,-4.461345E0,7.762082E-3,-6.911353E-2,2.59191E-1,5.190205E0,2.7545128E1,-2.3337486E-1,1.618559E1,-5.183665E0,-8.023461E0,1.5161146E1,-9.38026E0,3.0262759E0,1.1707604E1,-2.9823306E0,5.077303E0,-1.4638402E0,2.4573412E0,-8.008536E0,-2.652759E0,7.8951116E0,7.8902817E-1,-7.630518E-2,-2.4550955E-1,-6.9718204E0,-4.7203918E0,6.903694E-1,-5.931594E0,3.5036848E0,8.1856575E0,-1.2514153E-1,2.0133748E0,1.1267674E0,-6.344667E0,1.1426208E-1,-8.891807E0,-3.5948524E0,-6.588762E0,-1.054106E0,2.5036147E-1,-1.2255124E-1,3.8952081E0,9.106721E-1,-2.1332616E-1,-2.6492557E-1,1.0837587E1,-2.667432E-1,-4.1247025E0,-5.0369205E0,-1.9229841E0,3.9505374E-1,1.43396E1,1.06419995E-1,-1.16437145E-1,-1.4057606E-1,-2.1750598E-1,1.6514803E0,-3.305425E0,1.048052E1,4.476996E0,4.56836E0,-1.8956804E0,9.0323776E-2,-2.6055402E-1,-1.5420999E-1,-2.001223E-1,5.7702017E0,1.6383226E1,-1.2959877E0,3.7691517E0,4.069189E-1,5.7195735E-1,-1.4039454E-1,-8.920117E-2,7.2918334E0,2.9953415E0,2.666575E1,4.733999E1,1.5738708E-1,-1.01709E-1,-2.6250875E-1,7.409904E0,3.4083457E0,2.1318914E1,-1.6018593E-1,-1.06862366E-1,4.2236586E0,-8.289831E-1,2.7356285E-1,1.5605712E-2,1.0204242E0,5.3024095E-1,7.470746E-1,5.5963896E-2,-1.3097835E-1,-2.2746646E-1,-2.5139073E-1,-1.4356431E-1,7.07241E-1,2.9277142E-2,-2.9560187E-1,-1.6353612E-1,1.7764708E-1,1.0308632E-2,9.1323435E-1,2.509926E-1,-1.8661489E-1,-5.2303262E-2,2.9727575E-1,1.15321554E-1,1.2676489E-2,-1.7066033E-1,1.2205185E-1,-3.6747176E-2,-1.7119348E-1,-2.604802E-1,-4.138635E-2,-1.8879357E-1,3.3105153E-1,5.4991428E-2,-7.8194365E-2,-2.4964164E-1,-1.16342574E-1,-1.8065509E-1,4.4967303E-1,5.407843E-3,-2.5191396E-1,-1.4110124E-1,9.206526E-2,2.04695E-1,-1.9939722E-2,2.6394814E-1,6.97878E-2,3.1098826E-2,-2.9537482E-2,6.4999074E-1,-8.643714E-2,-2.186021E-1,-2.3693272E-1,-2.7534595E-1,-1.405843E-1,-6.6878386E-2,-2.3096871E-1,-1.8102239E-1,9.650607E-2,-1.4643973E-1,9.089806E-2,2.790924E-1,4.9180575E-2,-1.14818895E-2,3.3152923E-1,-1.5041572E-2,5.751115E-1,-1.04036115E-1,-2.8211584E-2,8.576647E-2,-2.0075913E-1,-9.042969E-2,-2.1221595E-2,-1.9080047E-1,-2.0154493E-2,-7.233708E-2,-1.4963852E-1,7.452811E-2,6.086458E-1,3.038544E-1,2.3354312E-2,1.9718526E-1,-1.4989322E-1,-7.724789E-2,1.9192702E-1,4.456697E-1,2.3286204E-1,4.237147E-2,3.9281526E-1,1.2323087E-1,-1.8221039E-1,7.359539E-2,-1.6146468E-2,1.33988345E-2,3.4372494E-1,1.006846E-1,2.6922154E-1,6.6278833E-1,7.185354E-3,-8.812855E-2,1.7770486E-1,-8.889456E-2,1.03870835E-2,2.7239162E-1,3.5879552E-2,1.031908E-1,4.3170568E-1,8.8078594E-1,1.5891978E0,7.4095875E-1,4.9034733E-1,8.560805E-2,3.4493756E-1,-3.0468402E-2,7.694742E-1,2.02017E-1,-1.0504192E-3,2.5462E-1,1.069907E-2,-6.553378E-2],"categories":[],"categories_nodes":[],"categories_segments":[],"categories_sizes":[],"default_left":[0,0,0,0,0,0,0,0,0,0,0,0,0,0,0,0,0,0,0,0,0,0,0,0,0,0,0,0,0,0,0,0,0,0,0,0,0,0,0,0,0,0,0,0,0,0,0,0,0,0,0,0,0,0,0,0,0,0,0,0,0,0,0,0,0,0,0,0,0,0,0,0,0,0,0,0,0,0,0,0,0,0,0,0,0,0,0,0,0,0,0,0,0,0,0,0,0,0,0,0,0,0,0,0,0,0,0,0,0,0,0,0,0,0,0,0,0,0,0,0,0,0,0,0,0,0,0,0,0,0,0,0,0,0,0,0,0,0,0,0,0,0,0,0,0,0,0,0,0,0,0,0,0,0,0,0,0,0,0,0,0,0,0,0,0,0,0,0,0,0,0,0,0,0,0,0,0,0,0,0,0,0,0,0,0,0,0,0,0,0,0,0,0,0,0,0,0,0,0,0,0,0,0,0,0,0,0,0,0,0,0,0,0,0,0,0,0,0,0,0,0,0,0,0,0,0,0,0,0,0,0,0,0,0,0,0,0,0,0,0,0,0,0,0,0,0,0,0,0,0,0,0,0,0,0,0,0,0,0,0,0,0,0,0,0,0,0,0,0,0,0,0,0,0,0,0,0,0,0,0,0,0,0,0,0,0,0,0,0,0,0,0,0,0,0,0,0,0,0,0,0,0,0,0,0,0,0,0,0,0,0,0,0],"id":0,"left_children":[1,3,5,7,9,11,13,15,17,19,21,23,25,27,29,31,33,35,37,39,41,43,45,47,49,51,53,55,57,59,61,-1,63,65,67,-1,69,71,-1,73,75,77,79,81,83,-1,-1,85,87,89,91,93,-1,95,97,99,101,103,105,107,109,111,113,115,117,119,121,123,125,-1,-1,127,129,131,133,135,137,-1,139,141,143,145,-1,147,149,151,153,155,157,159,-1,161,163,165,167,169,171,173,175,-1,177,179,181,183,185,187,189,191,-1,193,-1,195,197,-1,199,201,203,205,207,209,211,213,215,217,219,221,223,225,-1,-1,-1,227,229,231,233,235,237,-1,239,241,243,-1,245,247,249,251,-1,-1,253,255,-1,257,259,261,263,265,267,269,271,-1,-1,-1,-1,273,275,277,279,281,283,-1,285,-1,-1,287,289,291,293,-1,-1,-1,-1,295,297,299,301,-1,-1,-1,303,305,307,-1,-1,309,311,-1,-1,-1,-1,-1,-1,-1,-1,-1,-1,-1,-1,-1,-1,-1,-1,-1,-1,-1,-1,-1,-1,-1,-1,-1,-1,-1,-1,-1,-1,-1,-1,-1,-1,-1,-1,-1,-1,-1,-1,-1,-1,-1,-1,-1,-1,-1,-1,-1,-1,-1,-1,-1,-1,-1,-1,-1,-1,-1,-1,-1,-1,-1,-1,-1,-1,-1,-1,-1,-1,-1,-1,-1,-1,-1,-1,-1,-1,-1,-1,-1,-1,-1,-1,-1,-1,-1,-1,-1,-1,-1,-1,-1,-1,-1,-1,-1,-1,-1,-1,-1,-1,-1,-1,-1,-1,-1,-1,-1,-1,-1,-1,-1,-1,-1,-1,-1,-1],"loss_changes":[7.099462E4,3.0490893E4,1.6986548E5,1.8475465E4,1.6841652E4,1.6964873E4,2.657511E4,1.3142868E4,5.698664E3,1.0644883E4,2.6322344E3,7.8505186E3,8.0101655E3,2.41295E4,3.8982805E3,1.8449756E3,1.9037166E4,4.2278887E3,5.4183066E3,3.139659E4,6.1984844E3,2.1893335E3,1.0586611E3,1.6392287E4,4.0803047E3,5.8153584E3,8.420649E3,2.1030988E4,9.410019E4,1.1497424E3,8.413979E3,0E0,9.2733203E2,3.1952812E3,3.0777533E4,0E0,2.038165E3,6.35351E3,0E0,6.2629375E3,2.0505107E3,1.9948243E3,1.5375742E3,5.0301045E3,8.385759E2,0E0,0E0,3.9200972E3,2.5897754E4,3.238911E3,3.285004E3,2.177206E3,0E0,3.0012485E3,4.860704E3,2.1102734E3,4.824887E3,2.5590422E4,2.568586E4,1.4627698E2,6.8345624E2,3.5752568E3,5.5224097E3,6.479629E2,6.6103955E3,1.2943711E3,3.035171E3,8.450911E3,2.5808066E3,0E0,0E0,1.7818872E3,1.5890051E2,1.7169609E3,1.1760574E4,1.9743115E3,6.9521027E2,0E0,1.1828206E3,1.1966211E3,4.564707E2,5.614042E2,0E0,9.009341E2,1.031607E3,1.6883789E3,2.257542E3,4.1171094E2,5.039043E3,1.9311284E2,0E0,3.0891895E2,2.8449678E3,1.7493154E3,3.3693203E3,1.8429048E2,3.4160645E1,2.2169595E3,2.7152302E3,0E0,2.880293E2,3.0518066E1,3.9862622E2,7.4297812E3,3.312974E2,1.4385939E4,5.23855E4,4.8106567E1,0E0,3.036005E2,0E0,2.3375998E2,6.7584863E2,0E0,1.5762974E3,3.630879E2,1.306123E2,1.8865657E3,1.1351318E1,1.7660791E2,5.691578E3,1.9776465E2,2.8817852E3,6.920095E3,8.8975E3,7.046875E2,5.150686E2,3.03359E2,0E0,0E0,0E0,2.5115781E3,1.8621367E3,4.4465757E3,1.4110234E3,2.6342065E2,9.329785E2,0E0,2.0509277E1,6.0492437E3,6.0575012E1,0E0,9.149219E1,9.3869934E1,1.0995801E2,3.753135E2,0E0,0E0,5.988364E2,7.6968025E1,0E0,1.6992969E3,1.7353427E3,4.153774E2,1.9325186E3,5.797964E2,4.5418304E1,3.6102554E2,4.629207E3,0E0,0E0,0E0,0E0,5.405215E2,1.6621748E3,1.1911313E3,1.5998335E3,9.005698E2,2.2134133E3,0E0,1.3789034E1,0E0,0E0,1.2246526E3,9.0164844E2,6.1576013E2,2.7297437E3,0E0,0E0,0E0,0E0,4.1906616E2,5.025537E1,5.034043E2,1.0935953E4,0E0,0E0,0E0,2.0471496E4,9.316543E3,2.786875E4,0E0,0E0,2.545035E2,1.27738235E2,0E0,0E0,0E0,0E0,0E0,0E0,0E0,0E0,0E0,0E0,0E0,0E0,0E0,0E0,0E0,0E0,0E0,0E0,0E0,0E0,0E0,0E0,0E0,0E0,0E0,0E0,0E0,0E0,0E0,0E0,0E0,0E0,0E0,0E0,0E0,0E0,0E0,0E0,0E0,0E0,0E0,0E0,0E0,0E0,0E0,0E0,0E0,0E0,0E0,0E0,0E0,0E0,0E0,0E0,0E0,0E0,0E0,0E0,0E0,0E0,0E0,0E0,0E0,0E0,0E0,0E0,0E0,0E0,0E0,0E0,0E0,0E0,0E0,0E0,0E0,0E0,0E0,0E0,0E0,0E0,0E0,0E0,0E0,0E0,0E0,0E0,0E0,0E0,0E0,0E0,0E0,0E0,0E0,0E0,0E0,0E0,0E0,0E0,0E0,0E0,0E0,0E0,0E0,0E0,0E0,0E0,0E0,0E0,0E0,0E0,0E0,0E0,0E0,0E0,0E0,0E0,0E0,0E0],"parents":[2147483647,0,0,1,1,2,2,3,3,4,4,5,5,6,6,7,7,8,8,9,9,10,10,11,11,12,12,13,13,14,14,15,15,16,16,17,17,18,18,19,19,20,20,21,21,22,22,23,23,24,24,25,25,26,26,27,27,28,28,29,29,30,30,32,32,33,33,34,34,36,36,37,37,39,39,40,40,41,41,42,42,43,43,44,44,47,47,48,48,49,49,50,50,51,51,53,53,54,54,55,55,56,56,57,57,58,58,59,59,60,60,61,61,62,62,63,63,64,64,65,65,66,66,67,67,68,68,71,71,72,72,73,73,74,74,75,75,76,76,78,78,79,79,80,80,81,81,83,83,84,84,85,85,86,86,87,87,88,88,89,89,91,91,92,92,93,93,94,94,95,95,96,96,97,97,98,98,100,100,101,101,102,102,103,103,104,104,105,105,106,106,107,107,109,109,111,111,112,112,114,114,115,115,116,116,117,117,118,118,119,119,120,120,121,121,122,122,123,123,124,124,125,125,126,126,127,127,131,131,132,132,133,133,134,134,135,135,136,136,138,138,139,139,140,140,142,142,143,143,144,144,145,145,148,148,149,149,151,151,152,152,153,153,154,154,155,155,156,156,157,157,158,158,163,163,164,164,165,165,166,166,167,167,168,168,170,170,173,173,174,174,175,175,176,176,181,181,182,182,183,183,184,184,188,188,189,189,190,190,193,193,194,194],"right_children":[2,4,6,8,10,12,14,16,18,20,22,24,26,28,30,32,34,36,38,40,42,44,46,48,50,52,54,56,58,60,62,-1,64,66,68,-1,70,72,-1,74,76,78,80,82,84,-1,-1,86,88,90,92,94,-1,96,98,100,102,104,106,108,110,112,114,116,118,120,122,124,126,-1,-1,128,130,132,134,136,138,-1,140,142,144,146,-1,148,150,152,154,156,158,160,-1,162,164,166,168,170,172,174,176,-1,178,180,182,184,186,188,190,192,-1,194,-1,196,198,-1,200,202,204,206,208,210,212,214,216,218,220,222,224,226,-1,-1,-1,228,230,232,234,236,238,-1,240,242,244,-1,246,248,250,252,-1,-1,254,256,-1,258,260,262,264,266,268,270,272,-1,-1,-1,-1,274,276,278,280,282,284,-1,286,-1,-1,288,290,292,294,-1,-1,-1,-1,296,298,300,302,-1,-1,-1,304,306,308,-1,-1,310,312,-1,-1,-1,-1,-1,-1,-1,-1,-1,-1,-1,-1,-1,-1,-1,-1,-1,-1,-1,-1,-1,-1,-1,-1,-1,-1,-1,-1,-1,-1,-1,-1,-1,-1,-1,-1,-1,-1,-1,-1,-1,-1,-1,-1,-1,-1,-1,-1,-1,-1,-1,-1,-1,-1,-1,-1,-1,-1,-1,-1,-1,-1,-1,-1,-1,-1,-1,-1,-1,-1,-1,-1,-1,-1,-1,-1,-1,-1,-1,-1,-1,-1,-1,-1,-1,-1,-1,-1,-1,-1,-1,-1,-1,-1,-1,-1,-1,-1,-1,-1,-1,-1,-1,-1,-1,-1,-1,-1,-1,-1,-1,-1,-1,-1,-1,-1,-1,-1],"split_conditions":[3.8785748E1,3.78266E1,9E0,9.1E1,5.2E1,3.9760242E1,4.029852E1,3.673092E1,3.6598824E1,3.8739964E1,1.14E2,3.920044E1,4.0169678E1,3.8817505E1,4.0462048E1,3.65028E1,4E0,1.01E2,3.71122E1,3.868732E1,9E0,3.7993034E1,1.2E2,3.9024883E1,1E0,4.0140022E1,4.019114E1,3.879896E1,3.8995304E1,4.0398224E1,4.0495396E1,2.6302814E-1,1.8E1,1E0,3.756953E1,1.37842E0,1.07E2,1E2,8.2741517E-1,3.83942E1,3.8738403E1,3.87496E1,3.876836E1,3.79742E1,3.8567802E1,5.4890317E-1,1.5776001E-1,3E0,3E0,3.9506603E1,3.9237637E1,6E0,4.5348692E-1,4.0170597E1,4.0280525E1,3.8789333E1,3.880026E1,1E1,3.937361E1,3E0,3E0,2E0,4.0499702E1,3.6503E1,3.3E1,3.765218E1,3.7624798E1,3.7147793E1,3.7729706E1,3.4085846E-1,8.683242E-1,3.673092E1,3.673092E1,3.7929962E1,3.866462E1,3.8716198E1,2E0,-2.0539775E-1,3.8771683E1,3.87496E1,2E0,3.7929962E1,7.4635977E-1,5.4E1,5.9E1,3.9014782E1,3.8900974E1,3.9165703E1,2E0,3.94431E1,7.470281E-1,3.9229202E1,3.939252E1,2E0,4.0006275E1,2E0,2E0,3E0,4.0305614E1,6.296061E-2,2E0,3E0,3.8800434E1,3.8835197E1,7.6E1,3.9022873E1,1.9E1,1.9E1,7.762082E-3,2E0,2.59191E-1,1E0,3E0,-2.3337486E-1,3E0,3E0,3.663615E1,3E0,3.4E1,3.7624798E1,3.7669678E1,2E0,3.7669678E1,3.7126297E1,3.7480103E1,3.761247E1,3.780724E1,3E0,7.8902817E-1,-7.630518E-2,-2.4550955E-1,3.7857292E1,3.8206493E1,1E0,3.8671604E1,3E0,3E0,-1.2514153E-1,3E0,3.876697E1,3.877444E1,1.1426208E-1,2E0,3.877444E1,3.8770973E1,3.7857292E1,2.5036147E-1,-1.2255124E-1,3E0,3.8591442E1,-2.1332616E-1,1E0,3.9022873E1,3.88892E1,3.8941208E1,3.9087513E1,2E0,3.9057514E1,3.9057514E1,1.06419995E-1,-1.16437145E-1,-1.4057606E-1,-2.1750598E-1,3.93417E1,3.94431E1,4.0006275E1,3.9928173E1,8E0,4.00257E1,9.0323776E-2,3E0,-1.5420999E-1,-2.001223E-1,2E0,4.024561E1,4.0286873E1,6E0,4.069189E-1,5.7195735E-1,-1.4039454E-1,-8.920117E-2,2E0,2E0,2E0,3E0,1.5738708E-1,-1.01709E-1,-2.6250875E-1,4.2E1,3.970818E1,7.1E1,-1.6018593E-1,-1.06862366E-1,4.042651E1,4.042651E1,2.7356285E-1,1.5605712E-2,1.0204242E0,5.3024095E-1,7.470746E-1,5.5963896E-2,-1.3097835E-1,-2.2746646E-1,-2.5139073E-1,-1.4356431E-1,7.07241E-1,2.9277142E-2,-2.9560187E-1,-1.6353612E-1,1.7764708E-1,1.0308632E-2,9.1323435E-1,2.509926E-1,-1.8661489E-1,-5.2303262E-2,2.9727575E-1,1.15321554E-1,1.2676489E-2,-1.7066033E-1,1.2205185E-1,-3.6747176E-2,-1.7119348E-1,-2.604802E-1,-4.138635E-2,-1.8879357E-1,3.3105153E-1,5.4991428E-2,-7.8194365E-2,-2.4964164E-1,-1.16342574E-1,-1.8065509E-1,4.4967303E-1,5.407843E-3,-2.5191396E-1,-1.4110124E-1,9.206526E-2,2.04695E-1,-1.9939722E-2,2.6394814E-1,6.97878E-2,3.1098826E-2,-2.9537482E-2,6.4999074E-1,-8.643714E-2,-2.186021E-1,-2.3693272E-1,-2.7534595E-1,-1.405843E-1,-6.6878386E-2,-2.3096871E-1,-1.8102239E-1,9.650607E-2,-1.4643973E-1,9.089806E-2,2.790924E-1,4.9180575E-2,-1.14818895E-2,3.3152923E-1,-1.5041572E-2,5.751115E-1,-1.04036115E-1,-2.8211584E-2,8.576647E-2,-2.0075913E-1,-9.042969E-2,-2.1221595E-2,-1.9080047E-1,-2.0154493E-2,-7.233708E-2,-1.4963852E-1,7.452811E-2,6.086458E-1,3.038544E-1,2.3354312E-2,1.9718526E-1,-1.4989322E-1,-7.724789E-2,1.9192702E-1,4.456697E-1,2.3286204E-1,4.237147E-2,3.9281526E-1,1.2323087E-1,-1.8221039E-1,7.359539E-2,-1.6146468E-2,1.33988345E-2,3.4372494E-1,1.006846E-1,2.6922154E-1,6.6278833E-1,7.185354E-3,-8.812855E-2,1.7770486E-1,-8.889456E-2,1.03870835E-2,2.7239162E-1,3.5879552E-2,1.031908E-1,4.3170568E-1,8.8078594E-1,1.5891978E0,7.4095875E-1,4.9034733E-1,8.560805E-2,3.4493756E-1,-3.0468402E-2,7.694742E-1,2.02017E-1,-1.0504192E-3,2.5462E-1,1.069907E-2,-6.553378E-2],"split_indices":[1,1,3,3,3,1,1,1,1,1,3,1,1,1,1,1,3,3,1,1,3,1,3,1,5,1,1,1,1,1,1,0,3,5,1,0,3,3,0,1,1,1,1,1,1,0,0,3,3,1,1,3,0,1,1,1,1,3,1,5,5,5,1,1,3,1,1,1,1,0,0,1,1,1,1,1,5,0,1,1,5,1,0,3,3,1,1,1,5,1,0,1,1,5,1,5,5,5,1,0,5,5,1,1,3,1,3,3,0,5,0,5,5,0,5,5,1,5,3,1,1,5,1,1,1,1,1,5,0,0,0,1,1,5,1,5,3,0,5,1,1,0,5,1,1,1,0,0,5,1,0,5,1,1,1,1,5,1,1,0,0,0,0,1,1,1,1,3,1,0,5,0,0,5,1,1,3,0,0,0,0,5,5,5,5,0,0,0,3,1,3,0,0,1,1,0,0,0,0,0,0,0,0,0,0,0,0,0,0,0,0,0,0,0,0,0,0,0,0,0,0,0,0,0,0,0,0,0,0,0,0,0,0,0,0,0,0,0,0,0,0,0,0,0,0,0,0,0,0,0,0,0,0,0,0,0,0,0,0,0,0,0,0,0,0,0,0,0,0,0,0,0,0,0,0,0,0,0,0,0,0,0,0,0,0,0,0,0,0,0,0,0,0,0,0,0,0,0,0,0,0,0,0,0,0,0,0,0,0,0,0,0,0],"split_type":[0,0,0,0,0,0,0,0,0,0,0,0,0,0,0,0,0,0,0,0,0,0,0,0,0,0,0,0,0,0,0,0,0,0,0,0,0,0,0,0,0,0,0,0,0,0,0,0,0,0,0,0,0,0,0,0,0,0,0,0,0,0,0,0,0,0,0,0,0,0,0,0,0,0,0,0,0,0,0,0,0,0,0,0,0,0,0,0,0,0,0,0,0,0,0,0,0,0,0,0,0,0,0,0,0,0,0,0,0,0,0,0,0,0,0,0,0,0,0,0,0,0,0,0,0,0,0,0,0,0,0,0,0,0,0,0,0,0,0,0,0,0,0,0,0,0,0,0,0,0,0,0,0,0,0,0,0,0,0,0,0,0,0,0,0,0,0,0,0,0,0,0,0,0,0,0,0,0,0,0,0,0,0,0,0,0,0,0,0,0,0,0,0,0,0,0,0,0,0,0,0,0,0,0,0,0,0,0,0,0,0,0,0,0,0,0,0,0,0,0,0,0,0,0,0,0,0,0,0,0,0,0,0,0,0,0,0,0,0,0,0,0,0,0,0,0,0,0,0,0,0,0,0,0,0,0,0,0,0,0,0,0,0,0,0,0,0,0,0,0,0,0,0,0,0,0,0,0,0,0,0,0,0,0,0,0,0,0,0,0,0,0,0,0,0,0,0,0,0,0,0,0,0,0,0,0,0,0,0,0,0,0,0],"sum_hessian":[1.6464E4,9.262E3,7.202E3,4.125E3,5.137E3,5.178E3,2.024E3,4.023E3,1.02E2,4.821E3,3.16E2,3.704E3,1.474E3,1.754E3,2.7E2,4.05E2,3.618E3,3.9E1,6.3E1,3.698E3,1.123E3,2.89E2,2.7E1,1.923E3,1.781E3,6.42E2,8.32E2,3.5E2,1.404E3,1.91E2,7.9E1,8E0,3.97E2,6.56E2,2.962E3,6E0,3.3E1,5.3E1,1E1,3.235E3,4.63E2,2.19E2,9.04E2,4.2E1,2.47E2,1.5E1,1.2E1,1.524E3,3.99E2,2E1,1.761E3,5.92E2,5E1,2.87E2,5.45E2,1.02E2,2.48E2,1.38E2,1.266E3,9.1E1,1E2,3.1E1,4.8E1,3.48E2,4.9E1,1.16E2,5.4E2,2.365E3,5.97E2,2.3E1,1E1,2.4E1,2.9E1,2.148E3,1.087E3,3.66E2,9.7E1,5.7E1,1.62E2,5.82E2,3.22E2,2.9E1,1.3E1,1.48E2,9.9E1,6.45E2,8.79E2,1.77E2,2.22E2,1.2E1,8E0,2.8E2,1.481E3,2.3E2,3.62E2,9E1,1.97E2,1.16E2,4.29E2,1E1,9.2E1,1.48E2,1E2,1.22E2,1.6E1,5.64E2,7.02E2,8.4E1,7E0,9.1E1,9E0,1.2E1,1.9E1,3.6E1,1.2E1,2.01E2,1.47E2,1.5E1,3.4E1,2.2E1,9.4E1,5.1E1,4.89E2,8.67E2,1.498E3,4.85E2,1.12E2,1.6E1,8E0,8E0,2.1E1,4.29E2,1.719E3,6.09E2,4.78E2,1.96E2,1.7E2,2.3E1,7.4E1,1.38E2,2.4E1,7E0,5.75E2,6.9E1,2.53E2,2.1E1,8E0,1.5E1,1.33E2,8E1,1.9E1,6.32E2,1.3E1,1.95E2,6.84E2,1.01E2,7.6E1,3E1,1.92E2,6E0,6E0,7.1E1,2.09E2,1.26E2,1.355E3,7.1E1,1.59E2,2.42E2,1.2E2,2.2E1,6.8E1,3.9E1,1.58E2,9.1E1,2.5E1,2.43E2,1.86E2,2.7E1,6.5E1,1.29E2,1.9E1,3.3E1,6.7E1,2.7E1,9.5E1,7E0,9E0,6.1E1,5.03E2,2.59E2,4.43E2,4E1,4.4E1,1.3E1,7.8E1,6E0,6E0,1E1,9E0,7E0,5E0,1.52E2,4.9E1,1.31E2,1.6E1,9E0,6E0,2.9E1,5E0,1E1,1.2E1,1.3E1,8.1E1,1.3E1,3.8E1,9.8E1,3.91E2,6E2,2.67E2,1.042E3,4.56E2,1.12E2,3.73E2,8.4E1,2.8E1,1E1,6E0,1.02E2,3.27E2,1.046E3,6.73E2,2E1,5.89E2,1.57E2,3.21E2,1.75E2,2.1E1,1.1E1,1.59E2,5.5E1,1.9E1,1.26E2,1.2E1,6E0,1.8E1,1.35E2,4.4E2,3.7E1,3.2E1,8E1,1.73E2,1E1,1.1E1,1.16E2,1.7E1,5.1E1,2.9E1,1.2E1,6.2E2,8E0,5E0,1.61E2,3.4E1,2.05E2,4.79E2,2.4E1,7.7E1,2.2E1,5.4E1,8E0,2.2E1,7.8E1,1.14E2,1.08E2,1.8E1,4.07E2,9.48E2,3.8E1,3.3E1,7.6E1,8.3E1,1.1E1,2.31E2,6.1E1,5.9E1,4.9E1,1.9E1,2.6E1,6.5E1,1.2E1,1.3E1,1.26E2,1.17E2,1.41E2,4.5E1,7E0,2.6E1,1.4E1,5.3E1,6E0,2.1E1,7.5E1,2E1,1.69E2,3.34E2,9.1E1,1.68E2,3.41E2,1.02E2,7E0,6E0,4.2E1,3.6E1],"tree_param":{"num_deleted":"0","num_feature":"6","num_nodes":"313","size_leaf_vector":"1"}},{"base_weights":[-1.0186551E-1,-1.869506E0,2.143947E0,-1.2415929E0,-6.292588E0,1.6241217E1,1.9248452E0,-1.5753275E0,4.4213977E0,4.3378744E-1,-6.4314795E0,1.3035926E-1,1.7819435E1,7.643931E-1,3.9312077E0,-1.2110973E-1,-3.3085153E0,5.552623E0,4.6312392E-1,-6.8888545E0,-3.1883671E0,9.6889876E-2,-8.9720115E-2,1.0322176E0,1.5225424E1,1.9377815E0,-2.412172E0,-3.614042E-2,5.6186867E0,1.6212296E1,-2.4285442E-1,-4.1759458E0,-1.6829233E0,3.4784777E0,7.815947E0,-4.6212583E0,2.4493937E0,-5.2848887E0,-7.346231E0,-6.0058594E0,3.14358E0,7.32462E0,2.1399574E1,1.3213494E0,3.5614044E1,-1.4101602E0,-4.52903E0,2.9217846E0,-1.2711948E0,1.4924477E1,4.434395E0,5.6945343E0,6.2848747E-1,-5.371929E0,2.4916825E-1,-6.363281E0,-3.6375415E0,1.026547E0,-5.7575393E0,4.6910703E-1,6.2348166E0,1.0211882E1,3.5549636E0,-1.6317217E-1,-3.821922E-2,2.4893127E-1,1.2965496E0,-6.3472795E0,-3.6273901E0,-4.5403857E0,-7.6074615E0,-2.5792825E-1,-4.134733E0,-1.7875935E-1,6.263672E0,-4.6735635E-1,1.05650015E1,2.4336807E1,1.5944259E-1,8.547438E0,7.661571E-1,2.9984215E-1,3.936327E1,-2.8103118E0,1.6493582E1,-1.7339412E0,-5.5316086E0,-1.4948776E0,1.2065348E1,-2.5737216E0,3.555553E0,7.2342334E0,1.7556986E1,8.418658E0,2.9659607E0,3.5738817E-1,-4.418877E-2,-3.7832584E0,-6.8719296E0,1.3490238E0,-1.7855866E0,-2.1854117E0,-7.8885436E0,3.2068245E0,-4.112664E0,1.612631E1,6.255413E-1,-8.023052E0,-4.6210437E0,-3.9083338E0,1.6955818E0,7.7540426E0,4.8272696E0,1.2455802E1,5.027707E0,4.643359E0,-1.0111215E-1,-9.522917E-2,3.0178287E0,-2.2979686E-1,-3.6707828E0,-1.2245889E0,-5.487929E0,2.267682E0,-2.1518415E-1,-8.039928E0,-6.1224184E0,-1.0040412E0,-7.2319574E0,9.806243E0,-1.9426392E-1,-3.8209073E-2,5.8731847E-3,3.92163E-1,1.9421382E-1,1.2866501E1,8.397561E-1,2.2805874E0,1.4184347E1,4.271622E0,6.999901E-2,2.9826145E1,4.8470318E1,-8.917844E-1,-4.056278E0,2.5097506E1,4.7294745E0,-2.964148E0,3.3866172E0,-4.985049E0,-2.2532056E-1,-3.2891603E0,3.7056158E0,2.0482924E1,4.3800297E0,-2.9232557E0,3.345475E0,1.2210205E1,-2.0653267E0,1.873468E1,-1.894126E-1,2.4117126E1,1.2152312E1,4.9500433E-1,8.993028E0,5.5779624E0,2.5188178E-1,-2.2988527E-1,-8.1668375E-3,-2.4984649E-1,-1.6608723E-1,-1.5270148E-3,1.0671978E-1,-1.4415875E-2,-1.3371947E-1,-2.7622972E-2,-1.3219073E-1,-2.0527162E-1,-2.8396678E-1,-1.2642156E-1,1.3933662E-1,-1.031884E-1,-1.5191755E-1,7.6446134E-1,-1.0657158E-1,-1.0720308E-2,2.3558274E-1,-2.5917986E-1,-2.098725E-1,-4.8098624E-2,-1.7479359E-1,-7.6618254E-2,-1.9928773E-1,2.7833945E-1,-4.916605E-3,1.4918508E-1,3.745253E-1,9.777196E-2,2.688914E-1,2.9376712E-1,4.0844762E-1,1.2524557E-1,1.8252759E-1,1.0990941E-1,2.3301141E-1,3.161011E-1,1.9096982E-2,-7.994043E-2,-1.7555922E-1,4.734577E-2,-1.0460061E-1,-1.8622012E-1,-1.1848771E-1,-4.8601005E-2,2.490528E-1,-2.624626E-1,-2.1952444E-1,-1.490353E-1,-2.2855115E-1,1.6525096E-1,-8.362059E-2,-1.3582115E-1,-2.5678462E-1,5.805082E-1,-1.3147006E-2,2.1504092E-1,4.7738495E-1,2.7486148E-1,-5.937528E-2,7.067214E-1,8.571024E-4,-1.4717965E-1,2.3207915E-1,-6.5027396E-3,2.604704E-1,1.2560366E0,3.8133657E-1,1.6329572E0,8.699384E-1,1.0855805E-1,-7.715095E-2,-1.5687914E-1,-7.42834E-2,1.0324129E0,5.622179E-1,2.932657E-1,6.2709644E-2,-5.2776437E-2,-1.2553719E-1,-1.1875082E-1,3.127116E-1,-1.817836E-1,-1.3127097E-1,1.0348218E-2,-1.2959814E-1,1.64327E-1,5.2716207E-2,8.070061E-1,-1.6020258E-1,4.6388797E-2,6.195733E-1,-9.334985E-2,6.754396E-4,-9.579116E-2,7.374882E-1,2.0382042E-1,4.6928504E-1,-8.788778E-2,2.8619876E-2,-1.7526464E-1,8.863742E-1,5.108344E-1,1.0773962E0,1.5840814E-1,4.2776597E-1,5.682746E-2,-1.1293813E-1,1.8427424E-1,3.2259738E-1,8.3374E-2,3.4072927E-1,-5.9217974E-3,7.9258287E-1],"categories":[],"categories_nodes":[],"categories_segments":[],"categories_sizes":[],"default_left":[0,0,0,0,0,0,0,0,0,0,0,0,0,0,0,0,0,0,0,0,0,0,0,0,0,0,0,0,0,0,0,0,0,0,0,0,0,0,0,0,0,0,0,0,0,0,0,0,0,0,0,0,0,0,0,0,0,0,0,0,0,0,0,0,0,0,0,0,0,0,0,0,0,0,0,0,0,0,0,0,0,0,0,0,0,0,0,0,0,0,0,0,0,0,0,0,0,0,0,0,0,0,0,0,0,0,0,0,0,0,0,0,0,0,0,0,0,0,0,0,0,0,0,0,0,0,0,0,0,0,0,0,0,0,0,0,0,0,0,0,0,0,0,0,0,0,0,0,0,0,0,0,0,0,0,0,0,0,0,0,0,0,0,0,0,0,0,0,0,0,0,0,0,0,0,0,0,0,0,0,0,0,0,0,0,0,0,0,0,0,0,0,0,0,0,0,0,0,0,0,0,0,0,0,0,0,0,0,0,0,0,0,0,0,0,0,0,0,0,0,0,0,0,0,0,0,0,0,0,0,0,0,0,0,0,0,0,0,0,0,0,0,0,0,0,0,0,0,0,0,0,0,0,0,0,0,0,0,0,0,0,0,0,0,0,0,0,0,0,0,0,0,0,0,0,0,0,0,0,0,0,0,0],"id":1,"left_children":[1,3,5,7,9,11,13,15,17,-1,19,21,23,25,27,29,31,33,35,37,39,-1,-1,-1,41,43,45,47,49,51,53,55,57,59,61,63,65,67,69,71,73,75,77,79,81,83,85,87,89,91,93,95,-1,97,99,101,103,105,107,109,111,113,115,-1,-1,-1,117,119,121,123,125,-1,127,-1,129,131,133,135,-1,137,139,-1,141,143,145,147,149,151,153,155,157,159,161,163,165,-1,-1,167,169,171,173,175,177,179,181,183,185,187,189,191,193,195,197,199,201,203,-1,-1,205,-1,207,209,211,213,-1,215,217,219,221,223,-1,-1,-1,-1,-1,225,-1,227,229,231,233,235,237,239,241,243,245,247,249,251,-1,253,255,257,259,261,263,265,267,269,-1,271,273,275,277,279,281,-1,-1,-1,-1,-1,-1,-1,-1,-1,-1,-1,-1,-1,-1,-1,-1,-1,-1,-1,-1,-1,-1,-1,-1,-1,-1,-1,-1,-1,-1,-1,-1,-1,-1,-1,-1,-1,-1,-1,-1,-1,-1,-1,-1,-1,-1,-1,-1,-1,-1,-1,-1,-1,-1,-1,-1,-1,-1,-1,-1,-1,-1,-1,-1,-1,-1,-1,-1,-1,-1,-1,-1,-1,-1,-1,-1,-1,-1,-1,-1,-1,-1,-1,-1,-1,-1,-1,-1,-1,-1,-1,-1,-1,-1,-1,-1,-1,-1,-1,-1,-1,-1,-1,-1,-1,-1,-1,-1,-1,-1,-1,-1,-1,-1,-1,-1],"loss_changes":[6.6041445E4,2.5846174E4,2.2599914E4,1.5415609E4,3.4278125E3,2.8454375E3,1.6797918E4,1.9406932E4,2.0303037E3,0E0,1.6838516E3,1.1606205E2,3.8650918E3,1.704982E4,1.77013E4,8.331798E3,4.9466133E3,1.629957E3,1.0414127E3,6.999297E2,2.5878706E3,0E0,0E0,0E0,4.2335234E3,6.928843E4,2.6110713E3,2.889741E3,2.0377344E4,1.4252974E3,1.0494556E4,2.6737188E3,1.3518934E4,1.5399165E3,1.6788154E3,7.245709E1,4.8816425E2,3.7670264E2,5.3790625E2,4.494004E2,1.315313E3,1.0401458E3,2.2329004E3,1.3156393E4,5.3697266E3,2.1078365E4,1.1001172E3,9.427516E3,3.5172793E3,4.104121E3,9.611016E3,5.078214E2,0E0,8.41416E2,8.495378E3,2.8566914E3,5.996711E3,4.446459E3,1.2219756E3,4.8982074E2,1.6999219E2,1.1820938E3,4.8297748E2,0E0,0E0,0E0,4.9440167E2,4.5319287E2,4.0009558E2,1.2528624E3,4.086875E2,0E0,5.7452625E2,0E0,1.597896E3,7.200021E0,2.1282861E2,1.4006777E3,0E0,8.233857E3,7.437911E3,0E0,3.0707734E3,1.8585205E3,6.0555703E3,6.7776904E2,2.773291E2,1.486511E3,4.8268574E3,9.2012305E2,5.8141836E3,8.68772E3,5.2025117E3,2.0116895E3,8.541055E3,0E0,0E0,2.4361335E3,3.1569043E2,7.6175283E3,4.6422227E3,3.3860547E2,4.7966602E2,1.299878E3,1.0844375E3,3.588586E3,5.1031357E3,4.2125E1,1.1838013E3,5.710849E1,1.0025662E3,5.299148E2,3.145332E2,9.5146484E1,5.235779E0,1.3680127E2,0E0,0E0,8.168958E2,0E0,8.754785E1,2.6544943E2,3.1924927E1,4.8262463E2,0E0,2.1711719E2,2.4713965E2,3.7537698E2,6.896057E1,2.6483667E3,0E0,0E0,0E0,0E0,0E0,9.424951E1,0E0,3.301234E3,1.6319281E4,1.6094149E4,6.284674E3,5.2384297E3,1.3237461E3,2.3430408E3,8.6193896E2,1.4278555E3,3.39133E2,1.19104126E2,1.1266957E3,1.2471826E2,0E0,4.435122E2,1.319267E2,6.109335E3,1.8586462E3,2.309502E2,3.5500308E3,7.6753516E2,1.9328812E2,8.143711E3,0E0,5.1586797E3,1.1841484E3,1.9189833E2,2.0062148E3,9.900705E3,6.9650195E3,0E0,0E0,0E0,0E0,0E0,0E0,0E0,0E0,0E0,0E0,0E0,0E0,0E0,0E0,0E0,0E0,0E0,0E0,0E0,0E0,0E0,0E0,0E0,0E0,0E0,0E0,0E0,0E0,0E0,0E0,0E0,0E0,0E0,0E0,0E0,0E0,0E0,0E0,0E0,0E0,0E0,0E0,0E0,0E0,0E0,0E0,0E0,0E0,0E0,0E0,0E0,0E0,0E0,0E0,0E0,0E0,0E0,0E0,0E0,0E0,0E0,0E0,0E0,0E0,0E0,0E0,0E0,0E0,0E0,0E0,0E0,0E0,0E0,0E0,0E0,0E0,0E0,0E0,0E0,0E0,0E0,0E0,0E0,0E0,0E0,0E0,0E0,0E0,0E0,0E0,0E0,0E0,0E0,0E0,0E0,0E0,0E0,0E0,0E0,0E0,0E0,0E0,0E0,0E0,0E0,0E0,0E0,0E0,0E0,0E0,0E0,0E0,0E0,0E0,0E0,0E0],"parents":[2147483647,0,0,1,1,2,2,3,3,4,4,5,5,6,6,7,7,8,8,10,10,11,11,12,12,13,13,14,14,15,15,16,16,17,17,18,18,19,19,20,20,24,24,25,25,26,26,27,27,28,28,29,29,30,30,31,31,32,32,33,33,34,34,35,35,36,36,37,37,38,38,39,39,40,40,41,41,42,42,43,43,44,44,45,45,46,46,47,47,48,48,49,49,50,50,51,51,53,53,54,54,55,55,56,56,57,57,58,58,59,59,60,60,61,61,62,62,66,66,67,67,68,68,69,69,70,70,72,72,74,74,75,75,76,76,77,77,79,79,80,80,82,82,83,83,84,84,85,85,86,86,87,87,88,88,89,89,90,90,91,91,92,92,93,93,94,94,97,97,98,98,99,99,100,100,101,101,102,102,103,103,104,104,105,105,106,106,107,107,108,108,109,109,110,110,111,111,112,112,113,113,114,114,115,115,118,118,120,120,121,121,122,122,123,123,125,125,126,126,127,127,128,128,129,129,135,135,137,137,138,138,139,139,140,140,141,141,142,142,143,143,144,144,145,145,146,146,147,147,148,148,149,149,151,151,152,152,153,153,154,154,155,155,156,156,157,157,158,158,159,159,161,161,162,162,163,163,164,164,165,165,166,166],"right_children":[2,4,6,8,10,12,14,16,18,-1,20,22,24,26,28,30,32,34,36,38,40,-1,-1,-1,42,44,46,48,50,52,54,56,58,60,62,64,66,68,70,72,74,76,78,80,82,84,86,88,90,92,94,96,-1,98,100,102,104,106,108,110,112,114,116,-1,-1,-1,118,120,122,124,126,-1,128,-1,130,132,134,136,-1,138,140,-1,142,144,146,148,150,152,154,156,158,160,162,164,166,-1,-1,168,170,172,174,176,178,180,182,184,186,188,190,192,194,196,198,200,202,204,-1,-1,206,-1,208,210,212,214,-1,216,218,220,222,224,-1,-1,-1,-1,-1,226,-1,228,230,232,234,236,238,240,242,244,246,248,250,252,-1,254,256,258,260,262,264,266,268,270,-1,272,274,276,278,280,282,-1,-1,-1,-1,-1,-1,-1,-1,-1,-1,-1,-1,-1,-1,-1,-1,-1,-1,-1,-1,-1,-1,-1,-1,-1,-1,-1,-1,-1,-1,-1,-1,-1,-1,-1,-1,-1,-1,-1,-1,-1,-1,-1,-1,-1,-1,-1,-1,-1,-1,-1,-1,-1,-1,-1,-1,-1,-1,-1,-1,-1,-1,-1,-1,-1,-1,-1,-1,-1,-1,-1,-1,-1,-1,-1,-1,-1,-1,-1,-1,-1,-1,-1,-1,-1,-1,-1,-1,-1,-1,-1,-1,-1,-1,-1,-1,-1,-1,-1,-1,-1,-1,-1,-1,-1,-1,-1,-1,-1,-1,-1,-1,-1,-1,-1,-1],"split_conditions":[3.8785748E1,3.8739964E1,3.879896E1,3.868732E1,2.006E3,3.8789333E1,3.955446E1,3.78266E1,3.8738403E1,4.3378744E-1,2.022E3,2.008E3,2.016E3,3.939252E1,2.009E3,3.65028E1,3.83942E1,3.8716198E1,2E0,2E0,3.876709E1,9.6889876E-2,-8.9720115E-2,1.0322176E0,2.019E3,3.937361E1,3.9506603E1,3.9928173E1,3.970818E1,2.017E3,3.663615E1,3.7929962E1,3.866462E1,2.019E3,2.014E3,2.016E3,2.007E3,2.016E3,2.008E3,3.8750458E1,2.023E3,2.017E3,3E0,2.006E3,1E0,3.949302E1,2E0,3.979654E1,4.0462048E1,3.962133E1,2.013E3,2.009E3,6.2848747E-1,2.012E3,2.017E3,3.7857292E1,3.7993034E1,1E0,3.8671604E1,2.009E3,2.022E3,3.873506E1,2.023E3,-1.6317217E-1,-3.821922E-2,2.4893127E-1,2.011E3,3.876836E1,2.018E3,3.8757576E1,3.8770973E1,-2.5792825E-1,3.8757576E1,-1.7875935E-1,2.024E3,2E0,2.018E3,2E0,1.5944259E-1,3.9024883E1,3.88892E1,2.9984215E-1,2.014E3,2.014E3,2.022E3,2.022E3,3E0,3.9760242E1,3.9858704E1,3E0,4.0495396E1,2.021E3,3.970287E1,3.9760242E1,4.0169678E1,3.5738817E-1,-4.418877E-2,2.008E3,2.018E3,2.011E3,3.756953E1,2.014E3,3.7898003E1,2.01E3,3.8206493E1,3.8591442E1,3.861461E1,3.8665516E1,2.012E3,3.8702457E1,2.011E3,2.021E3,2.024E3,2.009E3,2.011E3,3E0,-1.0111215E-1,-9.522917E-2,2.013E3,-2.2979686E-1,3.8775608E1,3.8762367E1,3.876697E1,3.8750458E1,-2.1518415E-1,2.015E3,3.8775608E1,2E0,3.876697E1,3.8771683E1,-1.9426392E-1,-3.8209073E-2,5.8731847E-3,3.92163E-1,1.9421382E-1,2.021E3,8.397561E-1,2E0,3.9138107E1,3.880026E1,3.9343513E1,2.011E3,2.018E3,2E0,3.94431E1,2.012E3,2.023E3,2.014E3,3.9524002E1,2.013E3,-2.2532056E-1,3.962133E1,3.9774357E1,2.008E3,2.007E3,4.042651E1,2.008E3,2E0,2.008E3,2.016E3,-1.894126E-1,3.969763E1,1E0,2.012E3,2.01E3,3.9858704E1,4.0499702E1,-2.2988527E-1,-8.1668375E-3,-2.4984649E-1,-1.6608723E-1,-1.5270148E-3,1.0671978E-1,-1.4415875E-2,-1.3371947E-1,-2.7622972E-2,-1.3219073E-1,-2.0527162E-1,-2.8396678E-1,-1.2642156E-1,1.3933662E-1,-1.031884E-1,-1.5191755E-1,7.6446134E-1,-1.0657158E-1,-1.0720308E-2,2.3558274E-1,-2.5917986E-1,-2.098725E-1,-4.8098624E-2,-1.7479359E-1,-7.6618254E-2,-1.9928773E-1,2.7833945E-1,-4.916605E-3,1.4918508E-1,3.745253E-1,9.777196E-2,2.688914E-1,2.9376712E-1,4.0844762E-1,1.2524557E-1,1.8252759E-1,1.0990941E-1,2.3301141E-1,3.161011E-1,1.9096982E-2,-7.994043E-2,-1.7555922E-1,4.734577E-2,-1.0460061E-1,-1.8622012E-1,-1.1848771E-1,-4.8601005E-2,2.490528E-1,-2.624626E-1,-2.1952444E-1,-1.490353E-1,-2.2855115E-1,1.6525096E-1,-8.362059E-2,-1.3582115E-1,-2.5678462E-1,5.805082E-1,-1.3147006E-2,2.1504092E-1,4.7738495E-1,2.7486148E-1,-5.937528E-2,7.067214E-1,8.571024E-4,-1.4717965E-1,2.3207915E-1,-6.5027396E-3,2.604704E-1,1.2560366E0,3.8133657E-1,1.6329572E0,8.699384E-1,1.0855805E-1,-7.715095E-2,-1.5687914E-1,-7.42834E-2,1.0324129E0,5.622179E-1,2.932657E-1,6.2709644E-2,-5.2776437E-2,-1.2553719E-1,-1.1875082E-1,3.127116E-1,-1.817836E-1,-1.3127097E-1,1.0348218E-2,-1.2959814E-1,1.64327E-1,5.2716207E-2,8.070061E-1,-1.6020258E-1,4.6388797E-2,6.195733E-1,-9.334985E-2,6.754396E-4,-9.579116E-2,7.374882E-1,2.0382042E-1,4.6928504E-1,-8.788778E-2,2.8619876E-2,-1.7526464E-1,8.863742E-1,5.108344E-1,1.0773962E0,1.5840814E-1,4.2776597E-1,5.682746E-2,-1.1293813E-1,1.8427424E-1,3.2259738E-1,8.3374E-2,3.4072927E-1,-5.9217974E-3,7.9258287E-1],"split_indices":[1,1,1,1,4,1,1,1,1,0,4,4,4,1,4,1,1,1,5,5,1,0,0,0,4,1,1,1,1,4,1,1,1,4,4,4,4,4,4,1,4,4,5,4,5,1,5,1,1,1,4,4,0,4,4,1,1,5,1,4,4,1,4,0,0,0,4,1,4,1,1,0,1,0,4,5,4,5,0,1,1,0,4,4,4,4,5,1,1,5,1,4,1,1,1,0,0,4,4,4,1,4,1,4,1,1,1,1,4,1,4,4,4,4,4,5,0,0,4,0,1,1,1,1,0,4,1,5,1,1,0,0,0,0,0,4,0,5,1,1,1,4,4,5,1,4,4,4,1,4,0,1,1,4,4,1,4,5,4,4,0,1,5,4,4,1,1,0,0,0,0,0,0,0,0,0,0,0,0,0,0,0,0,0,0,0,0,0,0,0,0,0,0,0,0,0,0,0,0,0,0,0,0,0,0,0,0,0,0,0,0,0,0,0,0,0,0,0,0,0,0,0,0,0,0,0,0,0,0,0,0,0,0,0,0,0,0,0,0,0,0,0,0,0,0,0,0,0,0,0,0,0,0,0,0,0,0,0,0,0,0,0,0,0,0,0,0,0,0,0,0,0,0,0,0,0,0,0,0,0,0,0,0],"split_type":[0,0,0,0,0,0,0,0,0,0,0,0,0,0,0,0,0,0,0,0,0,0,0,0,0,0,0,0,0,0,0,0,0,0,0,0,0,0,0,0,0,0,0,0,0,0,0,0,0,0,0,0,0,0,0,0,0,0,0,0,0,0,0,0,0,0,0,0,0,0,0,0,0,0,0,0,0,0,0,0,0,0,0,0,0,0,0,0,0,0,0,0,0,0,0,0,0,0,0,0,0,0,0,0,0,0,0,0,0,0,0,0,0,0,0,0,0,0,0,0,0,0,0,0,0,0,0,0,0,0,0,0,0,0,0,0,0,0,0,0,0,0,0,0,0,0,0,0,0,0,0,0,0,0,0,0,0,0,0,0,0,0,0,0,0,0,0,0,0,0,0,0,0,0,0,0,0,0,0,0,0,0,0,0,0,0,0,0,0,0,0,0,0,0,0,0,0,0,0,0,0,0,0,0,0,0,0,0,0,0,0,0,0,0,0,0,0,0,0,0,0,0,0,0,0,0,0,0,0,0,0,0,0,0,0,0,0,0,0,0,0,0,0,0,0,0,0,0,0,0,0,0,0,0,0,0,0,0,0,0,0,0,0,0,0,0,0,0,0,0,0,0,0,0,0,0,0,0,0,0,0,0,0],"sum_hessian":[1.6634E4,9.308E3,7.326E3,8.152E3,1.156E3,1.11E2,7.215E3,7.699E3,4.53E2,7E0,1.149E3,1E1,1.01E2,4.572E3,2.643E3,4.187E3,3.512E3,3.52E2,1.01E2,1.006E3,1.43E2,5E0,5E0,1.2E1,8.9E1,3.339E3,1.233E3,7.89E2,1.854E3,3E1,4.157E3,2.289E3,1.223E3,1.85E2,1.67E2,2.8E1,7.3E1,2.26E2,7.8E2,9.9E1,4.4E1,4E1,4.9E1,3.28E3,5.9E1,8.38E2,3.95E2,2.32E2,5.57E2,2.08E2,1.646E3,1E1,2E1,3.63E2,3.794E3,4.5E2,1.839E3,7.35E2,4.88E2,8.9E1,9.6E1,1.06E2,6.1E1,2.2E1,6E0,1.1E1,6.2E1,1.36E2,9E1,6.8E1,7.12E2,4E1,5.9E1,1.1E1,3.3E1,1.2E1,2.8E1,4.1E1,8E0,2.33E2,3.047E3,8E0,5.1E1,7.78E2,6E1,1.05E2,2.9E2,1.57E2,7.5E1,4.39E2,1.18E2,5.4E1,1.54E2,4.42E2,1.204E3,5E0,5E0,1.78E2,1.85E2,2.463E3,1.331E3,1.21E2,3.29E2,1.19E2,1.72E3,1.8E1,7.17E2,1.61E2,3.27E2,1.9E1,7E1,4.4E1,5.2E1,7.3E1,3.3E1,5.3E1,8E0,1.7E1,4.5E1,9E1,4.6E1,4E1,5E1,1.9E1,4.9E1,5.48E2,1.64E2,3E1,2.9E1,2.6E1,7E0,5E0,7E0,1.6E1,1.2E1,1.1E1,3E1,1.11E2,1.22E2,5.04E2,2.543E3,2.7E1,2.4E1,3.07E2,4.71E2,3.4E1,2.6E1,8.5E1,2E1,2.3E2,6E1,1.17E2,4E1,3.5E1,4E1,4.15E2,2.4E1,4.6E1,7.2E1,2.9E1,2.5E1,6.8E1,8.6E1,3E1,4.12E2,6.13E2,5.91E2,8.4E1,9.4E1,8.6E1,9.9E1,1.508E3,9.55E2,8.95E2,4.36E2,7.8E1,4.3E1,2.01E2,1.28E2,1.9E1,1E2,1.01E3,7.1E2,1.2E1,6E0,6.32E2,8.5E1,9.6E1,6.5E1,9.4E1,2.33E2,1.4E1,5E0,1.3E1,5.7E1,2.9E1,1.5E1,3.9E1,1.3E1,2.5E1,4.8E1,2.1E1,1.2E1,4.2E1,1.1E1,1E1,3.5E1,3.3E1,1.3E1,1.8E1,2.2E1,3.2E1,1.8E1,1.2E1,7E0,2.71E2,2.77E2,9.5E1,6.9E1,6E0,2.4E1,1.1E1,1.8E1,1.3E1,1.3E1,5E0,6E0,4.2E1,6.9E1,7.3E1,4.9E1,1.38E2,3.66E2,2.462E3,8.1E1,1.5E1,1.2E1,1.7E1,7E0,8.3E1,2.24E2,2.69E2,2.02E2,1.2E1,2.2E1,8E0,1.8E1,4.4E1,4.1E1,1E1,1E1,8E1,1.5E2,2.6E1,9.1E1,2E1,2E1,2.8E1,7E0,3.5E1,5E0,3.9E2,2.5E1,1.9E1,5E0,1.9E1,2.7E1,5.6E1,1.6E1,9E0,2E1,4.4E1,2.4E1,2.1E1,6.5E1,2.3E1,7E0,1.59E2,2.53E2,4.14E2,1.99E2,5.82E2,9E0],"tree_param":{"num_deleted":"0","num_feature":"6","num_nodes":"283","size_leaf_vector":"1"}},{"base_weights":[8.002775E-2,-7.1668595E-1,6.465818E0,-3.1352005E0,1.8191589E0,4.9820557E0,4.2312744E1,-1.3710828E-1,-5.663961E0,-7.259782E-1,8.595341E0,4.247998E0,2.2727505E1,3.8557217E-1,4.6254784E1,5.955942E0,-1.3990859E0,-5.7601414E0,2.0881157E1,-2.2754312E-1,-3.8626128E-1,7.407947E0,3.6136448E1,1.5473069E1,3.6178715E0,8.200086E0,1.8387172E0,3.687847E1,5.629935E1,-2.1130776E0,7.557714E0,-6.864136E0,-8.6899894E-1,-2.9244957E0,-6.0924435E0,1.1453482E0,-1.3023031E-1,9.2656016E-1,-2.7391324E0,3.2519279E0,1.0910774E1,1.8879907E-1,4.025107E1,1.2919276E1,1.1106519E0,4.639752E0,-2.8522453E-1,-3.814468E0,5.358121E-1,1.4363884E0,2.2569561E-1,1.9477665E0,1.0025104E0,-3.3564153E0,1.0038204E0,9.711312E0,1.0646752E-1,-8.581038E0,-4.4412503E0,4.3111897E0,-1.7805635E0,-4.1960945E0,1.9259459E0,6.3351226E0,-6.2387853E0,-2.3011622E0,2.2987914E0,1.8870571E1,-2.9081273E0,1.4724715E1,1.6797572E0,8.43037E0,3.9272106E1,4.3785328E1,4.2940703E-1,1.4851747E1,3.2974608E0,2.1018157E0,6.1573353E0,1.2342837E0,-6.738678E0,-1.5174897E-2,-4.8892455E0,-1.6534199E0,-5.9126787E0,6.0040317E0,-2.3854213E0,1.5040188E0,1.1317404E1,-3.9216094E0,1.2495977E0,-4.349836E0,-2.7413157E-1,-4.752046E0,-1.5847774E0,1.4162727E1,-1.1183559E0,-3.413603E0,9.2897403E-1,-5.0794544E0,-3.2230597E0,6.686343E-1,-6.1164147E-1,1.4562079E1,-3.8539815E0,-6.8473306E0,-4.4803095E0,-3.555901E0,7.381247E0,1.3544178E1,1.139483E0,1.1936177E0,8.488146E-2,-3.1166651E0,5.559215E0,-1.7371051E-1,2.6140354E1,-3.8889513E0,4.732342E0,2.4188482E1,2.1613271E0,4.3974024E-1,4.328227E1,1.3978245E0,2.6526754E1,1.0553608E1,1.8167658E1,-6.783407E-2,2.1763286E-1,6.4417634E0,-1.8331444E0,1.6027893E1,5.3907866E0,4.6586723E0,-4.8469225E-1,-1.1319214E-1,-2.5628886E-1,-7.318414E-2,-2.2939587E-1,1.1045633E-1,-7.77818E-2,-2.2169727E-1,-1.0919183E-1,-1.5203206E-2,3.7797895E-1,-1.8131712E-2,-9.071825E-2,-3.585604E-3,2.8012168E-1,1.090316E-1,3.9538208E-1,-1.2051792E-2,-1.434448E-1,-7.621701E-2,6.1896026E-2,6.988861E-3,-2.549295E-1,-7.3588125E-2,-1.6848442E-1,-1.7503363E-1,6.8526E-2,-1.613617E-1,4.8154545E-1,1.0363929E-1,-1.5233645E-1,-2.9518927E-2,-1.7936294E-1,9.803609E-3,2.4200433E-1,-1.3385315E-1,-2.0224532E-1,-1.6459063E-1,-5.93323E-2,-2.070025E-1,9.0842046E-2,4.1868284E-2,5.386046E-1,-7.8823015E-2,-1.6096121E-1,-1.3640036E-1,-2.121839E-1,-1.6711935E-1,1.6936643E-1,1.5463522E-1,-1.3451113E-1,5.5474675E-1,1.8255901E-1,4.993624E-1,7.304017E-2,-6.4477324E-2,6.696351E-2,-3.2939076E-2,-1.2135264E-1,1.9126089E-1,1.353348E-2,5.075761E-1,8.47707E-1,-1.8686584E-1,3.831223E-2,5.2432925E-1,3.049428E-2,7.791684E-1,-3.0089703E-1,-1.1621723E-1,2.1710627E-1,1.4882036E0,8.727996E-1,5.902375E-2,1.3999478E0,6.424821E-2,3.7237406E-1,6.258392E-1,3.4770152E-1,-7.9914875E-2,2.0099579E-1,-7.682591E-2,3.9390415E-2,1.611848E0,2.0590149E-1,8.0859065E-2,2.0862158E-1,-6.366118E-2,2.0554176E-1,-3.495073E-2,3.7156265E-2],"categories":[],"categories_nodes":[],"categories_segments":[],"categories_sizes":[],"default_left":[0,0,0,0,0,0,0,0,0,0,0,0,0,0,0,0,0,0,0,0,0,0,0,0,0,0,0,0,0,0,0,0,0,0,0,0,0,0,0,0,0,0,0,0,0,0,0,0,0,0,0,0,0,0,0,0,0,0,0,0,0,0,0,0,0,0,0,0,0,0,0,0,0,0,0,0,0,0,0,0,0,0,0,0,0,0,0,0,0,0,0,0,0,0,0,0,0,0,0,0,0,0,0,0,0,0,0,0,0,0,0,0,0,0,0,0,0,0,0,0,0,0,0,0,0,0,0,0,0,0,0,0,0,0,0,0,0,0,0,0,0,0,0,0,0,0,0,0,0,0,0,0,0,0,0,0,0,0,0,0,0,0,0,0,0,0,0,0,0,0,0,0,0,0,0,0,0,0,0,0,0,0,0,0,0,0,0,0,0,0,0,0,0,0,0,0,0,0,0,0,0,0,0,0,0,0,0,0,0,0,0,0,0,0,0,0,0,0,0,0,0,0,0,0,0],"id":2,"left_children":[1,3,5,7,9,11,13,15,17,19,21,23,25,-1,27,29,31,33,35,-1,37,39,41,43,45,47,-1,49,51,53,55,57,59,61,63,-1,-1,65,67,69,71,-1,73,75,-1,77,79,81,-1,-1,-1,-1,-1,83,85,87,89,91,93,95,97,99,101,103,105,107,109,111,113,115,117,119,121,123,-1,125,127,129,131,133,135,-1,137,139,141,143,145,147,149,151,153,155,-1,157,159,161,163,165,167,169,171,-1,173,175,177,179,181,183,185,187,189,-1,-1,191,193,-1,195,197,199,201,203,-1,205,-1,207,209,211,-1,-1,213,215,217,219,221,223,-1,-1,-1,-1,-1,-1,-1,-1,-1,-1,-1,-1,-1,-1,-1,-1,-1,-1,-1,-1,-1,-1,-1,-1,-1,-1,-1,-1,-1,-1,-1,-1,-1,-1,-1,-1,-1,-1,-1,-1,-1,-1,-1,-1,-1,-1,-1,-1,-1,-1,-1,-1,-1,-1,-1,-1,-1,-1,-1,-1,-1,-1,-1,-1,-1,-1,-1,-1,-1,-1,-1,-1,-1,-1,-1,-1,-1,-1,-1,-1,-1,-1,-1,-1,-1,-1,-1,-1,-1,-1],"loss_changes":[8.439343E4,9.045486E4,9.765567E4,5.723164E4,1.24179695E5,2.2933738E4,7.8832812E3,2.657484E4,1.05753125E4,1.2194871E4,6.4024703E4,1.1961422E4,3.8712945E4,0E0,3.9513594E3,7.680334E3,8.288008E3,3.8276875E3,6.7097915E3,0E0,1.5413059E4,2.7420562E4,9.6929375E3,4.4744766E3,6.4228047E3,6.1034766E3,0E0,1.1265691E4,3.5546172E3,3.870295E2,7.9422285E3,1.014334E3,1.2337016E4,2.6602427E3,6.681297E3,0E0,0E0,1.4191958E4,6.580872E3,1.5559389E4,7.163447E4,0E0,5.881828E3,1.4757246E3,0E0,4.9016133E3,3.293353E3,8.287207E1,0E0,0E0,0E0,0E0,0E0,2.9930853E2,5.0578293E2,5.0447383E3,5.2061743E2,3.065E2,8.7461426E1,2.0930184E4,9.830611E3,2.7673145E2,4.6639326E3,3.6606104E3,3.8324375E3,1.1640592E4,2.9291453E4,4.5848267E3,3.149787E3,2.450739E4,1.2954608E4,9.3006305E4,7.459492E3,1.7695469E3,0E0,7.7741797E2,3.4633115E2,8.1919414E3,5.9514766E3,1.6033701E3,3.1021777E2,0E0,1.0293149E2,2.3005132E2,6.711749E1,5.21671E2,1.8642403E1,8.150541E2,4.544254E3,7.374649E1,2.7660645E2,3.6314297E2,0E0,1.7694385E2,2.1062993E2,5.2167812E3,4.59859E3,8.632245E3,3.590754E3,1.516333E2,4.542047E2,0E0,1.8748303E3,1.0466128E3,2.297873E1,1.358E3,1.0310236E4,6.8681826E3,1.4712944E3,7.1946445E3,7.3316895E3,0E0,0E0,3.2416797E3,1.7638953E2,0E0,8.295547E2,3.271724E3,2.3283268E4,1.6618875E4,2.070472E4,0E0,4.838453E3,0E0,5.348561E3,4.7379346E2,4.137744E2,0E0,0E0,5.536748E2,5.8032153E2,1.9325055E4,3.1078672E3,1.3675452E3,2.1481459E2,0E0,0E0,0E0,0E0,0E0,0E0,0E0,0E0,0E0,0E0,0E0,0E0,0E0,0E0,0E0,0E0,0E0,0E0,0E0,0E0,0E0,0E0,0E0,0E0,0E0,0E0,0E0,0E0,0E0,0E0,0E0,0E0,0E0,0E0,0E0,0E0,0E0,0E0,0E0,0E0,0E0,0E0,0E0,0E0,0E0,0E0,0E0,0E0,0E0,0E0,0E0,0E0,0E0,0E0,0E0,0E0,0E0,0E0,0E0,0E0,0E0,0E0,0E0,0E0,0E0,0E0,0E0,0E0,0E0,0E0,0E0,0E0,0E0,0E0,0E0,0E0,0E0,0E0,0E0,0E0,0E0,0E0,0E0,0E0,0E0,0E0,0E0,0E0,0E0,0E0],"parents":[2147483647,0,0,1,1,2,2,3,3,4,4,5,5,6,6,7,7,8,8,9,9,10,10,11,11,12,12,14,14,15,15,16,16,17,17,18,18,20,20,21,21,22,22,23,23,24,24,25,25,27,27,28,28,29,29,30,30,31,31,32,32,33,33,34,34,37,37,38,38,39,39,40,40,42,42,43,43,45,45,46,46,47,47,53,53,54,54,55,55,56,56,57,57,58,58,59,59,60,60,61,61,62,62,63,63,64,64,65,65,66,66,67,67,68,68,69,69,70,70,71,71,72,72,73,73,75,75,76,76,77,77,78,78,79,79,80,80,82,82,83,83,84,84,85,85,86,86,87,87,88,88,89,89,90,90,91,91,93,93,94,94,95,95,96,96,97,97,98,98,99,99,100,100,102,102,103,103,104,104,105,105,106,106,107,107,108,108,109,109,110,110,113,113,114,114,116,116,117,117,118,118,119,119,120,120,122,122,124,124,125,125,126,126,129,129,130,130,131,131,132,132,133,133,134,134],"right_children":[2,4,6,8,10,12,14,16,18,20,22,24,26,-1,28,30,32,34,36,-1,38,40,42,44,46,48,-1,50,52,54,56,58,60,62,64,-1,-1,66,68,70,72,-1,74,76,-1,78,80,82,-1,-1,-1,-1,-1,84,86,88,90,92,94,96,98,100,102,104,106,108,110,112,114,116,118,120,122,124,-1,126,128,130,132,134,136,-1,138,140,142,144,146,148,150,152,154,156,-1,158,160,162,164,166,168,170,172,-1,174,176,178,180,182,184,186,188,190,-1,-1,192,194,-1,196,198,200,202,204,-1,206,-1,208,210,212,-1,-1,214,216,218,220,222,224,-1,-1,-1,-1,-1,-1,-1,-1,-1,-1,-1,-1,-1,-1,-1,-1,-1,-1,-1,-1,-1,-1,-1,-1,-1,-1,-1,-1,-1,-1,-1,-1,-1,-1,-1,-1,-1,-1,-1,-1,-1,-1,-1,-1,-1,-1,-1,-1,-1,-1,-1,-1,-1,-1,-1,-1,-1,-1,-1,-1,-1,-1,-1,-1,-1,-1,-1,-1,-1,-1,-1,-1,-1,-1,-1,-1,-1,-1,-1,-1,-1,-1,-1,-1,-1,-1,-1,-1,-1,-1],"split_conditions":[-9.049462E1,3.8785748E1,3.8800434E1,-9.2838394E1,9E0,-8.954725E1,1E0,-9.4275E1,1.23E2,-9.46194E1,-9.0764656E1,3.6819614E1,2.8E1,3.8557217E-1,-9.020633E1,3.729573E1,3.71122E1,3E0,1.24E2,-2.2754312E-1,-9.2464424E1,1.9E1,3.8835197E1,-8.98952E1,1E1,3.7456703E1,1.8387172E0,-9.028331E1,3E0,3.6988804E1,3.827642E1,3.663615E1,3.7189564E1,3.861461E1,1E0,1.1453482E0,-1.3023031E-1,3.9024883E1,1E0,3.879896E1,-9.108122E1,1.8879907E-1,3.9057514E1,3E0,1.1106519E0,-9.028331E1,3.7189564E1,2E0,5.358121E-1,1.4363884E0,2.2569561E-1,1.9477665E0,1.0025104E0,3E0,3.71122E1,1E0,2E0,1E0,-9.36118E1,-9.326928E1,3.7929962E1,3.7311913E1,3.866462E1,-9.0811584E1,-9.090583E1,-9.365495E1,3.91904E1,-9.234496E1,-9.155112E1,-9.080078E1,3.9022873E1,4E1,1E0,3E0,4.2940703E-1,3.663615E1,3.663615E1,-9.046929E1,-9.02583E1,-9.028331E1,3.741506E1,-1.5174897E-2,3.6918E1,-9.460449E1,3.6819614E1,3E0,-9.45648E1,3.82279E1,-9.43804E1,3.8307095E1,3.8307095E1,3.6503E1,-2.7413157E-1,2E0,2E0,-9.37956E1,3.7126297E1,3.756953E1,5.9E1,3E0,-9.238521E1,6.686343E-1,-9.223582E1,3.7434402E1,3.780257E1,-9.2782074E1,3.8555897E1,-9.450848E1,-9.2890816E1,-9.36696E1,3.94767E1,1.1936177E0,8.488146E-2,3.9022873E1,3E0,-1.7371051E-1,2E0,-9.077385E1,3.9165703E1,-9.302441E1,5.3E1,4.3974024E-1,3E0,1.3978245E0,3.8992588E1,6.8E1,-8.994122E1,-6.783407E-2,2.1763286E-1,1E0,-9.0335106E1,3.8555897E1,3.7726006E1,2E0,-9.017539E1,-1.1319214E-1,-2.5628886E-1,-7.318414E-2,-2.2939587E-1,1.1045633E-1,-7.77818E-2,-2.2169727E-1,-1.0919183E-1,-1.5203206E-2,3.7797895E-1,-1.8131712E-2,-9.071825E-2,-3.585604E-3,2.8012168E-1,1.090316E-1,3.9538208E-1,-1.2051792E-2,-1.434448E-1,-7.621701E-2,6.1896026E-2,6.988861E-3,-2.549295E-1,-7.3588125E-2,-1.6848442E-1,-1.7503363E-1,6.8526E-2,-1.613617E-1,4.8154545E-1,1.0363929E-1,-1.5233645E-1,-2.9518927E-2,-1.7936294E-1,9.803609E-3,2.4200433E-1,-1.3385315E-1,-2.0224532E-1,-1.6459063E-1,-5.93323E-2,-2.070025E-1,9.0842046E-2,4.1868284E-2,5.386046E-1,-7.8823015E-2,-1.6096121E-1,-1.3640036E-1,-2.121839E-1,-1.6711935E-1,1.6936643E-1,1.5463522E-1,-1.3451113E-1,5.5474675E-1,1.8255901E-1,4.993624E-1,7.304017E-2,-6.4477324E-2,6.696351E-2,-3.2939076E-2,-1.2135264E-1,1.9126089E-1,1.353348E-2,5.075761E-1,8.47707E-1,-1.8686584E-1,3.831223E-2,5.2432925E-1,3.049428E-2,7.791684E-1,-3.0089703E-1,-1.1621723E-1,2.1710627E-1,1.4882036E0,8.727996E-1,5.902375E-2,1.3999478E0,6.424821E-2,3.7237406E-1,6.258392E-1,3.4770152E-1,-7.9914875E-2,2.0099579E-1,-7.682591E-2,3.9390415E-2,1.611848E0,2.0590149E-1,8.0859065E-2,2.0862158E-1,-6.366118E-2,2.0554176E-1,-3.495073E-2,3.7156265E-2],"split_indices":[2,1,1,2,3,2,5,2,3,2,2,1,3,0,2,1,1,3,3,0,2,3,1,2,3,1,0,2,5,1,1,1,1,1,5,0,0,1,5,1,2,0,1,5,0,2,1,5,0,0,0,0,0,5,1,5,5,5,2,2,1,1,1,2,2,2,1,2,2,2,1,3,5,5,0,1,1,2,2,2,1,0,1,2,1,5,2,1,2,1,1,1,0,5,5,2,1,1,3,5,2,0,2,1,1,2,1,2,2,2,1,0,0,1,5,0,5,2,1,2,3,0,5,0,1,3,2,0,0,5,2,1,1,5,2,0,0,0,0,0,0,0,0,0,0,0,0,0,0,0,0,0,0,0,0,0,0,0,0,0,0,0,0,0,0,0,0,0,0,0,0,0,0,0,0,0,0,0,0,0,0,0,0,0,0,0,0,0,0,0,0,0,0,0,0,0,0,0,0,0,0,0,0,0,0,0,0,0,0,0,0,0,0,0,0,0,0,0,0,0,0,0,0,0,0],"split_type":[0,0,0,0,0,0,0,0,0,0,0,0,0,0,0,0,0,0,0,0,0,0,0,0,0,0,0,0,0,0,0,0,0,0,0,0,0,0,0,0,0,0,0,0,0,0,0,0,0,0,0,0,0,0,0,0,0,0,0,0,0,0,0,0,0,0,0,0,0,0,0,0,0,0,0,0,0,0,0,0,0,0,0,0,0,0,0,0,0,0,0,0,0,0,0,0,0,0,0,0,0,0,0,0,0,0,0,0,0,0,0,0,0,0,0,0,0,0,0,0,0,0,0,0,0,0,0,0,0,0,0,0,0,0,0,0,0,0,0,0,0,0,0,0,0,0,0,0,0,0,0,0,0,0,0,0,0,0,0,0,0,0,0,0,0,0,0,0,0,0,0,0,0,0,0,0,0,0,0,0,0,0,0,0,0,0,0,0,0,0,0,0,0,0,0,0,0,0,0,0,0,0,0,0,0,0,0,0,0,0,0,0,0,0,0,0,0,0,0,0,0,0,0,0,0],"sum_hessian":[1.6586E4,1.4747E4,1.839E3,7.548E3,7.199E3,1.767E3,7.2E1,3.454E3,4.094E3,5.234E3,1.965E3,1.698E3,6.9E1,9E0,6.3E1,5.92E2,2.862E3,4.08E3,1.4E1,2.46E2,4.988E3,1.885E3,8E1,8.9E1,1.609E3,5.1E1,1.8E1,3.5E1,2.8E1,9.8E1,4.94E2,2.52E2,2.61E3,4.29E2,3.651E3,8E0,6E0,3.202E3,1.786E3,8.63E2,1.022E3,1E1,7E1,8.1E1,8E0,1.275E3,3.34E2,2.3E1,2.8E1,2.5E1,1E1,1.9E1,9E0,7E1,2.8E1,3.83E2,1.11E2,1.46E2,1.06E2,3.9E2,2.22E3,3.4E2,8.9E1,4.2E1,3.609E3,9.55E2,2.247E3,1.3E1,1.773E3,1.03E2,7.6E2,9.41E2,8.1E1,6.1E1,9E0,6.7E1,1.4E1,4.78E2,7.97E2,2.71E2,6.3E1,6E0,1.7E1,4.3E1,2.7E1,1.1E1,1.7E1,6.3E1,3.2E2,2.4E1,8.7E1,1.8E1,1.28E2,9.5E1,1.1E1,1.38E2,2.52E2,1.385E3,8.35E2,1.76E2,1.64E2,9E0,8E1,2.3E1,1.9E1,2.679E3,9.3E2,8.46E2,1.09E2,2.09E2,2.038E3,5E0,8E0,1.731E3,4.2E1,3.7E1,6.6E1,2.69E2,4.91E2,2.67E2,6.74E2,1.2E1,6.9E1,5.1E1,1E1,3.1E1,3.6E1,6E0,8E0,2.27E2,2.51E2,5.6E1,7.41E2,9E1,1.81E2,2.5E1,3.8E1,1E1,7E0,6E0,3.7E1,1.5E1,1.2E1,6E0,5E0,5E0,1.2E1,5.3E1,1E1,6.3E1,2.57E2,5E0,1.9E1,1.5E1,7.2E1,9E0,9E0,2.7E1,6.8E1,5E0,6E0,1.2E1,1.26E2,1.17E2,1.35E2,7.12E2,6.73E2,7.71E2,6.4E1,1.31E2,4.5E1,5.7E1,1.07E2,2.9E1,5.1E1,5E0,1.8E1,1.2E1,7E0,2.41E2,2.438E3,8.4E2,9E1,8.1E1,7.65E2,1E1,9.9E1,1.63E2,4.6E1,5.08E2,1.53E3,5.46E2,1.185E3,3.6E1,6E0,1.4E1,5.2E1,1.85E2,8.4E1,1.1E2,3.81E2,2.54E2,1.3E1,3.08E2,3.66E2,4.6E1,2.3E1,5E0,5E0,6E0,2.5E1,2.4E1,1.2E1,6E0,2.21E2,2.04E2,4.7E1,1E1,4.6E1,2.73E2,4.68E2,2.2E1,6.8E1,1.3E2,5.1E1],"tree_param":{"num_deleted":"0","num_feature":"6","num_nodes":"225","size_leaf_vector":"1"}},{"base_weights":[-6.1837863E-2,-1.7931719E0,2.1696572E0,-1.4798881E-1,-3.177053E0,1.5341369E1,1.9735551E0,1.6927568E1,-2.7186388E-1,-2.3959959E0,-5.761214E0,7.4799154E-3,1.6894678E1,1.1297381E1,1.7883576E0,2.4836313E1,2.95077E-1,9.289058E-1,-2.1900103E0,-3.1824255E0,3.3829193E0,3.158367E-1,-5.908679E0,1.2035182E0,1.4063763E1,1.3047349E1,1.8280952E0,7.368833E-1,3.6034806E0,4.842419E-1,1.0121791E0,-2.1970234E0,2.130064E0,-1.1871933E0,-4.565158E0,-7.491699E0,-2.7345326E0,4.3429894E0,-8.939948E-2,-6.430542E0,-2.3773305E0,8.335774E0,2.2105974E1,9.469199E0,1.806821E1,1.4653021E-1,1.6952217E-1,1.9661397E0,-2.5851612E0,1.1286563E1,2.7883618E0,-4.7374773E0,-9.661407E-1,4.8253937E0,2.6733628E-1,-1.8016491E0,9.006556E0,-5.9673133E0,-1.2071809E0,-5.254543E0,-8.176896E0,-2.248954E0,-5.3187594E0,3.5282364E0,8.833874E0,-5.136704E0,1.5941814E0,-4.80611E0,-6.8845716E0,-5.131806E0,4.14138E0,2.782599E-3,1.1012437E1,2.5199472E1,2.4386396E-1,6.8747816E0,1.49351845E1,1.1115933E1,2.6477522E1,2.712152E0,-1.5027405E-1,1.4231988E0,3.5475807E1,-1.6093017E0,-4.523235E0,-2.8371992E0,1.5139878E1,2.3905385E-1,3.970454E0,-3.5439475E0,-2.3578742E-1,8.376457E-1,-5.707239E0,8.363095E-2,8.117527E0,8.298111E0,-7.27752E-1,-5.8093143E0,-1.1678463E0,-3.466795E-2,1.1286212E1,-5.5711937E0,-2.9782978E-1,1.0646334E0,-4.4433284E0,-1.7664988E-1,-4.2895446E0,-2.1661536E-1,-9.052563E0,-3.3032877E0,2.5635421E0,-2.3491344E0,-6.471649E0,2.4086416E0,6.122941E0,1.7176298E1,6.168297E0,-1.6788681E-1,-8.0167644E-2,3.0168593E-1,4.834338E-1,-7.4592404E0,-4.2160497E0,-3.9848385E0,-7.13198E0,-8.0870695E0,-3.2026587E0,5.8884506E0,-1.9300523E-1,1.3134605E1,2.6458211E-2,4.8863032E-1,8.1884074E-1,1.6904818E1,3.61234E0,2.6090193E1,4.225024E-2,1.0134577E0,4.7197657E0,1.0340065E0,1.6724867E-1,1.1058181E-3,1.61439E-1,2.411453E0,-1.2284921E0,2.3882664E1,4.6150387E1,-2.8583755E0,1.5148103E1,-4.020336E0,-7.1320677E0,-9.2808926E-1,-5.014643E0,1.8153938E1,6.93365E0,4.9699473E0,-1.3838862E0,9.811878E0,2.7983172E0,-2.0628455E-1,-2.4837218E-2,-4.3611787E-2,1.0313194E-1,-1.23755164E-1,-2.3886569E-1,-4.1045662E-2,4.5663148E-1,4.7754002E-1,2.2121608E-1,4.3080682E-1,1.2954407E-2,-1.2294478E-1,3.638899E-2,-1.9550401E-1,1.4368977E-2,-4.858779E-2,1.0818797E-1,6.3598096E-1,2.9526076E-1,-1.7924121E-1,-4.6159793E-2,1.4133483E-1,-9.1576785E-2,-2.0409456E-1,-9.551462E-2,-7.372448E-2,-1.4224079E-1,-2.7963004E-1,-1.7244051E-1,7.850391E-2,-1.1029177E-1,1.3978085E-1,1.8792095E-2,-1.6336982E-1,1.1681696E-1,-2.3419455E-1,-1.7036088E-1,-1.428894E-1,1.016785E-1,4.8796496E-1,1.5359738E-1,6.871178E-1,2.698474E-1,1.5679869E-1,2.4035333E-1,-1.3116245E-1,5.6614734E-2,-1.5538973E-1,-2.475365E-1,4.8309047E-2,-1.4082272E-1,1.05324134E-1,-2.0138063E-1,-2.2613096E-1,-1.7466998E-1,-1.5097414E-1,-2.5973353E-1,-3.0256616E-2,-2.492513E-1,3.3844572E-1,-1.9982379E-2,9.469197E-2,4.8604122E-1,8.210267E-1,5.6424588E-2,1.5488614E-1,-9.123981E-2,4.5392874E-1,9.526995E-1,2.8243795E-1,3.0875627E-2,9.4383415E-3,3.8317373E-1,-7.020764E-2,2.7317202E-1,1.0536427E0,3.2814E-1,1.6178194E0,7.640611E-1,-1.04652315E-1,1.9525398E-2,7.102449E-1,1.7327544E-1,-7.721969E-2,-1.3854845E-1,-2.4263957E-1,-1.8795529E-1,4.553605E-2,-1.1495665E-1,-2.2100772E-1,1.09861985E-1,8.065787E-1,3.25503E-1,-1.6434284E-1,4.6913743E-1,-2.9355224E-2,3.948391E-1,-8.191315E-2,1.3829872E-1,2.0869306E-1,4.330832E-1,1.2823316E-1,-2.1646885E-2],"categories":[],"categories_nodes":[],"categories_segments":[],"categories_sizes":[],"default_left":[0,0,0,0,0,0,0,0,0,0,0,0,0,0,0,0,0,0,0,0,0,0,0,0,0,0,0,0,0,0,0,0,0,0,0,0,0,0,0,0,0,0,0,0,0,0,0,0,0,0,0,0,0,0,0,0,0,0,0,0,0,0,0,0,0,0,0,0,0,0,0,0,0,0,0,0,0,0,0,0,0,0,0,0,0,0,0,0,0,0,0,0,0,0,0,0,0,0,0,0,0,0,0,0,0,0,0,0,0,0,0,0,0,0,0,0,0,0,0,0,0,0,0,0,0,0,0,0,0,0,0,0,0,0,0,0,0,0,0,0,0,0,0,0,0,0,0,0,0,0,0,0,0,0,0,0,0,0,0,0,0,0,0,0,0,0,0,0,0,0,0,0,0,0,0,0,0,0,0,0,0,0,0,0,0,0,0,0,0,0,0,0,0,0,0,0,0,0,0,0,0,0,0,0,0,0,0,0,0,0,0,0,0,0,0,0,0,0,0,0,0,0,0,0,0,0,0,0,0,0,0,0,0,0,0,0,0,0,0,0,0,0,0,0,0,0,0,0,0,0,0,0,0,0,0,0,0,0,0,0,0,0,0],"id":3,"left_children":[1,3,5,7,9,11,13,15,17,19,21,-1,23,25,27,29,-1,31,33,35,37,-1,39,-1,41,43,45,47,49,-1,-1,51,53,55,57,59,61,63,65,67,69,71,73,75,77,79,-1,81,83,85,87,89,91,93,95,97,99,101,103,105,107,109,111,113,115,117,119,121,123,125,127,-1,129,131,-1,133,135,137,139,141,-1,143,145,147,149,151,153,155,157,159,-1,161,163,165,167,169,171,173,175,-1,177,179,-1,181,183,-1,185,-1,187,189,191,193,195,197,199,201,203,-1,-1,-1,205,207,209,211,213,215,217,219,-1,221,-1,-1,-1,223,225,227,-1,-1,229,-1,-1,-1,-1,231,233,235,237,239,241,243,245,247,249,251,253,255,257,259,261,-1,-1,-1,-1,-1,-1,-1,-1,-1,-1,-1,-1,-1,-1,-1,-1,-1,-1,-1,-1,-1,-1,-1,-1,-1,-1,-1,-1,-1,-1,-1,-1,-1,-1,-1,-1,-1,-1,-1,-1,-1,-1,-1,-1,-1,-1,-1,-1,-1,-1,-1,-1,-1,-1,-1,-1,-1,-1,-1,-1,-1,-1,-1,-1,-1,-1,-1,-1,-1,-1,-1,-1,-1,-1,-1,-1,-1,-1,-1,-1,-1,-1,-1,-1,-1,-1,-1,-1,-1,-1,-1,-1,-1,-1,-1,-1,-1,-1,-1,-1,-1,-1,-1,-1],"loss_changes":[6.4589402E4,2.143274E4,1.8835953E4,9.104345E3,1.0306156E4,2.5041465E3,1.24089375E4,1.4943848E3,9.841526E3,1.786238E4,2.9110664E3,0E0,5.8126973E3,2.29608E3,1.3469836E4,5.391504E2,0E0,9.872125E3,3.912704E3,6.6537812E3,1.5705474E3,0E0,2.1519375E3,0E0,3.8695117E3,1.9488262E3,1.4701654E2,1.8263057E4,1.6182461E4,0E0,0E0,2.2781335E3,9.532952E3,7.269486E3,2.290499E3,4.5522266E2,3.9207207E3,1.3189888E3,8.83436E2,7.2215234E2,2.7684636E3,1.1683594E3,1.3517402E3,9.041782E2,2.5119434E3,2.3845282E2,0E0,5.933396E4,2.2773965E3,1.3539934E4,7.056711E3,8.590112E2,4.220882E3,1.2113078E4,8.988292E3,2.7695122E3,1.5420132E3,4.8434863E2,1.0707598E3,2.305835E1,1.4149219E2,1.3403767E4,1.6795049E3,8.974275E2,1.1393447E3,1.4489685E1,7.282733E2,3.239214E2,5.4408203E2,5.89823E2,8.8773706E2,0E0,8.4836084E2,9.692383E1,0E0,1.5750544E3,3.2828809E3,3.8998699E3,3.3148115E3,8.549063E1,0E0,8.422773E3,5.3328984E3,1.6892943E4,5.013662E2,2.198229E2,4.6972734E3,5.7115996E3,1.092766E4,1.5690774E3,0E0,2.1378767E3,4.5233203E2,7.0314253E3,2.5394238E3,5.906915E3,6.5525234E3,6.660029E2,2.0439127E3,0E0,5.644429E2,5.0336914E2,0E0,1.3055386E3,1.5667285E2,0E0,1.731958E1,0E0,5.7305664E1,4.793908E3,1.9255308E3,2.7276448E3,3.3248145E2,1.5703899E3,8.730093E2,4.0316016E2,3.450757E1,0E0,0E0,0E0,4.853571E2,2.9476562E1,5.311836E2,1.3526207E3,3.461211E2,2.9648438E1,7.421867E2,1.421477E3,0E0,9.586904E2,0E0,0E0,0E0,1.834833E3,4.1805402E2,2.646919E2,0E0,0E0,3.888235E2,0E0,0E0,0E0,0E0,5.085511E4,1.0051387E4,3.5438555E3,2.8083828E3,1.6604692E3,4.3384785E3,2.8302148E2,2.3625488E0,2.188934E2,5.3722955E2,8.764656E3,5.9195615E3,9.270803E3,4.4839336E3,3.4251016E3,6.934242E3,0E0,0E0,0E0,0E0,0E0,0E0,0E0,0E0,0E0,0E0,0E0,0E0,0E0,0E0,0E0,0E0,0E0,0E0,0E0,0E0,0E0,0E0,0E0,0E0,0E0,0E0,0E0,0E0,0E0,0E0,0E0,0E0,0E0,0E0,0E0,0E0,0E0,0E0,0E0,0E0,0E0,0E0,0E0,0E0,0E0,0E0,0E0,0E0,0E0,0E0,0E0,0E0,0E0,0E0,0E0,0E0,0E0,0E0,0E0,0E0,0E0,0E0,0E0,0E0,0E0,0E0,0E0,0E0,0E0,0E0,0E0,0E0,0E0,0E0,0E0,0E0,0E0,0E0,0E0,0E0,0E0,0E0,0E0,0E0,0E0,0E0,0E0,0E0,0E0,0E0,0E0,0E0,0E0,0E0,0E0,0E0,0E0,0E0,0E0,0E0,0E0,0E0,0E0,0E0],"parents":[2147483647,0,0,1,1,2,2,3,3,4,4,5,5,6,6,7,7,8,8,9,9,10,10,12,12,13,13,14,14,15,15,17,17,18,18,19,19,20,20,22,22,24,24,25,25,26,26,27,27,28,28,31,31,32,32,33,33,34,34,35,35,36,36,37,37,38,38,39,39,40,40,41,41,42,42,43,43,44,44,45,45,47,47,48,48,49,49,50,50,51,51,52,52,53,53,54,54,55,55,56,56,57,57,58,58,59,59,60,60,61,61,62,62,63,63,64,64,65,65,66,66,67,67,68,68,69,69,70,70,72,72,73,73,75,75,76,76,77,77,78,78,79,79,81,81,82,82,83,83,84,84,85,85,86,86,87,87,88,88,89,89,91,91,92,92,93,93,94,94,95,95,96,96,97,97,98,98,100,100,101,101,103,103,104,104,106,106,108,108,109,109,110,110,111,111,112,112,113,113,114,114,115,115,116,116,120,120,121,121,122,122,123,123,124,124,125,125,126,126,127,127,129,129,133,133,134,134,135,135,138,138,143,143,144,144,145,145,146,146,147,147,148,148,149,149,150,150,151,151,152,152,153,153,154,154,155,155,156,156,157,157,158,158],"right_children":[2,4,6,8,10,12,14,16,18,20,22,-1,24,26,28,30,-1,32,34,36,38,-1,40,-1,42,44,46,48,50,-1,-1,52,54,56,58,60,62,64,66,68,70,72,74,76,78,80,-1,82,84,86,88,90,92,94,96,98,100,102,104,106,108,110,112,114,116,118,120,122,124,126,128,-1,130,132,-1,134,136,138,140,142,-1,144,146,148,150,152,154,156,158,160,-1,162,164,166,168,170,172,174,176,-1,178,180,-1,182,184,-1,186,-1,188,190,192,194,196,198,200,202,204,-1,-1,-1,206,208,210,212,214,216,218,220,-1,222,-1,-1,-1,224,226,228,-1,-1,230,-1,-1,-1,-1,232,234,236,238,240,242,244,246,248,250,252,254,256,258,260,262,-1,-1,-1,-1,-1,-1,-1,-1,-1,-1,-1,-1,-1,-1,-1,-1,-1,-1,-1,-1,-1,-1,-1,-1,-1,-1,-1,-1,-1,-1,-1,-1,-1,-1,-1,-1,-1,-1,-1,-1,-1,-1,-1,-1,-1,-1,-1,-1,-1,-1,-1,-1,-1,-1,-1,-1,-1,-1,-1,-1,-1,-1,-1,-1,-1,-1,-1,-1,-1,-1,-1,-1,-1,-1,-1,-1,-1,-1,-1,-1,-1,-1,-1,-1,-1,-1,-1,-1,-1,-1,-1,-1,-1,-1,-1,-1,-1,-1,-1,-1,-1,-1,-1,-1],"split_conditions":[3.8785748E1,3.7857292E1,3.879896E1,3.65028E1,3.8739964E1,3.8789333E1,1E0,2.019E3,2.016E3,3.868732E1,2.006E3,7.4799154E-3,2.016E3,2.023E3,3.955446E1,2.015E3,2.95077E-1,3.7147793E1,3.756953E1,3.7929962E1,3.8738403E1,3.158367E-1,2.022E3,1.2035182E0,2.02E3,2.015E3,3.9506603E1,3.939252E1,3.970818E1,4.842419E-1,1.0121791E0,3.663615E1,3.7480103E1,3.7538258E1,3.7729706E1,3.7874847E1,3.866462E1,3E0,2E0,2E0,3.876709E1,2.017E3,3E0,3.9990726E1,3.9327343E1,3.9327343E1,1.6952217E-1,3.937361E1,3.9506603E1,2.01E3,2.009E3,2.012E3,3.7126297E1,2.011E3,1E0,3.673092E1,2.017E3,3.77294E1,3.780257E1,2.018E3,3.7898003E1,3.8557964E1,2.012E3,3.8722748E1,2.01E3,2.017E3,2.007E3,3.8750458E1,2.008E3,3.8750458E1,2.024E3,2.782599E-3,3E0,2E0,2.4386396E-1,2.007E3,4.029852E1,3.8869976E1,3.9539505E1,3.904E1,-1.5027405E-1,3.9150997E1,2.014E3,3.949302E1,3E0,3.962133E1,2.021E3,3.9928173E1,2.011E3,2.008E3,-2.3578742E-1,3.698352E1,3.713772E1,3.7456703E1,3.7166393E1,2.009E3,3.762987E1,2.024E3,2.024E3,-3.466795E-2,2.018E3,3.771195E1,-2.9782978E-1,2.022E3,2.018E3,-1.7664988E-1,2.023E3,-2.1661536E-1,2.023E3,3.7993034E1,2.014E3,3.8674026E1,3.8671604E1,2.009E3,2.006E3,3.8722748E1,2.021E3,-1.6788681E-1,-8.0167644E-2,3.0168593E-1,2.01E3,3.87496E1,3.8757576E1,3.8757576E1,3.8770973E1,2E0,3.876697E1,3.8771683E1,-1.9300523E-1,2E0,2.6458211E-2,4.8863032E-1,8.1884074E-1,3.89356E1,3.970818E1,4.0140022E1,4.225024E-2,1.0134577E0,3.904E1,1.0340065E0,1.6724867E-1,1.1058181E-3,1.61439E-1,3.9024883E1,3.9343513E1,2.011E3,2.018E3,3.94767E1,2.022E3,2E0,2.014E3,2.007E3,2.009E3,3.970287E1,3.962133E1,3.979654E1,4.0462048E1,2.01E3,4.0280525E1,-2.0628455E-1,-2.4837218E-2,-4.3611787E-2,1.0313194E-1,-1.23755164E-1,-2.3886569E-1,-4.1045662E-2,4.5663148E-1,4.7754002E-1,2.2121608E-1,4.3080682E-1,1.2954407E-2,-1.2294478E-1,3.638899E-2,-1.9550401E-1,1.4368977E-2,-4.858779E-2,1.0818797E-1,6.3598096E-1,2.9526076E-1,-1.7924121E-1,-4.6159793E-2,1.4133483E-1,-9.1576785E-2,-2.0409456E-1,-9.551462E-2,-7.372448E-2,-1.4224079E-1,-2.7963004E-1,-1.7244051E-1,7.850391E-2,-1.1029177E-1,1.3978085E-1,1.8792095E-2,-1.6336982E-1,1.1681696E-1,-2.3419455E-1,-1.7036088E-1,-1.428894E-1,1.016785E-1,4.8796496E-1,1.5359738E-1,6.871178E-1,2.698474E-1,1.5679869E-1,2.4035333E-1,-1.3116245E-1,5.6614734E-2,-1.5538973E-1,-2.475365E-1,4.8309047E-2,-1.4082272E-1,1.05324134E-1,-2.0138063E-1,-2.2613096E-1,-1.7466998E-1,-1.5097414E-1,-2.5973353E-1,-3.0256616E-2,-2.492513E-1,3.3844572E-1,-1.9982379E-2,9.469197E-2,4.8604122E-1,8.210267E-1,5.6424588E-2,1.5488614E-1,-9.123981E-2,4.5392874E-1,9.526995E-1,2.8243795E-1,3.0875627E-2,9.4383415E-3,3.8317373E-1,-7.020764E-2,2.7317202E-1,1.0536427E0,3.2814E-1,1.6178194E0,7.640611E-1,-1.04652315E-1,1.9525398E-2,7.102449E-1,1.7327544E-1,-7.721969E-2,-1.3854845E-1,-2.4263957E-1,-1.8795529E-1,4.553605E-2,-1.1495665E-1,-2.2100772E-1,1.09861985E-1,8.065787E-1,3.25503E-1,-1.6434284E-1,4.6913743E-1,-2.9355224E-2,3.948391E-1,-8.191315E-2,1.3829872E-1,2.0869306E-1,4.330832E-1,1.2823316E-1,-2.1646885E-2],"split_indices":[1,1,1,1,1,1,5,4,4,1,4,0,4,4,1,4,0,1,1,1,1,0,4,0,4,4,1,1,1,0,0,1,1,1,1,1,1,5,5,5,1,4,5,1,1,1,0,1,1,4,4,4,1,4,5,1,4,1,1,4,1,1,4,1,4,4,4,1,4,1,4,0,5,5,0,4,1,1,1,1,0,1,4,1,5,1,4,1,4,4,0,1,1,1,1,4,1,4,4,0,4,1,0,4,4,0,4,0,4,1,4,1,1,4,4,1,4,0,0,0,4,1,1,1,1,5,1,1,0,5,0,0,0,1,1,1,0,0,1,0,0,0,0,1,1,4,4,1,4,5,4,4,4,1,1,1,1,4,1,0,0,0,0,0,0,0,0,0,0,0,0,0,0,0,0,0,0,0,0,0,0,0,0,0,0,0,0,0,0,0,0,0,0,0,0,0,0,0,0,0,0,0,0,0,0,0,0,0,0,0,0,0,0,0,0,0,0,0,0,0,0,0,0,0,0,0,0,0,0,0,0,0,0,0,0,0,0,0,0,0,0,0,0,0,0,0,0,0,0,0,0,0,0,0,0,0,0,0,0,0,0,0,0],"split_type":[0,0,0,0,0,0,0,0,0,0,0,0,0,0,0,0,0,0,0,0,0,0,0,0,0,0,0,0,0,0,0,0,0,0,0,0,0,0,0,0,0,0,0,0,0,0,0,0,0,0,0,0,0,0,0,0,0,0,0,0,0,0,0,0,0,0,0,0,0,0,0,0,0,0,0,0,0,0,0,0,0,0,0,0,0,0,0,0,0,0,0,0,0,0,0,0,0,0,0,0,0,0,0,0,0,0,0,0,0,0,0,0,0,0,0,0,0,0,0,0,0,0,0,0,0,0,0,0,0,0,0,0,0,0,0,0,0,0,0,0,0,0,0,0,0,0,0,0,0,0,0,0,0,0,0,0,0,0,0,0,0,0,0,0,0,0,0,0,0,0,0,0,0,0,0,0,0,0,0,0,0,0,0,0,0,0,0,0,0,0,0,0,0,0,0,0,0,0,0,0,0,0,0,0,0,0,0,0,0,0,0,0,0,0,0,0,0,0,0,0,0,0,0,0,0,0,0,0,0,0,0,0,0,0,0,0,0,0,0,0,0,0,0,0,0,0,0,0,0,0,0,0,0,0,0,0,0,0,0,0,0,0,0],"sum_hessian":[1.6716E4,9.413E3,7.303E3,4.301E3,5.112E3,1.06E2,7.197E3,3E1,4.271E3,3.927E3,1.185E3,1E1,9.6E1,1.39E2,7.058E3,1.3E1,1.7E1,2.627E3,1.644E3,3.457E3,4.7E2,1E1,1.175E3,9E0,8.7E1,1.17E2,2.2E1,4.47E3,2.588E3,8E0,5E0,7.29E2,1.898E3,1.157E3,4.87E2,3.24E2,3.133E3,3.68E2,1.02E2,1.023E3,1.52E2,5.2E1,3.5E1,7E1,4.7E1,1.6E1,6E0,3.263E3,1.207E3,2.47E2,2.341E3,2.37E2,4.92E2,7.75E2,1.123E3,1.092E3,6.5E1,3.43E2,1.44E2,7.8E1,2.46E2,2.639E3,4.94E2,3.13E2,5.5E1,2.5E1,7.7E1,2.26E2,7.97E2,1.07E2,4.5E1,1.3E1,3.9E1,2.8E1,7E0,4.9E1,2.1E1,2.7E1,2E1,1.1E1,5E0,3.212E3,5.1E1,8.04E2,4.03E2,5.3E1,1.94E2,7.42E2,1.599E3,1.73E2,6.4E1,3.57E2,1.35E2,3.18E2,4.57E2,1.23E2,1E3,1.48E2,9.44E2,1.2E1,5.3E1,3.14E2,2.9E1,8.5E1,5.9E1,4.4E1,3.4E1,1.22E2,1.24E2,2.165E3,4.74E2,1.39E2,3.55E2,2.2E2,9.3E1,1.2E1,4.3E1,2E1,5E0,8E0,6.9E1,3.9E1,1.87E2,6.4E1,7.33E2,4.1E1,6.6E1,3.9E1,6E0,3.2E1,7E0,7E0,2.1E1,1.1E1,3.8E1,1.1E1,1E1,5E0,2.2E1,1.4E1,6E0,6E0,5E0,2.34E3,8.72E2,2.6E1,2.5E1,7.49E2,5.5E1,3.4E2,6.3E1,2.9E1,2.4E1,1.41E2,5.3E1,1.89E2,5.53E2,2.66E2,1.333E3,7.7E1,9.6E1,1.9E2,1.67E2,8.1E1,5.4E1,2.91E2,2.7E1,3.8E1,4.19E2,6.9E1,5.4E1,3.65E2,6.35E2,1.33E2,1.5E1,8.63E2,8.1E1,5E0,4.8E1,2.85E2,2.9E1,4.5E1,4E1,1.9E1,4E1,8E0,2.6E1,1.13E2,1.1E1,1.28E2,2.037E3,2.27E2,2.47E2,9.3E1,4.6E1,1.29E2,2.26E2,2.6E1,1.94E2,7E0,8.6E1,6E0,6E0,3.1E1,1.2E1,1.5E1,5.4E1,1.2E1,2.7E1,1.4E1,1.73E2,1.7E1,4.7E1,5.56E2,1.77E2,8E0,3.3E1,4.7E1,1.9E1,2.1E1,1.8E1,8E0,2.4E1,6E0,5E0,3.1E1,7E0,5E0,6E0,9E0,1.3E1,1.947E3,3.93E2,7.88E2,8.4E1,1.3E1,1.3E1,1.7E1,8E0,6.35E2,1.14E2,2.8E1,2.7E1,1.01E2,2.39E2,2.6E1,3.7E1,1.6E1,1.3E1,1.9E1,5E0,6.3E1,7.8E1,2.2E1,3.1E1,1.1E2,7.9E1,4.52E2,1.01E2,1.66E2,1E2,9.39E2,3.94E2],"tree_param":{"num_deleted":"0","num_feature":"6","num_nodes":"263","size_leaf_vector":"1"}},{"base_weights":[7.144892E-2,-6.9758224E-1,6.227423E0,-2.368885E0,2.3277397E0,4.840648E0,4.2273567E1,-6.557212E-1,-3.834836E0,1.6144108E0,3.3817127E1,4.0844812E0,2.2637857E1,2.8732544E1,5.660933E1,1.6678014E0,-1.6747687E0,-5.3542314E0,1.9205472E0,4.967286E0,-1.0795473E0,2.711761E-1,3.6069393E1,1.53453865E1,3.4013708E0,1.1488912E1,5.1050674E1,1.3406205E0,4.998903E0,1.8689072E0,1.1360089E0,3.8012998E0,-6.5619297E0,7.5125966E0,-1.9961786E0,-5.5427895E0,-1.3003317E0,1.6864426E-1,3.0838543E1,1.7054304E0,9.172944E0,1.5495949E1,-1.5221285E0,3.7921577E1,4.3488774E-1,1.303011E1,1.0255584E0,5.1735836E-1,5.2257233E0,-1.6050015E-2,1.6249271E1,5.909749E1,1.0394788E0,-3.9055318E-2,2.6728606E-1,-4.7766137E0,7.500532E0,-2.9062268E-1,-4.387435E0,1.026248E1,2.1096892E0,-1.1493496E0,-5.2275157E0,-5.942666E0,-4.264457E0,8.691332E0,-4.971694E0,1.3567684E1,-1.2566578E0,1.3513445E1,4.716885E1,1.5502098E1,1.8156925E-1,2.5616E1,8.1300125E0,4.6275353E0,2.683962E1,-3.061531E0,1.4092205E-1,2.7899033E1,4.288773E1,7.4876585E0,1.6548943E1,7.6151237E0,-8.840036E-3,2.1007235E0,8.143586E0,6.1838394E-1,2.4553026E-1,1.1747105E0,2.1753535E0,-7.416546E-1,-5.9661293E0,3.2619793E0,8.884749E0,-1.8495929E0,-4.6683445E0,5.109394E-1,8.941279E0,-2.0597775E0,4.2802467E0,-3.693615E0,1.2087257E0,-5.775261E0,3.4112236E0,-5.144052E0,-6.928348E0,-5.2286367E0,5.9729934E0,-1.40557E0,1.459939E1,-1.8144007E0,-6.7918487E0,-1.6873674E-1,2.401468E1,7.1721663E0,-2.567403E0,8.695883E0,1.6509691E1,1.6053451E0,5.33343E-1,2.6636564E1,-1.8310477E0,9.847093E0,-8.0993897E-1,9.997675E-1,1.3797939E1,7.2400296E-1,1.1691698E1,1.4150754E0,5.7332736E-1,3.8167462E-1,3.1074127E1,4.2817936E0,-3.457388E0,-4.6964312E-1,6.2833893E-1,1.187585E0,1.9193626E1,2.9248577E1,4.9999027E1,4.3280425E0,4.5809564E-1,2.6303915E1,6.8997216E0,3.424184E0,1.22634945E1,3.2468166E0,-1.7133492E0,-1.3400421E0,6.2485895E0,1.832858E1,7.138266E0,-6.1634414E-2,3.103791E-1,-2.1383676E-1,-1.3138352E-1,2.6831927E-2,6.789429E-1,3.4151763E-1,1.6794702E-1,-1.13277726E-1,1.4888563E-2,-1.4586645E-1,-6.2463533E-2,2.0320873E-1,4.1694638E-1,-1.2788501E-1,-4.5003816E-3,2.1263362E-1,-3.5595622E-2,-5.928425E-3,-1.6921256E-1,6.810956E-2,-2.4023933E-2,-1.9544105E-1,-1.3798054E-1,3.5719454E-1,5.1352844E-2,-1.6919275E-1,7.706453E-2,-2.6749447E-1,-1.9720815E-1,-8.77231E-2,-2.4369155E-1,8.15603E-1,6.59123E-2,1.4854455E-1,-1.4161436E-1,1.2275662E0,1.9937876E-1,-1.5958436E-1,1.7899069E-1,-2.454736E-1,-1.6569068E-1,4.6597248E-1,7.836359E-1,8.074278E-1,1.4978714E-1,-4.5278233E-2,-1.2984705E-1,4.7516632E-1,-1.0403773E-1,6.673309E-1,3.5365975E-1,2.6334114E0,6.373848E-1,-9.3696564E-2,2.5142318E-1,5.1962906E-1,1.8537249E-1,-1.2350509E-1,1.0686582E-1,1.6143352E-1,9.3033135E-1,2.706455E-1,-5.884511E-2,9.622168E-3,4.0140843E-1,-2.0032822E-1,1.0382304E-1,1.1789218E0,5.7586277E-1,-2.1343066E-1,2.9682696E-1,-8.4309965E-2,-2.2405928E-1,2.9004285E-1,-4.7406778E-2,8.613585E-1,3.1186214E-1,1.4730802E0,1.5907778E-1,1.867981E0,1.2299659E0,8.72444E-2,1.631638E-1,9.861726E-1,3.752119E-1,4.7455786E-5,3.0501533E-1,-1.05673045E-1,1.6312899E-1,6.791273E-1,-1.123033E-2,4.1933255E-3,3.311765E-1,-5.8398843E-3,-9.9884786E-2,-1.2264384E-1,1.8795094E-2,3.0151552E-1,1.318692E-1,1.8354114E0,1.3011593E-1,4.0399317E-2,2.6738235E-1],"categories":[],"categories_nodes":[],"categories_segments":[],"categories_sizes":[],"default_left":[0,0,0,0,0,0,0,0,0,0,0,0,0,0,0,0,0,0,0,0,0,0,0,0,0,0,0,0,0,0,0,0,0,0,0,0,0,0,0,0,0,0,0,0,0,0,0,0,0,0,0,0,0,0,0,0,0,0,0,0,0,0,0,0,0,0,0,0,0,0,0,0,0,0,0,0,0,0,0,0,0,0,0,0,0,0,0,0,0,0,0,0,0,0,0,0,0,0,0,0,0,0,0,0,0,0,0,0,0,0,0,0,0,0,0,0,0,0,0,0,0,0,0,0,0,0,0,0,0,0,0,0,0,0,0,0,0,0,0,0,0,0,0,0,0,0,0,0,0,0,0,0,0,0,0,0,0,0,0,0,0,0,0,0,0,0,0,0,0,0,0,0,0,0,0,0,0,0,0,0,0,0,0,0,0,0,0,0,0,0,0,0,0,0,0,0,0,0,0,0,0,0,0,0,0,0,0,0,0,0,0,0,0,0,0,0,0,0,0,0,0,0,0,0,0,0,0,0,0,0,0,0,0,0,0,0,0,0,0,0,0,0,0,0,0,0,0,0,0,0,0,0,0,0,0,0,0],"id":4,"left_children":[1,3,5,7,9,11,13,15,17,19,21,23,25,27,29,31,33,35,37,39,41,-1,43,45,47,49,51,-1,53,-1,-1,55,57,59,61,63,65,67,69,71,73,75,77,79,-1,81,-1,83,85,-1,87,89,-1,-1,-1,91,93,-1,95,97,99,101,103,105,107,109,111,113,115,117,119,121,123,125,127,129,131,133,135,137,139,141,143,145,147,149,151,-1,-1,-1,-1,153,155,157,159,161,163,-1,165,167,169,171,173,175,177,179,181,183,185,187,189,191,193,-1,195,197,199,201,203,-1,-1,205,207,209,211,-1,213,215,217,219,-1,-1,221,223,225,227,-1,-1,229,231,233,235,-1,237,239,241,243,245,247,249,251,253,255,-1,-1,-1,-1,-1,-1,-1,-1,-1,-1,-1,-1,-1,-1,-1,-1,-1,-1,-1,-1,-1,-1,-1,-1,-1,-1,-1,-1,-1,-1,-1,-1,-1,-1,-1,-1,-1,-1,-1,-1,-1,-1,-1,-1,-1,-1,-1,-1,-1,-1,-1,-1,-1,-1,-1,-1,-1,-1,-1,-1,-1,-1,-1,-1,-1,-1,-1,-1,-1,-1,-1,-1,-1,-1,-1,-1,-1,-1,-1,-1,-1,-1,-1,-1,-1,-1,-1,-1,-1,-1,-1,-1,-1,-1,-1,-1,-1,-1,-1,-1,-1,-1,-1,-1],"loss_changes":[7.839691E4,7.443826E4,9.172311E4,2.3813227E4,1.1762532E5,2.3754508E4,1.1573695E4,1.0359463E4,4.469571E4,4.628792E4,6.1475156E3,1.3032648E4,2.2221137E4,1.378724E4,1.0521641E3,2.3447475E4,8.994797E3,3.08325E3,5.410131E4,3.1303117E4,2.0872502E4,0E0,3.6857812E3,3.7856582E3,8.441934E3,3.042316E3,5.918906E2,0E0,4.0583734E2,0E0,0E0,3.367142E4,1.826498E3,1.5086582E3,8.036241E3,1.9493203E3,6.682837E3,1.9267514E4,1.662096E4,2.7055336E4,1.688929E4,8.99909E3,7.089361E3,3.6315E3,0E0,1.5923486E3,0E0,2.3268682E3,8.946199E3,0E0,1.1685762E3,3.705039E2,0E0,0E0,0E0,1.5314619E3,4.3185234E3,0E0,1.0828174E2,4.558413E2,3.3461877E2,1.3983462E4,2.9061172E3,2.2786719E3,9.151795E3,2.9435217E3,7.5199634E2,1.95837E4,1.0094227E4,3.0390625E2,4.827539E3,2.4752172E4,1.1124773E4,4.9158047E3,2.476036E4,1.78752E3,1.756707E3,4.1949326E3,1.6928926E4,2.8011426E3,4.6481016E3,8.191063E2,4.807289E3,7.9569214E2,3.229704E3,6.8017666E3,5.070668E3,0E0,0E0,0E0,0E0,1.0984087E3,4.2408984E2,8.4177705E3,4.5194375E3,8.321482E1,6.358081E1,0E0,5.398091E2,5.4055676E1,3.76766E2,7.6284434E3,2.583106E3,4.6913867E2,5.138018E2,6.2388477E3,8.6741797E2,5.612629E3,6.3483843E3,4.2376147E2,6.217293E3,1.395346E3,1.0302051E2,0E0,7.1995703E2,5.1574717E3,1.4653848E3,1.2713323E3,2.2509326E2,0E0,0E0,2.3843008E4,6.9914136E2,2.853711E3,1.52391455E4,0E0,3.4551172E3,6.8363027E3,1.2169031E4,5.694294E2,0E0,0E0,1.8830762E3,4.8034453E3,3.521875E3,1.4595422E4,0E0,0E0,1.5439038E3,1.1149848E4,1.8633594E3,2.6766235E1,0E0,1.9451035E3,6.310862E2,3.5483365E2,2.6305935E3,4.840715E3,9.369385E2,1.4130667E3,1.4774941E3,2.6714668E4,4.756578E3,0E0,0E0,0E0,0E0,0E0,0E0,0E0,0E0,0E0,0E0,0E0,0E0,0E0,0E0,0E0,0E0,0E0,0E0,0E0,0E0,0E0,0E0,0E0,0E0,0E0,0E0,0E0,0E0,0E0,0E0,0E0,0E0,0E0,0E0,0E0,0E0,0E0,0E0,0E0,0E0,0E0,0E0,0E0,0E0,0E0,0E0,0E0,0E0,0E0,0E0,0E0,0E0,0E0,0E0,0E0,0E0,0E0,0E0,0E0,0E0,0E0,0E0,0E0,0E0,0E0,0E0,0E0,0E0,0E0,0E0,0E0,0E0,0E0,0E0,0E0,0E0,0E0,0E0,0E0,0E0,0E0,0E0,0E0,0E0,0E0,0E0,0E0,0E0,0E0,0E0,0E0,0E0,0E0,0E0,0E0,0E0,0E0,0E0,0E0,0E0,0E0,0E0,0E0,0E0],"parents":[2147483647,0,0,1,1,2,2,3,3,4,4,5,5,6,6,7,7,8,8,9,9,10,10,11,11,12,12,13,13,14,14,15,15,16,16,17,17,18,18,19,19,20,20,22,22,23,23,24,24,25,25,26,26,28,28,31,31,32,32,33,33,34,34,35,35,36,36,37,37,38,38,39,39,40,40,41,41,42,42,43,43,45,45,47,47,48,48,50,50,51,51,55,55,56,56,58,58,59,59,60,60,61,61,62,62,63,63,64,64,65,65,66,66,67,67,68,68,69,69,70,70,71,71,72,72,73,73,74,74,75,75,76,76,77,77,78,78,79,79,80,80,81,81,82,82,83,83,84,84,85,85,86,86,91,91,92,92,93,93,94,94,95,95,96,96,98,98,99,99,100,100,101,101,102,102,103,103,104,104,105,105,106,106,107,107,108,108,109,109,110,110,111,111,112,112,114,114,115,115,116,116,117,117,118,118,121,121,122,122,123,123,124,124,126,126,127,127,128,128,129,129,132,132,133,133,134,134,135,135,138,138,139,139,140,140,141,141,143,143,144,144,145,145,146,146,147,147,148,148,149,149,150,150,151,151,152,152],"right_children":[2,4,6,8,10,12,14,16,18,20,22,24,26,28,30,32,34,36,38,40,42,-1,44,46,48,50,52,-1,54,-1,-1,56,58,60,62,64,66,68,70,72,74,76,78,80,-1,82,-1,84,86,-1,88,90,-1,-1,-1,92,94,-1,96,98,100,102,104,106,108,110,112,114,116,118,120,122,124,126,128,130,132,134,136,138,140,142,144,146,148,150,152,-1,-1,-1,-1,154,156,158,160,162,164,-1,166,168,170,172,174,176,178,180,182,184,186,188,190,192,194,-1,196,198,200,202,204,-1,-1,206,208,210,212,-1,214,216,218,220,-1,-1,222,224,226,228,-1,-1,230,232,234,236,-1,238,240,242,244,246,248,250,252,254,256,-1,-1,-1,-1,-1,-1,-1,-1,-1,-1,-1,-1,-1,-1,-1,-1,-1,-1,-1,-1,-1,-1,-1,-1,-1,-1,-1,-1,-1,-1,-1,-1,-1,-1,-1,-1,-1,-1,-1,-1,-1,-1,-1,-1,-1,-1,-1,-1,-1,-1,-1,-1,-1,-1,-1,-1,-1,-1,-1,-1,-1,-1,-1,-1,-1,-1,-1,-1,-1,-1,-1,-1,-1,-1,-1,-1,-1,-1,-1,-1,-1,-1,-1,-1,-1,-1,-1,-1,-1,-1,-1,-1,-1,-1,-1,-1,-1,-1,-1,-1,-1,-1,-1,-1],"split_conditions":[-9.049462E1,3.9024883E1,3.8800434E1,-9.2838394E1,-9.098742E1,-8.954725E1,-9.020633E1,3.7480103E1,3.8785748E1,-9.26858E1,2.007E3,3.6819614E1,2.012E3,-9.028331E1,2.018E3,-9.32433E1,-9.450848E1,2.024E3,-9.0764656E1,-9.415728E1,3.9073025E1,2.711761E-1,2.019E3,-8.98952E1,3.7726006E1,3.6918E1,2.018E3,1.3406205E0,2.011E3,1.8689072E0,1.1360089E0,3.71122E1,-9.32256E1,2.017E3,3.8913998E1,-9.090583E1,3.7993034E1,3.879896E1,2.014E3,-9.50276E1,-9.4097496E1,-9.102548E1,3.955446E1,2.014E3,4.3488774E-1,2.014E3,1.0255584E0,-9.03351E1,-9.028181E1,-1.6050015E-2,2.009E3,2.015E3,1.0394788E0,-3.9055318E-2,2.6728606E-1,-9.431111E1,2.011E3,-2.9062268E-1,2.007E3,3.7993034E1,2.019E3,3.7929962E1,-9.395003E1,-9.108122E1,3.8555897E1,-9.133114E1,-9.207092E1,-9.080078E1,-9.236536E1,3.8835197E1,3.8992588E1,4.024561E1,3.91904E1,2.01E3,2.009E3,2.024E3,2.014E3,3.9150997E1,-9.164911E1,2.012E3,3.9165703E1,3.673092E1,2.02E3,2.014E3,2.009E3,3.8674026E1,-9.02583E1,6.1838394E-1,2.4553026E-1,1.1747105E0,2.1753535E0,3.704668E1,3.663615E1,3.7456703E1,2.015E3,2.006E3,3.7434402E1,5.109394E-1,2.014E3,3.847775E1,2.021E3,3.756953E1,3.873506E1,3.89939E1,2.007E3,3.861461E1,-9.107288E1,3.780257E1,3.868732E1,3.6503E1,-9.092146E1,3.825894E1,3.8671604E1,-1.6873674E-1,2.017E3,3.8896023E1,-9.1862E1,-9.0619484E1,2.008E3,1.6053451E0,5.33343E-1,2.007E3,4.0398224E1,2.01E3,3.94741E1,9.997675E-1,3.9858704E1,3.939252E1,-9.37956E1,2.011E3,5.7332736E-1,3.8167462E-1,2.017E3,-9.155112E1,-9.116124E1,3.970818E1,6.2833893E-1,1.187585E0,3.937361E1,3.9057514E1,3.937361E1,3.663615E1,4.5809564E-1,-8.994122E1,-9.006946E1,-9.0369E1,2.019E3,-8.97065E1,3.7189564E1,3.8557964E1,2.014E3,3.8555897E1,-9.020633E1,-6.1634414E-2,3.103791E-1,-2.1383676E-1,-1.3138352E-1,2.6831927E-2,6.789429E-1,3.4151763E-1,1.6794702E-1,-1.13277726E-1,1.4888563E-2,-1.4586645E-1,-6.2463533E-2,2.0320873E-1,4.1694638E-1,-1.2788501E-1,-4.5003816E-3,2.1263362E-1,-3.5595622E-2,-5.928425E-3,-1.6921256E-1,6.810956E-2,-2.4023933E-2,-1.9544105E-1,-1.3798054E-1,3.5719454E-1,5.1352844E-2,-1.6919275E-1,7.706453E-2,-2.6749447E-1,-1.9720815E-1,-8.77231E-2,-2.4369155E-1,8.15603E-1,6.59123E-2,1.4854455E-1,-1.4161436E-1,1.2275662E0,1.9937876E-1,-1.5958436E-1,1.7899069E-1,-2.454736E-1,-1.6569068E-1,4.6597248E-1,7.836359E-1,8.074278E-1,1.4978714E-1,-4.5278233E-2,-1.2984705E-1,4.7516632E-1,-1.0403773E-1,6.673309E-1,3.5365975E-1,2.6334114E0,6.373848E-1,-9.3696564E-2,2.5142318E-1,5.1962906E-1,1.8537249E-1,-1.2350509E-1,1.0686582E-1,1.6143352E-1,9.3033135E-1,2.706455E-1,-5.884511E-2,9.622168E-3,4.0140843E-1,-2.0032822E-1,1.0382304E-1,1.1789218E0,5.7586277E-1,-2.1343066E-1,2.9682696E-1,-8.4309965E-2,-2.2405928E-1,2.9004285E-1,-4.7406778E-2,8.613585E-1,3.1186214E-1,1.4730802E0,1.5907778E-1,1.867981E0,1.2299659E0,8.72444E-2,1.631638E-1,9.861726E-1,3.752119E-1,4.7455786E-5,3.0501533E-1,-1.05673045E-1,1.6312899E-1,6.791273E-1,-1.123033E-2,4.1933255E-3,3.311765E-1,-5.8398843E-3,-9.9884786E-2,-1.2264384E-1,1.8795094E-2,3.0151552E-1,1.318692E-1,1.8354114E0,1.3011593E-1,4.0399317E-2,2.6738235E-1],"split_indices":[2,1,1,2,2,2,2,1,1,2,4,1,4,2,4,2,2,4,2,2,1,0,4,2,1,1,4,0,4,0,0,1,2,4,1,2,1,1,4,2,2,2,1,4,0,4,0,2,2,0,4,4,0,0,0,2,4,0,4,1,4,1,2,2,1,2,2,2,2,1,1,1,1,4,4,4,4,1,2,4,1,1,4,4,4,1,2,0,0,0,0,1,1,1,4,4,1,0,4,1,4,1,1,1,4,1,2,1,1,1,2,1,1,0,4,1,2,2,4,0,0,4,1,4,1,0,1,1,2,4,0,0,4,2,2,1,0,0,1,1,1,1,0,2,2,2,4,2,1,1,4,1,2,0,0,0,0,0,0,0,0,0,0,0,0,0,0,0,0,0,0,0,0,0,0,0,0,0,0,0,0,0,0,0,0,0,0,0,0,0,0,0,0,0,0,0,0,0,0,0,0,0,0,0,0,0,0,0,0,0,0,0,0,0,0,0,0,0,0,0,0,0,0,0,0,0,0,0,0,0,0,0,0,0,0,0,0,0,0,0,0,0,0,0,0,0,0,0,0,0,0,0,0,0,0,0,0],"split_type":[0,0,0,0,0,0,0,0,0,0,0,0,0,0,0,0,0,0,0,0,0,0,0,0,0,0,0,0,0,0,0,0,0,0,0,0,0,0,0,0,0,0,0,0,0,0,0,0,0,0,0,0,0,0,0,0,0,0,0,0,0,0,0,0,0,0,0,0,0,0,0,0,0,0,0,0,0,0,0,0,0,0,0,0,0,0,0,0,0,0,0,0,0,0,0,0,0,0,0,0,0,0,0,0,0,0,0,0,0,0,0,0,0,0,0,0,0,0,0,0,0,0,0,0,0,0,0,0,0,0,0,0,0,0,0,0,0,0,0,0,0,0,0,0,0,0,0,0,0,0,0,0,0,0,0,0,0,0,0,0,0,0,0,0,0,0,0,0,0,0,0,0,0,0,0,0,0,0,0,0,0,0,0,0,0,0,0,0,0,0,0,0,0,0,0,0,0,0,0,0,0,0,0,0,0,0,0,0,0,0,0,0,0,0,0,0,0,0,0,0,0,0,0,0,0,0,0,0,0,0,0,0,0,0,0,0,0,0,0,0,0,0,0,0,0,0,0,0,0,0,0,0,0,0,0,0,0],"sum_hessian":[1.6558E4,1.472E4,1.838E3,9.482E3,5.238E3,1.771E3,6.7E1,4.373E3,5.109E3,5.123E3,1.15E2,1.7E3,7.1E1,3.6E1,3.1E1,1.333E3,3.04E3,4.042E3,1.067E3,2.282E3,2.841E3,1E1,1.05E2,9.6E1,1.604E3,5.2E1,1.9E1,2.1E1,1.5E1,2.2E1,9E0,1.059E3,2.74E2,1.02E2,2.938E3,3.862E3,1.8E2,1.007E3,6E1,1.286E3,9.96E2,7.3E1,2.768E3,9.6E1,9E0,8.7E1,9E0,6.22E2,9.82E2,1.5E1,3.7E1,1.1E1,8E0,6E0,9E0,3.19E2,7.4E2,1.11E2,1.63E2,6.7E1,3.5E1,2.329E3,6.09E2,2.939E3,9.23E2,4.8E1,1.32E2,9.6E1,9.11E2,3E1,3E1,1.27E2,1.159E3,5.8E1,9.38E2,3.8E1,3.5E1,1.437E3,1.331E3,3.4E1,6.2E1,3.5E1,5.2E1,4.2E1,5.8E2,4.75E2,5.07E2,2.3E1,1.4E1,6E0,5E0,7.3E1,2.46E2,1.83E2,5.57E2,1.7E1,1.46E2,9E0,5.8E1,1.2E1,2.3E1,1.12E3,1.209E3,5.73E2,3.6E1,1.627E3,1.312E3,8.44E2,7.9E1,1.8E1,3E1,4.9E1,8.3E1,3.4E1,6.2E1,1.22E2,7.89E2,1.3E1,1.7E1,2.4E1,6E0,7.7E1,5E1,1.07E2,1.052E3,3.4E1,2.4E1,3.05E2,6.33E2,3.2E1,6E0,9E0,2.6E1,7.3E1,1.364E3,1.294E3,3.7E1,1.3E1,2.1E1,2.3E1,3.9E1,2.6E1,9E0,2.5E1,2.7E1,2.3E1,1.9E1,1.99E2,3.81E2,2.6E2,2.15E2,4.4E1,4.63E2,6.6E1,7E0,1.4E2,1.06E2,1.64E2,1.9E1,3.15E2,2.42E2,9E0,8E0,1.35E2,1.1E1,4.2E1,1.6E1,5E0,7E0,1.5E1,8E0,4.01E2,7.19E2,7.91E2,4.18E2,3.49E2,2.24E2,5E0,3.1E1,1.529E3,9.8E1,1.95E2,1.117E3,4.71E2,3.73E2,1.1E1,6.8E1,6E0,1.2E1,6E0,2.4E1,3.4E1,1.5E1,3.7E1,4.6E1,1.4E1,4.8E1,1.1E1,1.11E2,4.94E2,2.95E2,8E0,5E0,6E0,1.1E1,5E0,7.2E1,4.5E1,5E0,3.4E1,7.3E1,5.99E2,4.53E2,1.7E1,7E0,7.4E1,2.31E2,8.2E1,5.51E2,6E0,2.6E1,1.4E1,1.2E1,2.4E1,4.9E1,1.176E3,1.88E2,1.27E2,1.167E3,9E0,1.2E1,1.2E1,1.1E1,1.4E1,2.5E1,1.3E1,1.3E1,1.6E1,9E0,9E0,1.8E1,5E0,1.8E1,1E1,9E0,1.43E2,5.6E1,1.97E2,1.84E2,1.08E2,1.52E2,6.9E1,1.46E2,1E1,3.4E1,1.09E2,3.54E2],"tree_param":{"num_deleted":"0","num_feature":"6","num_nodes":"257","size_leaf_vector":"1"}},{"base_weights":[-4.0198423E-2,-7.3307943E-1,5.529867E0,-2.4208941E0,2.3647158E0,4.403312E0,3.5410324E1,-7.2503245E-1,-3.8355374E0,1.676445E0,3.444793E1,3.6707222E0,2.1503664E1,2.3322407E1,1.4370798E0,1.3831834E0,-1.6907344E0,-5.2415442E0,1.6271111E0,4.9367027E0,-9.615416E-1,1.8389359E1,4.2335297E1,1.3153811E1,3.2337403E0,1.0669993E1,4.967939E1,1.5725571E1,3.5553307E1,-3.0858152E0,4.9089293E0,7.5885797E0,-2.0198405E0,-5.4165325E0,-1.3325548E0,5.9653097E-3,3.414527E1,2.8481894E0,1.0752958E1,1.0570908E1,-1.6410809E0,9.471996E-2,2.0601566E1,4.5349293E1,4.7590858E-1,1.6285572E1,5.3652415E0,-8.4290735E-2,4.210316E0,1.92879E0,1.8139004E1,1.7438339E0,8.9222425E-1,3.3343533E1,-1.7468238E0,1.3091935E0,6.716334E-1,-6.48485E0,-1.5569952E0,7.8210573E0,-8.346189E0,2.370628E1,5.600588E0,-1.2200522E0,-5.05041E0,-4.516133E0,-5.9291167E0,1.4708292E1,-3.3169298E0,1.3774773E1,-1.2711053E0,1.4018588E1,1.5053172E0,2.3918886E1,2.0310504E0,3.37471E1,7.49109E0,4.354202E0,2.1816439E1,-3.3711436E0,1.4929584E-1,1.0065408E1,2.4744877E1,3.1690702E1,5.3093643E1,9.139577E0,8.0218464E-1,7.474119E0,1.4304936E-2,7.6382346E0,-9.574207E-1,5.1381125E0,-3.150023E-1,-9.8881936E-1,2.2649096E-1,6.6382736E-1,2.0450664E-1,1.3889095E0,3.802177E-1,3.95905E-3,-8.812694E-2,-4.590944E0,-7.875649E0,-3.699487E-1,-4.3554654E0,2.3073505E1,6.9677153E0,-2.8677407E-1,-3.8120806E0,9.7635955E-1,3.2748574E-1,7.1030364E0,2.653619E0,-3.6790988E0,1.1188545E0,-5.628631E0,4.825854E0,-5.307332E0,-2.3327725E0,-5.135644E0,-6.281105E0,1.00306265E-1,6.171173E-1,2.8754585E0,-4.9358697E0,-1.6791314E-1,2.4598438E1,6.079866E0,-2.5575445E0,2.226965E-1,1.7480928E1,-1.292897E0,3.1824503E1,9.633394E0,5.4590416E-1,2.077286E1,3.908623E1,-8.6643773E-1,1.1317319E1,7.406451E-1,9.508586E-1,7.8053623E-1,1.7007587E1,-2.689488E0,-7.514525E0,-4.3017006E-1,1.820803E1,3.6584708E-1,1.877503E-1,1.195392E0,1.564756E1,1.6100953E0,2.7053636E-1,1.8943486E0,4.5252747E1,5.869469E0,5.5874944E-1,4.8794884E-2,3.5524645E-1,3.0194516E0,1.26024685E1,1.2999847E0,-1.9749644E0,1.3283131E1,4.369165E0,-5.016914E0,3.2808895E0,-8.129338E-2,1.058042E-2,-2.552714E-1,2.7408727E-2,-2.4549876E-1,-9.13693E-2,-1.016974E-1,1.2837937E-1,-2.2993448E-1,-1.21910974E-1,-5.7338882E-2,8.6089414E-1,1.7075779E-1,4.5168576E-1,-1.4254527E-1,-4.092387E-2,1.2854248E-1,4.2436144E-1,-4.241295E-2,1.5135482E-1,-1.2690033E-2,-1.6749813E-1,-1.18257225E-1,4.5792103E-2,-1.5038711E-1,-1.9838476E-1,2.4365552E-1,-5.6808863E-2,-1.3172059E-1,-1.9469059E-1,-1.284497E-1,3.188731E-1,-1.78127E-1,-4.4648137E-2,-1.4549102E-1,-2.0434701E-1,-1.15831554E-1,2.5190905E-1,-4.7896035E-2,-1.9306819E-1,3.7438115E-1,7.9960775E-1,6.541328E-1,1.0291554E-1,-2.035496E-1,-6.1740458E-2,6.276106E-1,3.1684604E-1,4.0765205E-1,-2.7877298E-1,4.2427424E-1,1.2319467E0,4.1409343E-1,2.2367124E-2,-1.143166E-1,1.2366719E-1,1.5906409E0,2.1233177E-1,1.4767983E0,8.115756E-1,1.4050375E-1,-6.928714E-2,4.5628738E-1,1.2492937E-1,-1.316955E-1,1.1903892E-1,3.578505E-1,6.285896E-1,-9.4119534E-2,2.2914208E-1,-2.4615857E-1,-1.7203678E-1,2.2638881E-1,-3.996803E-2,6.4032286E-1,-2.2033679E-3,6.888804E-1,8.886063E-2,1.4472709E0,8.174089E-1,5.9806377E-2,4.8315123E-1,-7.453123E-2,1.4684011E-1,6.500093E-1,3.391551E-2,6.315593E-2,-4.5159783E-2,-3.1548847E-2,-1.09535076E-1,1.8688262E-1,9.121955E-1,-1.2683873E-1,1.4933068E-1,-1.8934776E-1,-7.297382E-2,5.2051317E-2,1.9697745E-1],"categories":[],"categories_nodes":[],"categories_segments":[],"categories_sizes":[],"default_left":[0,0,0,0,0,0,0,0,0,0,0,0,0,0,0,0,0,0,0,0,0,0,0,0,0,0,0,0,0,0,0,0,0,0,0,0,0,0,0,0,0,0,0,0,0,0,0,0,0,0,0,0,0,0,0,0,0,0,0,0,0,0,0,0,0,0,0,0,0,0,0,0,0,0,0,0,0,0,0,0,0,0,0,0,0,0,0,0,0,0,0,0,0,0,0,0,0,0,0,0,0,0,0,0,0,0,0,0,0,0,0,0,0,0,0,0,0,0,0,0,0,0,0,0,0,0,0,0,0,0,0,0,0,0,0,0,0,0,0,0,0,0,0,0,0,0,0,0,0,0,0,0,0,0,0,0,0,0,0,0,0,0,0,0,0,0,0,0,0,0,0,0,0,0,0,0,0,0,0,0,0,0,0,0,0,0,0,0,0,0,0,0,0,0,0,0,0,0,0,0,0,0,0,0,0,0,0,0,0,0,0,0,0,0,0,0,0,0,0,0,0,0,0,0,0,0,0,0,0,0,0,0,0,0,0,0,0,0,0,0,0,0,0,0,0,0,0,0,0,0,0,0,0,0,0,0,0,0,0,0,0,0,0,0,0],"id":5,"left_children":[1,3,5,7,9,11,13,15,17,19,21,23,25,27,-1,29,31,33,35,37,39,41,43,45,47,49,51,53,55,57,59,61,63,65,67,69,71,73,75,77,79,-1,81,83,-1,85,87,89,91,93,95,-1,-1,97,99,-1,-1,101,103,105,107,109,111,113,115,117,119,121,123,125,127,129,-1,131,133,135,137,139,141,143,145,147,149,151,153,155,-1,157,-1,159,161,163,165,167,-1,-1,-1,-1,-1,-1,-1,169,171,173,175,177,179,-1,181,-1,-1,183,185,187,189,191,193,195,197,199,201,-1,-1,203,205,-1,207,209,211,-1,213,215,217,219,221,223,225,227,229,231,-1,-1,233,235,237,239,241,-1,-1,-1,243,-1,-1,-1,245,247,-1,-1,-1,249,251,253,255,257,259,261,263,-1,-1,-1,-1,-1,-1,-1,-1,-1,-1,-1,-1,-1,-1,-1,-1,-1,-1,-1,-1,-1,-1,-1,-1,-1,-1,-1,-1,-1,-1,-1,-1,-1,-1,-1,-1,-1,-1,-1,-1,-1,-1,-1,-1,-1,-1,-1,-1,-1,-1,-1,-1,-1,-1,-1,-1,-1,-1,-1,-1,-1,-1,-1,-1,-1,-1,-1,-1,-1,-1,-1,-1,-1,-1,-1,-1,-1,-1,-1,-1,-1,-1,-1,-1,-1,-1,-1,-1,-1,-1,-1,-1,-1,-1,-1,-1,-1,-1],"loss_changes":[6.446749E4,7.76804E4,6.2051402E4,2.3068773E4,1.1565163E5,2.224516E4,9.000219E3,8.909437E3,4.0277508E4,4.4133992E4,1.3154078E4,7.0435977E3,2.1752914E4,2.7858848E3,0E0,2.1680412E4,9.180018E3,2.8451719E3,5.661751E4,2.7847488E4,2.2250215E4,1.215417E3,5.1049375E3,1.7420195E3,5.3015E3,3.4905728E3,1.6402188E3,7.4461167E3,4.0701758E2,3.144186E3,2.9749133E4,3.167542E3,7.0204736E3,1.8151953E3,5.7783765E3,1.8023256E4,1.5752773E4,2.9049309E4,4.519954E4,1.09508125E4,8.301706E3,0E0,1.1915342E3,5.192922E3,0E0,3.7149043E3,2.335445E2,2.5223655E3,5.308617E3,4.338553E2,1.1587725E3,0E0,0E0,2.6261484E3,2.947068E1,0E0,0E0,4.5904297E2,1.3935928E3,8.052047E3,7.280078E2,8.8830225E2,3.9292456E2,1.3203766E4,3.4821152E3,2.4959102E3,6.7714844E2,1.2636895E3,1.6282344E3,1.8379387E4,8.885818E3,4.1828516E2,0E0,1.2597973E4,1.8375826E4,4.3833984E3,1.7022006E4,1.0152776E4,6.8892773E2,3.8293916E3,1.3799938E4,1.28585205E1,2.5363174E3,1.2472574E4,2.9497656E2,9.1428467E2,0E0,3.8936505E2,0E0,8.332388E2,7.743624E2,6.511949E3,3.6684941E3,4.251171E1,0E0,0E0,0E0,0E0,0E0,0E0,0E0,1.7763065E3,1.3407031E2,4.170526E3,8.953638E1,4.6909766E3,6.095498E3,0E0,6.480832E1,0E0,0E0,1.1500791E3,3.2813422E2,6.935627E3,2.4335884E3,3.1348047E2,7.6839124E2,1.125752E3,9.846855E3,2.2901465E3,1.2995469E3,0E0,0E0,1.2970754E3,6.307654E2,0E0,1.0621445E3,5.757575E3,1.6733086E3,0E0,1.3602979E2,2.0309651E3,7.2619023E3,9.8476E3,2.1251459E4,1.02242705E4,5.013672E3,1.3563696E3,1.0098762E4,1.5407311E3,0E0,0E0,3.3121387E2,5.444449E3,1.8901562E2,9.205964E3,2.3521758E3,0E0,0E0,0E0,1.4167239E3,0E0,0E0,0E0,8.513281E1,9.9937354E2,0E0,0E0,0E0,2.2889862E2,1.8472817E3,2.4035066E2,3.5522693E2,1.068109E4,5.0433457E3,2.991748E2,6.132195E2,0E0,0E0,0E0,0E0,0E0,0E0,0E0,0E0,0E0,0E0,0E0,0E0,0E0,0E0,0E0,0E0,0E0,0E0,0E0,0E0,0E0,0E0,0E0,0E0,0E0,0E0,0E0,0E0,0E0,0E0,0E0,0E0,0E0,0E0,0E0,0E0,0E0,0E0,0E0,0E0,0E0,0E0,0E0,0E0,0E0,0E0,0E0,0E0,0E0,0E0,0E0,0E0,0E0,0E0,0E0,0E0,0E0,0E0,0E0,0E0,0E0,0E0,0E0,0E0,0E0,0E0,0E0,0E0,0E0,0E0,0E0,0E0,0E0,0E0,0E0,0E0,0E0,0E0,0E0,0E0,0E0,0E0,0E0,0E0,0E0,0E0,0E0,0E0,0E0,0E0,0E0,0E0,0E0,0E0,0E0,0E0,0E0,0E0],"parents":[2147483647,0,0,1,1,2,2,3,3,4,4,5,5,6,6,7,7,8,8,9,9,10,10,11,11,12,12,13,13,15,15,16,16,17,17,18,18,19,19,20,20,21,21,22,22,23,23,24,24,25,25,26,26,27,27,28,28,29,29,30,30,31,31,32,32,33,33,34,34,35,35,36,36,37,37,38,38,39,39,40,40,42,42,43,43,45,45,46,46,47,47,48,48,49,49,50,50,53,53,54,54,57,57,58,58,59,59,60,60,61,61,62,62,63,63,64,64,65,65,66,66,67,67,68,68,69,69,70,70,71,71,73,73,74,74,75,75,76,76,77,77,78,78,79,79,80,80,81,81,82,82,83,83,84,84,85,85,87,87,89,89,90,90,91,91,92,92,93,93,101,101,102,102,103,103,104,104,105,105,106,106,108,108,111,111,112,112,113,113,114,114,115,115,116,116,117,117,118,118,119,119,120,120,123,123,124,124,126,126,127,127,128,128,130,130,131,131,132,132,133,133,134,134,135,135,136,136,137,137,138,138,139,139,142,142,143,143,144,144,145,145,146,146,150,150,154,154,155,155,159,159,160,160,161,161,162,162,163,163,164,164,165,165,166,166],"right_children":[2,4,6,8,10,12,14,16,18,20,22,24,26,28,-1,30,32,34,36,38,40,42,44,46,48,50,52,54,56,58,60,62,64,66,68,70,72,74,76,78,80,-1,82,84,-1,86,88,90,92,94,96,-1,-1,98,100,-1,-1,102,104,106,108,110,112,114,116,118,120,122,124,126,128,130,-1,132,134,136,138,140,142,144,146,148,150,152,154,156,-1,158,-1,160,162,164,166,168,-1,-1,-1,-1,-1,-1,-1,170,172,174,176,178,180,-1,182,-1,-1,184,186,188,190,192,194,196,198,200,202,-1,-1,204,206,-1,208,210,212,-1,214,216,218,220,222,224,226,228,230,232,-1,-1,234,236,238,240,242,-1,-1,-1,244,-1,-1,-1,246,248,-1,-1,-1,250,252,254,256,258,260,262,264,-1,-1,-1,-1,-1,-1,-1,-1,-1,-1,-1,-1,-1,-1,-1,-1,-1,-1,-1,-1,-1,-1,-1,-1,-1,-1,-1,-1,-1,-1,-1,-1,-1,-1,-1,-1,-1,-1,-1,-1,-1,-1,-1,-1,-1,-1,-1,-1,-1,-1,-1,-1,-1,-1,-1,-1,-1,-1,-1,-1,-1,-1,-1,-1,-1,-1,-1,-1,-1,-1,-1,-1,-1,-1,-1,-1,-1,-1,-1,-1,-1,-1,-1,-1,-1,-1,-1,-1,-1,-1,-1,-1,-1,-1,-1,-1,-1,-1],"split_conditions":[-9.049462E1,3.9024883E1,3.8800434E1,-9.2838394E1,-9.098742E1,-8.954725E1,2.014E3,3.7480103E1,3.8789333E1,-9.26858E1,2.014E3,3.6819614E1,2.012E3,-9.020633E1,1.4370798E0,3.7153503E1,-9.451281E1,2.024E3,-9.0764656E1,-9.3362885E1,3.9150997E1,-9.090773E1,2.019E3,2.02E3,3.7624798E1,3.7456703E1,2.018E3,-9.028331E1,3.8835197E1,3.673092E1,-9.32433E1,3.7993034E1,3.8913998E1,2.012E3,3.729573E1,3.879896E1,2.014E3,-9.526476E1,-9.3240326E1,-9.102548E1,3.955446E1,9.471996E-2,2.007E3,3.91904E1,4.7590858E-1,2.011E3,3.65028E1,-9.03351E1,2.022E3,3.6918E1,2.009E3,1.7438339E0,8.9222425E-1,2.012E3,2.011E3,1.3091935E0,6.716334E-1,-9.42741E1,-9.32433E1,3.7166393E1,-9.32256E1,2.011E3,2.017E3,3.7929962E1,-9.395003E1,-9.0837425E1,-9.2165276E1,3.6819614E1,3.79742E1,-9.080078E1,-9.234496E1,3.8835197E1,1.5053172E0,2.01E3,3.920044E1,2.017E3,2.009E3,2.024E3,2.015E3,-9.116124E1,-9.164911E1,2.006E3,2.011E3,3.9057514E1,3.937361E1,-8.98952E1,8.0218464E-1,-9.006946E1,1.4304936E-2,2.014E3,-9.028181E1,3.7669678E1,3.8559296E1,2.009E3,2.2649096E-1,6.6382736E-1,2.0450664E-1,1.3889095E0,3.802177E-1,3.95905E-3,-8.812694E-2,2.008E3,3.663615E1,-9.336754E1,-9.322793E1,-9.38557E1,-9.3308525E1,-2.8677407E-1,3.7434402E1,9.7635955E-1,3.2748574E-1,2.014E3,2.019E3,3.756953E1,-9.43804E1,-9.431111E1,-9.38557E1,-9.108122E1,3.8555897E1,-9.2578125E1,3.7741478E1,1.00306265E-1,6.171173E-1,3.7929962E1,-9.23082E1,-1.6791314E-1,2.017E3,2.007E3,-9.233575E1,2.226965E-1,3.8869976E1,2.007E3,4.0140022E1,-9.36696E1,3.94741E1,3.9327343E1,2.021E3,-9.30504E1,2.021E3,-9.155112E1,9.508586E-1,7.8053623E-1,2.023E3,-9.155112E1,3.9343513E1,3.970818E1,2.011E3,3.6584708E-1,1.877503E-1,1.195392E0,3.937361E1,1.6100953E0,2.7053636E-1,1.8943486E0,2.018E3,3.673092E1,5.5874944E-1,4.8794884E-2,3.5524645E-1,-9.0369E1,2.019E3,3.751809E1,3.7189564E1,3.765218E1,3.771195E1,3.7993034E1,3.8709045E1,-8.129338E-2,1.058042E-2,-2.552714E-1,2.7408727E-2,-2.4549876E-1,-9.13693E-2,-1.016974E-1,1.2837937E-1,-2.2993448E-1,-1.21910974E-1,-5.7338882E-2,8.6089414E-1,1.7075779E-1,4.5168576E-1,-1.4254527E-1,-4.092387E-2,1.2854248E-1,4.2436144E-1,-4.241295E-2,1.5135482E-1,-1.2690033E-2,-1.6749813E-1,-1.18257225E-1,4.5792103E-2,-1.5038711E-1,-1.9838476E-1,2.4365552E-1,-5.6808863E-2,-1.3172059E-1,-1.9469059E-1,-1.284497E-1,3.188731E-1,-1.78127E-1,-4.4648137E-2,-1.4549102E-1,-2.0434701E-1,-1.15831554E-1,2.5190905E-1,-4.7896035E-2,-1.9306819E-1,3.7438115E-1,7.9960775E-1,6.541328E-1,1.0291554E-1,-2.035496E-1,-6.1740458E-2,6.276106E-1,3.1684604E-1,4.0765205E-1,-2.7877298E-1,4.2427424E-1,1.2319467E0,4.1409343E-1,2.2367124E-2,-1.143166E-1,1.2366719E-1,1.5906409E0,2.1233177E-1,1.4767983E0,8.115756E-1,1.4050375E-1,-6.928714E-2,4.5628738E-1,1.2492937E-1,-1.316955E-1,1.1903892E-1,3.578505E-1,6.285896E-1,-9.4119534E-2,2.2914208E-1,-2.4615857E-1,-1.7203678E-1,2.2638881E-1,-3.996803E-2,6.4032286E-1,-2.2033679E-3,6.888804E-1,8.886063E-2,1.4472709E0,8.174089E-1,5.9806377E-2,4.8315123E-1,-7.453123E-2,1.4684011E-1,6.500093E-1,3.391551E-2,6.315593E-2,-4.5159783E-2,-3.1548847E-2,-1.09535076E-1,1.8688262E-1,9.121955E-1,-1.2683873E-1,1.4933068E-1,-1.8934776E-1,-7.297382E-2,5.2051317E-2,1.9697745E-1],"split_indices":[2,1,1,2,2,2,4,1,1,2,4,1,4,2,0,1,2,4,2,2,1,2,4,4,1,1,4,2,1,1,2,1,1,4,1,1,4,2,2,2,1,0,4,1,0,4,1,2,4,1,4,0,0,4,4,0,0,2,2,1,2,4,4,1,2,2,2,1,1,2,2,1,0,4,1,4,4,4,4,2,2,4,4,1,1,2,0,2,0,4,2,1,1,4,0,0,0,0,0,0,0,4,1,2,2,2,2,0,1,0,0,4,4,1,2,2,2,2,1,2,1,0,0,1,2,0,4,4,2,0,1,4,1,2,1,1,4,2,4,2,0,0,4,2,1,1,4,0,0,0,1,0,0,0,4,1,0,0,0,2,4,1,1,1,1,1,1,0,0,0,0,0,0,0,0,0,0,0,0,0,0,0,0,0,0,0,0,0,0,0,0,0,0,0,0,0,0,0,0,0,0,0,0,0,0,0,0,0,0,0,0,0,0,0,0,0,0,0,0,0,0,0,0,0,0,0,0,0,0,0,0,0,0,0,0,0,0,0,0,0,0,0,0,0,0,0,0,0,0,0,0,0,0,0,0,0,0,0,0,0,0,0,0,0,0],"split_type":[0,0,0,0,0,0,0,0,0,0,0,0,0,0,0,0,0,0,0,0,0,0,0,0,0,0,0,0,0,0,0,0,0,0,0,0,0,0,0,0,0,0,0,0,0,0,0,0,0,0,0,0,0,0,0,0,0,0,0,0,0,0,0,0,0,0,0,0,0,0,0,0,0,0,0,0,0,0,0,0,0,0,0,0,0,0,0,0,0,0,0,0,0,0,0,0,0,0,0,0,0,0,0,0,0,0,0,0,0,0,0,0,0,0,0,0,0,0,0,0,0,0,0,0,0,0,0,0,0,0,0,0,0,0,0,0,0,0,0,0,0,0,0,0,0,0,0,0,0,0,0,0,0,0,0,0,0,0,0,0,0,0,0,0,0,0,0,0,0,0,0,0,0,0,0,0,0,0,0,0,0,0,0,0,0,0,0,0,0,0,0,0,0,0,0,0,0,0,0,0,0,0,0,0,0,0,0,0,0,0,0,0,0,0,0,0,0,0,0,0,0,0,0,0,0,0,0,0,0,0,0,0,0,0,0,0,0,0,0,0,0,0,0,0,0,0,0,0,0,0,0,0,0,0,0,0,0,0,0,0,0,0,0,0,0],"sum_hessian":[1.6702E4,1.4855E4,1.847E3,9.616E3,5.239E3,1.781E3,6.6E1,4.374E3,5.242E3,5.13E3,1.09E2,1.709E3,7.2E1,3.5E1,3.1E1,1.374E3,3E3,4.169E3,1.073E3,2.294E3,2.836E3,3.7E1,7.2E1,7.4E1,1.635E3,5.3E1,1.9E1,2.3E1,1.2E1,6.06E2,7.68E2,1.02E2,2.898E3,3.99E3,1.79E2,1.023E3,5E1,1.689E3,6.05E2,1.57E2,2.679E3,5E0,3.2E1,6.4E1,8E0,5.2E1,2.2E1,3.72E2,1.263E3,2.5E1,2.8E1,1.2E1,7E0,1.1E1,1.2E1,6E0,6E0,1.87E2,4.19E2,6.3E2,1.38E2,1E1,9.2E1,2.294E3,6.04E2,1.451E3,2.539E3,1.9E1,1.6E2,8.6E1,9.37E2,2.3E1,2.7E1,6.2E1,1.627E3,7.4E1,5.31E2,1.02E2,5.5E1,1.362E3,1.317E3,1E1,2.2E1,2.5E1,3.9E1,3.2E1,2E1,1.5E1,7E0,3.7E1,3.35E2,1.048E3,2.15E2,1.7E1,8E0,2E1,8E0,6E0,5E0,5E0,7E0,8.1E1,1.06E2,2.95E2,1.24E2,3.2E1,5.98E2,1.08E2,3E1,5E0,5E0,6E1,3.2E1,1.118E3,1.176E3,5.71E2,3.3E1,1.064E3,3.87E2,7.85E2,1.754E3,7E0,1.2E1,3.3E1,1.27E2,3.1E1,5.5E1,1.39E2,7.98E2,9E0,1.4E1,1.5E1,4.7E1,2.65E2,1.362E3,2.3E1,5.1E1,1.67E2,3.64E2,9.1E1,1.1E1,2.7E1,2.8E1,1.171E3,1.91E2,1.277E3,4E1,5E0,5E0,7E0,1.5E1,1.2E1,1.3E1,1.4E1,2.5E1,2.5E1,7E0,7E0,8E0,2E1,1.7E1,1.04E2,2.31E2,8.9E1,9.59E2,9.3E1,1.22E2,7E0,1E1,4.7E1,3.4E1,9.9E1,7E0,1.79E2,1.16E2,8E0,1.16E2,6E0,2.6E1,5.18E2,8E1,2.1E1,9E0,4.4E1,1.6E1,1.2E1,2E1,4.13E2,7.05E2,8.7E1,1.089E3,3.55E2,2.16E2,2.2E1,1.1E1,6.02E2,4.62E2,3.37E2,5E1,6.43E2,1.42E2,4.77E2,1.277E3,1.5E1,1.8E1,4E1,8.7E1,9E0,4.6E1,1.9E1,1.2E2,8.3E1,7.15E2,8E0,6E0,5E0,1E1,1.7E1,3E1,1.8E2,8.5E1,6.14E2,7.48E2,6E0,1.7E1,2.6E1,2.5E1,3.4E1,1.33E2,2.35E2,1.29E2,3.5E1,5.6E1,1.4E1,1.4E1,1.123E3,4.8E1,1.35E2,5.6E1,1.29E2,1.148E3,3.4E1,6E0,9E0,6E0,2E1,5E0,1.9E1,6E0,5E0,1.5E1,9E0,8E0,8.1E1,2.3E1,1.5E2,8.1E1,6.4E1,2.5E1,6.3E1,8.96E2,6.1E1,3.2E1,8.4E1,3.8E1],"tree_param":{"num_deleted":"0","num_feature":"6","num_nodes":"265","size_leaf_vector":"1"}},{"base_weights":[3.981672E-2,-6.8628824E-1,5.809925E0,-2.286747E0,2.2304182E0,4.3443837E0,3.9179832E1,-3.778878E-1,-3.468651E0,1.458954E0,3.5632923E1,3.7309186E0,1.9973267E1,2.2988527E1,1.5753225E0,3.544721E0,-2.0092416E0,-4.6650987E0,1.8708552E0,1.9320396E1,1.0073798E0,3.7472797E1,3.6045003E-1,1.440695E1,3.0955696E0,9.085452E0,4.7001144E1,1.3522948E1,1.2474471E0,-4.501352E0,6.8881397E0,6.359139E0,-2.3358748E0,-2.2187076E0,-5.0469975E0,2.8656024E-1,3.1333532E1,3.237373E1,-3.3091166E0,1.0393337E1,3.5513753E-1,2.6252121E1,4.411483E1,1.2064706E1,1.0003134E0,4.84496E-2,4.0172663E0,-1.7045426E0,1.3450151E1,1.7855551E0,7.943938E-1,3.2595703E1,-4.3475473E-1,-6.932499E-1,-5.6268253E0,2.371443E0,7.9452896E0,6.126535E-1,4.8656225E0,-1.5260377E0,-4.9089384E0,-6.6137652E0,6.0990286E-1,-5.2270284E0,-1.1303126E0,1.2571049E1,-1.0271016E0,1.4109784E1,4.421289E1,2.6732054E0,2.65696E1,-2.8264647E0,-1.5926214E-1,7.7564054E0,2.5769373E1,-2.2461152E0,2.6271737E0,3.5635015E-1,2.9198175E1,1.684231E0,3.987883E1,1.4864189E1,5.6349316E0,6.617312E0,-7.9486245E-1,5.266775E0,7.627108E-1,-7.2645985E-2,-2.8724702E-2,1.795006E1,2.0953894E-1,1.6743102E0,1.1845346E-1,2.0337453E-2,-4.1264653E-2,-2.044155E0,3.161512E-1,-6.671855E0,-4.2362103E0,-1.8253691E-1,3.3939404E0,2.6275078E1,6.857086E0,5.6713147E0,-4.0891223E-2,-3.6566277E0,1.0887494E0,-5.3843412E0,3.0656075E0,-4.30989E0,-8.830652E0,-1.7168646E0,2.2045064E0,-5.6156497E0,-3.8929996E0,6.62989E0,-4.665442E0,-5.259938E0,2.3765104E1,6.5501957E0,-2.3286002E0,2.5327316E-1,1.5844727E1,1.4972186E0,6.4809257E-1,-2.718505E-1,3.102584E1,5.8073185E-2,-3.562092E0,1.9460903E1,3.873706E0,2.7677708E1,5.5947876E-1,1.928451E1,-2.3744795E0,5.6150846E0,4.298255E-3,1.2165276E0,2.0646513E1,6.9084406E0,4.7385704E1,8.338263E0,2.430565E1,-1.2712898E-3,8.326412E0,8.404177E0,-3.5928267E-3,8.183711E-1,-1.5146099E0,1.4120644E1,4.4309907E0,-1.6609482E0,5.645547E0,2.3413686E-1,6.243476E-1,-2.5673562E-1,-1.757453E-2,-1.09241694E-1,-2.3651972E-1,-6.0662635E-2,-1.348381E-1,1.2096598E-1,-2.0530598E-1,-3.5352476E-2,1.0030888E0,1.6904391E-1,4.361172E-1,1.4885174E-1,3.6783403E-1,-1.2452094E-2,-1.6972136E-1,9.4477475E-2,-4.4080816E-2,-1.817714E-1,-1.30812E-1,1.8528627E-1,-7.302909E-2,-5.3832956E-2,-1.3968937E-1,-2.7298045E-1,-2.0388371E-1,-1.1610765E-2,-1.1086318E-1,1.8027525E-1,1.3911267E-2,-1.4833152E-1,-1.9259803E-1,-1.4137705E-1,1.6368775E-1,-6.6595E-2,3.5138103E-1,-1.623783E-2,-1.8502161E-1,-1.0726646E-1,-1.6737835E-1,4.4372255E-1,7.6983154E-1,6.3057804E-1,1.2919658E-1,9.8284096E-2,-8.255651E-2,2.760447E-1,5.7707226E-1,1.6618277E0,8.012882E-1,-1.1947866E-1,-6.847546E-2,6.2751675E-1,2.0499624E-2,7.843947E-2,6.825641E-1,6.1158454E-1,9.1786927E-1,7.464734E-1,3.279493E-1,-2.0926592E-1,-5.3249486E-2,-4.4431012E-2,2.611681E-1,2.6984102E-1,-3.0391805E-2,8.093613E-1,3.5585123E-1,3.017744E-1,7.8189805E-2,1.7369684E0,1.2269999E0,8.485441E-2,3.5899094E-1,9.312323E-1,4.4950405E-1,4.3749532E-1,-7.377049E-3,1.5165111E-1,4.2369044E-1,4.3963697E-2,-3.8551122E-2,-6.3786986E-3,-5.9646044E-2,2.247815E-1,9.790679E-1,-1.2458836E-1,1.541017E-1,-1.0775357E-1,1.76759E-2,6.9919586E-2,2.156435E-1],"categories":[],"categories_nodes":[],"categories_segments":[],"categories_sizes":[],"default_left":[0,0,0,0,0,0,0,0,0,0,0,0,0,0,0,0,0,0,0,0,0,0,0,0,0,0,0,0,0,0,0,0,0,0,0,0,0,0,0,0,0,0,0,0,0,0,0,0,0,0,0,0,0,0,0,0,0,0,0,0,0,0,0,0,0,0,0,0,0,0,0,0,0,0,0,0,0,0,0,0,0,0,0,0,0,0,0,0,0,0,0,0,0,0,0,0,0,0,0,0,0,0,0,0,0,0,0,0,0,0,0,0,0,0,0,0,0,0,0,0,0,0,0,0,0,0,0,0,0,0,0,0,0,0,0,0,0,0,0,0,0,0,0,0,0,0,0,0,0,0,0,0,0,0,0,0,0,0,0,0,0,0,0,0,0,0,0,0,0,0,0,0,0,0,0,0,0,0,0,0,0,0,0,0,0,0,0,0,0,0,0,0,0,0,0,0,0,0,0,0,0,0,0,0,0,0,0,0,0,0,0,0,0,0,0,0,0,0,0,0,0,0,0,0,0,0,0,0,0,0,0,0,0,0,0,0,0,0,0,0,0,0,0,0,0,0,0],"id":6,"left_children":[1,3,5,7,9,11,13,15,17,19,21,23,25,27,-1,29,31,33,35,37,39,41,-1,43,45,47,49,51,-1,53,55,57,59,61,63,65,67,69,71,73,75,77,79,81,-1,83,85,87,89,-1,-1,91,93,95,97,99,101,-1,103,105,107,109,111,113,115,117,119,121,123,-1,125,127,-1,129,131,133,135,-1,137,-1,139,141,143,145,147,149,151,-1,-1,153,-1,-1,-1,-1,-1,155,-1,157,159,-1,161,163,165,167,-1,169,171,173,175,177,179,181,183,185,187,189,191,193,195,197,199,-1,201,-1,-1,-1,203,-1,205,207,209,211,-1,213,215,217,219,-1,221,223,225,227,229,-1,231,233,-1,235,237,239,241,243,245,-1,-1,-1,-1,-1,-1,-1,-1,-1,-1,-1,-1,-1,-1,-1,-1,-1,-1,-1,-1,-1,-1,-1,-1,-1,-1,-1,-1,-1,-1,-1,-1,-1,-1,-1,-1,-1,-1,-1,-1,-1,-1,-1,-1,-1,-1,-1,-1,-1,-1,-1,-1,-1,-1,-1,-1,-1,-1,-1,-1,-1,-1,-1,-1,-1,-1,-1,-1,-1,-1,-1,-1,-1,-1,-1,-1,-1,-1,-1,-1,-1,-1,-1,-1,-1,-1,-1,-1,-1,-1,-1,-1,-1,-1],"loss_changes":[6.960754E4,6.889179E4,9.064631E4,2.1496957E4,1.3469328E5,1.6991723E4,1.5628766E4,2.3332068E4,3.7604688E4,4.1212734E4,4.6773438E3,1.1581473E4,1.9289367E4,5.9494688E3,0E0,2.8842398E4,7.053334E3,4.480797E3,5.030944E4,3.7326348E4,3.0526307E4,6.9654688E3,0E0,3.8557656E3,4.546799E3,2.3305854E3,3.3045508E3,6.935679E3,0E0,1.3461631E3,3.5956992E3,1.9379065E3,5.1581553E3,8.097205E3,2.926E3,1.6537879E4,1.1576859E4,2.3975375E4,3.0355713E1,1.2936887E4,2.7570795E4,1.4740488E3,1.1743594E3,1.4822451E3,0E0,2.0936892E3,5.0507617E3,5.715851E0,8.929238E2,0E0,0E0,7.0950264E3,1.7680082E1,1.1291606E3,3.2487256E2,1.2743562E3,1.2047059E4,0E0,4.543667E2,1.0516532E4,2.2646416E3,1.264334E3,1.4767625E3,2.0388984E3,5.0786626E3,1.9885508E4,9.147318E3,1.1204541E2,2.9130781E3,0E0,1.2030988E4,1.4702472E2,0E0,1.2558338E4,1.2244336E2,6.0569766E3,1.9513898E4,0E0,2.5607344E3,0E0,1.2790367E4,3.4941914E3,4.2820306E2,5.186509E2,3.9021503E2,6.5825605E3,4.1040547E3,0E0,0E0,4.1820752E2,0E0,0E0,0E0,0E0,0E0,6.219319E2,0E0,4.7453857E2,5.212793E1,0E0,8.7703516E2,6.7238184E3,5.362758E3,3.08573E2,0E0,6.742626E3,4.474423E3,3.6045996E2,5.967079E2,1.0231372E2,8.680664E0,4.24822E2,1.5602786E3,1.6289453E3,6.921836E3,2.6349255E3,7.8333716E2,1.0288086E0,6.583633E2,4.324505E3,1.8855781E3,0E0,2.2849414E2,0E0,0E0,0E0,5.4623047E3,0E0,9.743103E0,1.8725938E3,4.932007E3,1.2094141E2,0E0,3.358584E2,5.9538535E3,2.5540215E4,1.2146467E4,0E0,9.037832E2,1.2288422E2,5.639219E2,7.0578516E2,1.0418291E3,0E0,1.02265E3,5.798159E2,0E0,1.4343602E2,1.4263074E2,9.204585E3,5.0009805E3,1.0100783E3,5.712947E2,0E0,0E0,0E0,0E0,0E0,0E0,0E0,0E0,0E0,0E0,0E0,0E0,0E0,0E0,0E0,0E0,0E0,0E0,0E0,0E0,0E0,0E0,0E0,0E0,0E0,0E0,0E0,0E0,0E0,0E0,0E0,0E0,0E0,0E0,0E0,0E0,0E0,0E0,0E0,0E0,0E0,0E0,0E0,0E0,0E0,0E0,0E0,0E0,0E0,0E0,0E0,0E0,0E0,0E0,0E0,0E0,0E0,0E0,0E0,0E0,0E0,0E0,0E0,0E0,0E0,0E0,0E0,0E0,0E0,0E0,0E0,0E0,0E0,0E0,0E0,0E0,0E0,0E0,0E0,0E0,0E0,0E0,0E0,0E0,0E0,0E0,0E0,0E0,0E0,0E0,0E0,0E0,0E0,0E0],"parents":[2147483647,0,0,1,1,2,2,3,3,4,4,5,5,6,6,7,7,8,8,9,9,10,10,11,11,12,12,13,13,15,15,16,16,17,17,18,18,19,19,20,20,21,21,23,23,24,24,25,25,26,26,27,27,29,29,30,30,31,31,32,32,33,33,34,34,35,35,36,36,37,37,38,38,39,39,40,40,41,41,42,42,43,43,45,45,46,46,47,47,48,48,51,51,52,52,53,53,54,54,55,55,56,56,58,58,59,59,60,60,61,61,62,62,63,63,64,64,65,65,66,66,67,67,68,68,70,70,71,71,73,73,74,74,75,75,76,76,78,78,80,80,81,81,82,82,83,83,84,84,85,85,86,86,89,89,95,95,97,97,98,98,100,100,101,101,102,102,103,103,105,105,106,106,107,107,108,108,109,109,110,110,111,111,112,112,113,113,114,114,115,115,116,116,117,117,118,118,119,119,120,120,122,122,126,126,128,128,129,129,130,130,131,131,133,133,134,134,135,135,136,136,138,138,139,139,140,140,141,141,142,142,144,144,145,145,147,147,148,148,149,149,150,150,151,151,152,152],"right_children":[2,4,6,8,10,12,14,16,18,20,22,24,26,28,-1,30,32,34,36,38,40,42,-1,44,46,48,50,52,-1,54,56,58,60,62,64,66,68,70,72,74,76,78,80,82,-1,84,86,88,90,-1,-1,92,94,96,98,100,102,-1,104,106,108,110,112,114,116,118,120,122,124,-1,126,128,-1,130,132,134,136,-1,138,-1,140,142,144,146,148,150,152,-1,-1,154,-1,-1,-1,-1,-1,156,-1,158,160,-1,162,164,166,168,-1,170,172,174,176,178,180,182,184,186,188,190,192,194,196,198,200,-1,202,-1,-1,-1,204,-1,206,208,210,212,-1,214,216,218,220,-1,222,224,226,228,230,-1,232,234,-1,236,238,240,242,244,246,-1,-1,-1,-1,-1,-1,-1,-1,-1,-1,-1,-1,-1,-1,-1,-1,-1,-1,-1,-1,-1,-1,-1,-1,-1,-1,-1,-1,-1,-1,-1,-1,-1,-1,-1,-1,-1,-1,-1,-1,-1,-1,-1,-1,-1,-1,-1,-1,-1,-1,-1,-1,-1,-1,-1,-1,-1,-1,-1,-1,-1,-1,-1,-1,-1,-1,-1,-1,-1,-1,-1,-1,-1,-1,-1,-1,-1,-1,-1,-1,-1,-1,-1,-1,-1,-1,-1,-1,-1,-1,-1,-1,-1,-1],"split_conditions":[-9.049462E1,3.9024883E1,3.8800434E1,-9.322793E1,-9.098742E1,-8.954725E1,2.014E3,3.7480103E1,3.8785748E1,-9.50276E1,2.019E3,3.6819614E1,2.012E3,-9.020633E1,1.5753225E0,3.71122E1,-9.450848E1,-9.2838394E1,-9.0764656E1,4.024561E1,3.9087513E1,2.014E3,3.6045003E-1,-8.98952E1,3.7624798E1,3.6918E1,2.018E3,-9.028331E1,1.2474471E0,-9.431111E1,3.7147793E1,3.7993034E1,3.8896023E1,3.7434402E1,2.024E3,3.879896E1,2.014E3,2.007E3,4.0398224E1,-9.102548E1,3.955446E1,2.007E3,3.9057514E1,2.02E3,1.0003134E0,-9.03351E1,2.019E3,2.009E3,2.009E3,1.7855551E0,7.943938E-1,2.011E3,2.011E3,3.704668E1,3.663615E1,-9.336754E1,3.7166393E1,6.126535E-1,2.021E3,3.7929962E1,-9.395003E1,3.717971E1,3.8175297E1,-9.0837425E1,3.7993034E1,-9.080078E1,-9.236536E1,-9.06432E1,3.8992588E1,2.6732054E0,2.01E3,2.007E3,-1.5926214E-1,2.006E3,2.017E3,-9.480565E1,-9.269646E1,3.5635015E-1,2.011E3,1.684231E0,3.9165703E1,2.015E3,-9.006946E1,2.019E3,-9.028181E1,3.7669678E1,3.868732E1,-7.2645985E-2,-2.8724702E-2,3.7456703E1,2.0953894E-1,1.6743102E0,1.1845346E-1,2.0337453E-2,-4.1264653E-2,2.007E3,3.161512E-1,2.009E3,2.008E3,-1.8253691E-1,-9.32433E1,-9.38557E1,-9.3308525E1,2.02E3,-4.0891223E-2,3.756953E1,3.873506E1,3.89939E1,-9.38557E1,2.007E3,-9.32256E1,3.79742E1,-9.2967186E1,-9.108122E1,3.8555897E1,-9.133114E1,-9.23082E1,3.8789333E1,2.017E3,2.007E3,2.006E3,2.5327316E-1,3.8835197E1,1.4972186E0,6.4809257E-1,-2.718505E-1,2.012E3,5.8073185E-2,2.021E3,-9.4061E1,2.024E3,2.014E3,5.5947876E-1,2.019E3,-9.46194E1,2.009E3,3.970818E1,1.2165276E0,3.937361E1,-9.077385E1,3.937361E1,3.663615E1,-8.994122E1,-1.2712898E-3,3.65028E1,2.014E3,