{"learner":{"attributes":{"best_iteration":"105","best_score":"0.4201395067290503"},"feature_names":["CharacteristicName","ActivityLocation/LatitudeMeasure","ActivityLocation/LongitudeMeasure","cluster","year","season"],"feature_types":["float","float","float","float","float","float"],"gradient_booster":{"model":{"cats":{"enc":[],"feature_segments":[],"sorted_idx":[]},"gbtree_model_param":{"num_parallel_tree":"1","num_trees":"126"},"iteration_indptr":[0,1,2,3,4,5,6,7,8,9,10,11,12,13,14,15,16,17,18,19,20,21,22,23,24,25,26,27,28,29,30,31,32,33,34,35,36,37,38,39,40,41,42,43,44,45,46,47,48,49,50,51,52,53,54,55,56,57,58,59,60,61,62,63,64,65,66,67,68,69,70,71,72,73,74,75,76,77,78,79,80,81,82,83,84,85,86,87,88,89,90,91,92,93,94,95,96,97,98,99,100,101,102,103,104,105,106,107,108,109,110,111,112,113,114,115,116,117,118,119,120,121,122,123,124,125,126],"tree_info":[0,0,0,0,0,0,0,0,0,0,0,0,0,0,0,0,0,0,0,0,0,0,0,0,0,0,0,0,0,0,0,0,0,0,0,0,0,0,0,0,0,0,0,0,0,0,0,0,0,0,0,0,0,0,0,0,0,0,0,0,0,0,0,0,0,0,0,0,0,0,0,0,0,0,0,0,0,0,0,0,0,0,0,0,0,0,0,0,0,0,0,0,0,0,0,0,0,0,0,0,0,0,0,0,0,0,0,0,0,0,0,0,0,0,0,0,0,0,0,0,0,0,0,0,0,0],"trees":[{"base_weights":[-1.4815076E-3,-1.2705155E-1,5.376112E-2,-1.1727696E-1,-3.807321E-1,6.2687057E-3,1.1874882E-1,-2.5933074E-2,-1.5955743E-1,-6.006947E-1,-5.7147737E-3,1.3247302E-2,-1.5771784E-1,1.5326129E-1,-1.9354973E-3,7.903979E-2,-9.233972E-2,-1.4982067E-1,-4.7711E-1,-1.2013232E-2,-2.0615058E-2,-9.738394E-3,8.353506E-2,-1.8844962E-1,1.14081865E-2,-3.7694905E-2,1.6969258E-1,2.272152E-1,-2.9753838E-2,1.0964076E-1,-2.8372963E-3,-1.20918125E-1,3.3413824E-1,-1.5517583E-1,1.7913812E-1,-1.0111868E-2,-1.7380508E-2,-1.365387E-1,2.0268807E-2,2.2233544E-1,-3.4445457E-2,-9.601635E-2,-4.4630262E-1,3.7081137E-2,-1.0403745E-1,1.8665865E-1,-3.4544684E-2,3.1335326E-3,1.2887567E-2,-4.9855553E-2,1.0277635E-1,-3.968846E-4,1.3951705E-1,-6.6872306E-2,-2.1547136E-1,4.012011E-1,-5.1532392E-3,-1.4571454E-1,-3.297034E-1,8.267085E-3,-1.2735058E-2,-2.1452156E-1,-4.1286297E-2,6.163903E-3,7.617108E-2,4.196062E-1,1.7911872E-1,-9.64121E-2,1.5176152E-1,1.352837E-1,-3.4277644E-3,-2.5068232E-1,-1.845142E-2,-1.2601205E-2,2.3492762E-1,-2.3000823E-1,-7.701494E-4,3.4358242E-1,1.742763E-1,-1.6596529E-1,1.5157804E-1,-3.2628644E-2,-5.1658964E-1,-2.5964957E-3,2.0590815E-1,3.531402E-1,9.853284E-2,-2.569756E-2,-1.9661903E-1,-2.253361E-2,-1.7903972E-1,1.3384294E-2,-6.373806E-3,-1.7219847E-1,-2.6095409E-2,-2.7915832E-1,-4.444667E-1,2.5507584E-1,-2.5442246E-1,9.5517226E-2,-1.10763066E-1,1.6092336E-2,-1.4373038E-2,9.232351E-2,-2.0112477E-1,4.402219E-3,5.465144E-1,2.0486505E-1,3.2332765E-3,-3.5715137E-2,-3.6258098E-1,3.7974238E-1,-2.2300813E-2,8.78134E-3,-6.6416254E-3,-1.9070197E-2,-5.4164557E-3,-8.391135E-3,7.000848E-4,1.0674827E-2,-4.144151E-3,-1.4083016E-1,-1.1182429E-2,9.263965E-2,1.34431515E-2,1.552741E-1,2.5357148E-1,-2.3457757E-3,-7.980523E-3,2.8802255E-1,1.8202033E-2,-5.6150734E-2,9.433259E-3,1.7463147E-3,-2.1298608E-2,7.244479E-3,-1.91866E-3,8.382131E-3,1.5746027E-2,-1.1877654E-3,4.1013495E-3,8.5318106E-4,-2.209613E-3,-2.0637687E-3,-7.329053E-3,-6.9822166E-3,-3.2148047E-3,-4.41561E-3,-1.5631152E-2,-2.0839032E-3,1.2158686E-3,-1.1263855E-2,-3.2890635E-3,-4.3370635E-3,-2.3261841E-2,-6.4350595E-3,1.0658569E-2,-1.1611324E-2,-4.6595526E-3,5.1267113E-4,1.2987707E-2,-5.3816875E-3,-6.172158E-4,8.7808014E-4,-3.5017035E-3,4.727387E-3,2.231537E-3,5.485722E-3,-9.672063E-3,2.3765258E-2,1.2733317E-2,3.4624776E-3,9.402753E-3,-1.388993E-2,3.6310903E-3,-7.2980686E-3,-1.618117E-4,-2.1867136E-2,-4.805155E-3,1.3112088E-2,2.8201258E-3,-1.986539E-2,3.4522297E-4,-6.8579693E-3,8.836295E-3,-4.5586214E-3,5.066102E-3,5.136244E-3,-1.7033895E-3,3.5908658E-3,1.1228153E-2,5.8006793E-3,2.1817757E-2,-1.2255912E-2,1.6879551E-3,-1.305735E-3,-9.598592E-3],"categories":[],"categories_nodes":[],"categories_segments":[],"categories_sizes":[],"default_left":[0,0,0,0,0,0,0,0,0,0,0,0,0,0,0,0,0,0,0,0,0,0,0,0,0,0,0,0,0,0,0,0,0,0,0,0,0,0,0,0,0,0,0,0,0,0,0,0,0,0,0,0,0,0,0,0,0,0,0,0,0,0,0,0,0,0,0,0,0,0,0,0,0,0,0,0,0,0,0,0,0,0,0,0,0,0,0,0,0,0,0,0,0,0,0,0,0,0,0,0,0,0,0,0,0,0,0,0,0,0,0,0,0,0,0,0,0,0,0,0,0,0,0,0,0,0,0,0,0,0,0,0,0,0,0,0,0,0,0,0,0,0,0,0,0,0,0,0,0,0,0,0,0,0,0,0,0,0,0,0,0,0,0,0,0,0,0,0,0,0,0,0,0,0,0,0,0,0,0,0,0,0,0,0,0,0,0,0,0,0,0,0,0,0,0,0,0],"id":0,"left_children":[1,3,5,7,9,11,13,15,17,19,-1,21,23,25,27,29,31,33,35,-1,-1,37,39,41,-1,43,45,47,49,51,-1,53,55,57,59,-1,-1,61,63,65,67,69,71,73,75,77,79,-1,-1,81,83,-1,85,87,89,91,-1,93,95,-1,-1,97,99,101,103,105,107,109,111,113,-1,115,-1,117,119,121,-1,123,125,127,129,131,133,-1,135,137,139,141,143,-1,145,-1,-1,147,149,151,153,155,157,159,161,163,-1,165,167,-1,169,171,173,175,177,179,181,-1,-1,-1,-1,-1,-1,-1,-1,183,-1,185,-1,187,189,-1,-1,191,193,195,-1,-1,-1,-1,-1,-1,-1,-1,-1,-1,-1,-1,-1,-1,-1,-1,-1,-1,-1,-1,-1,-1,-1,-1,-1,-1,-1,-1,-1,-1,-1,-1,-1,-1,-1,-1,-1,-1,-1,-1,-1,-1,-1,-1,-1,-1,-1,-1,-1,-1,-1,-1,-1,-1,-1,-1,-1,-1,-1,-1,-1,-1,-1,-1,-1],"loss_changes":[1.6978546E2,1.8497963E1,5.2462273E1,2.781044E1,1.1476807E1,1.1242346E1,2.989331E1,1.590094E1,1.5150093E1,1.9413643E0,0E0,1.522312E1,6.701562E0,1.7517654E1,1.0186985E1,4.70691E0,1.7067127E1,8.44487E0,1.8952293E0,0E0,0E0,2.7021523E1,3.8032127E1,9.014143E0,0E0,2.201507E0,1.7813614E1,4.25311E0,3.8014436E0,2.7623682E0,0E0,6.679962E0,3.0545769E0,7.7161713E0,4.599138E0,0E0,0E0,1.0085869E1,4.5278645E0,9.021435E0,1.4507139E1,1.2011325E0,3.1468086E0,2.0573213E0,2.3139687E0,9.16008E0,9.687E0,0E0,0E0,9.937141E0,3.6886253E0,0E0,5.262084E0,4.455758E0,9.154455E0,2.245963E0,0E0,1.413105E1,1.2738972E0,0E0,0E0,1.4061707E1,5.8369403E0,2.2107521E1,5.200775E0,6.5339203E0,3.970749E0,1.5221821E1,1.2468893E1,1.2439508E0,0E0,1.1812723E0,0E0,1.6191574E0,1.9435072E0,1.0931363E0,0E0,9.033787E0,6.5904694E0,2.0165892E0,2.979299E0,9.773428E0,4.931735E0,0E0,1.1866751E0,1.0816088E0,2.689598E0,1.6506829E0,1.2083144E0,0E0,1.7004776E0,0E0,0E0,3.179573E1,2.3432026E0,2.7341967E0,7.033516E0,2.8525312E0,8.995647E0,5.47027E0,2.5153832E0,7.871929E0,0E0,1.2689428E0,3.0393274E0,0E0,3.5621986E0,7.392437E0,6.262388E0,4.838255E0,1.28590145E1,2.186674E0,3.8799596E0,0E0,0E0,0E0,0E0,0E0,0E0,0E0,0E0,2.2454276E0,0E0,1.946145E0,0E0,1.2011482E1,1.367408E1,0E0,0E0,3.2274384E0,1.3873792E0,3.7166038E0,0E0,0E0,0E0,0E0,0E0,0E0,0E0,0E0,0E0,0E0,0E0,0E0,0E0,0E0,0E0,0E0,0E0,0E0,0E0,0E0,0E0,0E0,0E0,0E0,0E0,0E0,0E0,0E0,0E0,0E0,0E0,0E0,0E0,0E0,0E0,0E0,0E0,0E0,0E0,0E0,0E0,0E0,0E0,0E0,0E0,0E0,0E0,0E0,0E0,0E0,0E0,0E0,0E0,0E0,0E0,0E0,0E0,0E0,0E0,0E0,0E0,0E0,0E0,0E0,0E0],"parents":[2147483647,0,0,1,1,2,2,3,3,4,4,5,5,6,6,7,7,8,8,9,9,11,11,12,12,13,13,14,14,15,15,16,16,17,17,18,18,21,21,22,22,23,23,25,25,26,26,27,27,28,28,29,29,31,31,32,32,33,33,34,34,37,37,38,38,39,39,40,40,41,41,42,42,43,43,44,44,45,45,46,46,49,49,50,50,52,52,53,53,54,54,55,55,57,57,58,58,61,61,62,62,63,63,64,64,65,65,66,66,67,67,68,68,69,69,71,71,73,73,74,74,75,75,77,77,78,78,79,79,80,80,81,81,82,82,84,84,85,85,86,86,87,87,88,88,90,90,93,93,94,94,95,95,96,96,97,97,98,98,99,99,100,100,101,101,103,103,104,104,106,106,107,107,108,108,109,109,110,110,111,111,112,112,121,121,123,123,125,125,126,126,129,129,130,130,131,131],"right_children":[2,4,6,8,10,12,14,16,18,20,-1,22,24,26,28,30,32,34,36,-1,-1,38,40,42,-1,44,46,48,50,52,-1,54,56,58,60,-1,-1,62,64,66,68,70,72,74,76,78,80,-1,-1,82,84,-1,86,88,90,92,-1,94,96,-1,-1,98,100,102,104,106,108,110,112,114,-1,116,-1,118,120,122,-1,124,126,128,130,132,134,-1,136,138,140,142,144,-1,146,-1,-1,148,150,152,154,156,158,160,162,164,-1,166,168,-1,170,172,174,176,178,180,182,-1,-1,-1,-1,-1,-1,-1,-1,184,-1,186,-1,188,190,-1,-1,192,194,196,-1,-1,-1,-1,-1,-1,-1,-1,-1,-1,-1,-1,-1,-1,-1,-1,-1,-1,-1,-1,-1,-1,-1,-1,-1,-1,-1,-1,-1,-1,-1,-1,-1,-1,-1,-1,-1,-1,-1,-1,-1,-1,-1,-1,-1,-1,-1,-1,-1,-1,-1,-1,-1,-1,-1,-1,-1,-1,-1,-1,-1,-1,-1,-1,-1],"split_conditions":[5E0,3.9274143E1,3.859848E1,3E0,3.94602E1,3.8508297E1,3E0,3.8770973E1,3.780257E1,3.9454395E1,-5.7147737E-3,3.787549E1,4.1E1,1E0,3.8676296E1,3E0,3.904916E1,3.7769535E1,2E0,-1.2013232E-2,-2.0615058E-2,1.3E1,1E1,3.6E1,1.14081865E-2,3.9274143E1,7.4E1,3.8672894E1,4E1,3.7138504E1,-2.8372963E-3,3.8943466E1,3E0,3.7727062E1,4E0,-1.0111868E-2,-1.7380508E-2,3.762987E1,3.7405296E1,3.7922005E1,3.826796E1,9E0,3.8526672E1,3.9009735E1,3.9760242E1,3.8716465E1,3.9248764E1,3.1335326E-3,1.2887567E-2,3.1E1,3.9370277E1,-3.968846E-4,3.7173E1,3E0,1E0,3.9248764E1,-5.1532392E-3,3.754639E1,4E0,8.267085E-3,-1.2735058E-2,3.7138504E1,3.77308E1,3.7388493E1,7.5E1,3.7893303E1,3.842891E1,6.5E1,3.834852E1,3.85447E1,-3.4277644E-3,1E0,-1.845142E-2,9E0,1E1,3.970287E1,-7.701494E-4,3.866413E1,4.0170597E1,3.9111397E1,4.00452E1,1.4E1,3.9454395E1,-2.5964957E-3,1.14E2,3.716588E1,3.84705E1,2E0,3.886586E1,-2.253361E-2,3.898752E1,1.3384294E-2,-6.373806E-3,3.7455E1,3.7684002E1,3.7741478E1,3.7741478E1,3.712092E1,3.7450623E1,3.772944E1,3.7847572E1,3.7325375E1,-1.4373038E-2,3.745E1,3.741506E1,4.402219E-3,3.7898003E1,3.8067097E1,3.844749E1,1.1E1,6.6E1,3E0,1E0,8.78134E-3,-6.6416254E-3,-1.9070197E-2,-5.4164557E-3,-8.391135E-3,7.000848E-4,1.0674827E-2,-4.144151E-3,3.9620903E1,-1.1182429E-2,9E0,1.34431515E-2,4.00853E1,6E0,-2.3457757E-3,-7.980523E-3,3.9901443E1,4.0170597E1,1E1,9.433259E-3,1.7463147E-3,-2.1298608E-2,7.244479E-3,-1.91866E-3,8.382131E-3,1.5746027E-2,-1.1877654E-3,4.1013495E-3,8.5318106E-4,-2.209613E-3,-2.0637687E-3,-7.329053E-3,-6.9822166E-3,-3.2148047E-3,-4.41561E-3,-1.5631152E-2,-2.0839032E-3,1.2158686E-3,-1.1263855E-2,-3.2890635E-3,-4.3370635E-3,-2.3261841E-2,-6.4350595E-3,1.0658569E-2,-1.1611324E-2,-4.6595526E-3,5.1267113E-4,1.2987707E-2,-5.3816875E-3,-6.172158E-4,8.7808014E-4,-3.5017035E-3,4.727387E-3,2.231537E-3,5.485722E-3,-9.672063E-3,2.3765258E-2,1.2733317E-2,3.4624776E-3,9.402753E-3,-1.388993E-2,3.6310903E-3,-7.2980686E-3,-1.618117E-4,-2.1867136E-2,-4.805155E-3,1.3112088E-2,2.8201258E-3,-1.986539E-2,3.4522297E-4,-6.8579693E-3,8.836295E-3,-4.5586214E-3,5.066102E-3,5.136244E-3,-1.7033895E-3,3.5908658E-3,1.1228153E-2,5.8006793E-3,2.1817757E-2,-1.2255912E-2,1.6879551E-3,-1.305735E-3,-9.598592E-3],"split_indices":[3,1,1,3,1,1,5,1,1,1,0,1,3,5,1,5,1,1,5,0,0,3,3,3,0,1,3,1,3,1,0,1,5,1,3,0,0,1,1,1,1,3,1,1,1,1,1,0,0,3,1,0,1,5,5,1,0,1,3,0,0,1,1,1,3,1,1,3,1,1,0,5,0,3,3,1,0,1,1,1,1,3,1,0,3,1,1,5,1,0,1,0,0,1,1,1,1,1,1,1,1,1,0,1,1,0,1,1,1,3,3,5,5,0,0,0,0,0,0,0,0,1,0,3,0,1,3,0,0,1,1,3,0,0,0,0,0,0,0,0,0,0,0,0,0,0,0,0,0,0,0,0,0,0,0,0,0,0,0,0,0,0,0,0,0,0,0,0,0,0,0,0,0,0,0,0,0,0,0,0,0,0,0,0,0,0,0,0,0,0,0,0,0,0,0,0,0],"split_type":[0,0,0,0,0,0,0,0,0,0,0,0,0,0,0,0,0,0,0,0,0,0,0,0,0,0,0,0,0,0,0,0,0,0,0,0,0,0,0,0,0,0,0,0,0,0,0,0,0,0,0,0,0,0,0,0,0,0,0,0,0,0,0,0,0,0,0,0,0,0,0,0,0,0,0,0,0,0,0,0,0,0,0,0,0,0,0,0,0,0,0,0,0,0,0,0,0,0,0,0,0,0,0,0,0,0,0,0,0,0,0,0,0,0,0,0,0,0,0,0,0,0,0,0,0,0,0,0,0,0,0,0,0,0,0,0,0,0,0,0,0,0,0,0,0,0,0,0,0,0,0,0,0,0,0,0,0,0,0,0,0,0,0,0,0,0,0,0,0,0,0,0,0,0,0,0,0,0,0,0,0,0,0,0,0,0,0,0,0,0,0,0,0,0,0,0,0],"sum_hessian":[2.4474E4,7.477E3,1.6997E4,7.201E3,2.76E2,9.821E3,7.176E3,2.279E3,4.922E3,1.27E2,1.49E2,9.421E3,4E2,5.58E3,1.596E3,8.83E2,1.396E3,4.777E3,1.45E2,4E1,8.7E1,7.1E3,2.321E3,3.79E2,2.1E1,4.42E2,5.138E3,1.72E2,1.424E3,7.51E2,1.32E2,1.309E3,8.7E1,4.701E3,7.6E1,6.3E1,8.2E1,1.358E3,5.742E3,1.066E3,1.255E3,2.8E2,9.9E1,2.08E2,2.34E2,4.744E3,3.94E2,1.08E2,6.4E1,1.237E3,1.87E2,1.47E2,6.04E2,8.34E2,4.75E2,7.7E1,1E1,4.461E3,2.4E2,6.6E1,1E1,7.46E2,6.12E2,4.586E3,1.156E3,1.9E2,8.76E2,9.42E2,3.13E2,2E1,2.6E2,4.7E1,5.2E1,1.67E2,4.1E1,8.9E1,1.45E2,3.45E2,4.399E3,2.31E2,1.63E2,1.194E3,4.3E1,6.6E1,1.21E2,9.6E1,5.08E2,6.34E2,2E2,2.9E1,4.46E2,7.2E1,5E0,3.652E3,8.09E2,1.69E2,7.1E1,5.8E1,6.88E2,2.06E2,4.06E2,4.495E3,9.1E1,1.093E3,6.3E1,6.1E1,1.29E2,7.64E2,1.12E2,7.68E2,1.74E2,1.35E2,1.78E2,1.4E1,6E0,6E0,4.1E1,1.9E1,1.48E2,3.1E1,1E1,5.6E1,3.3E1,1.02E2,2.43E2,3.551E3,8.48E2,1.24E2,1.07E2,8E1,8.3E1,1.119E3,7.5E1,1.1E1,3.2E1,1.07E2,1.4E1,6.9E1,2.7E1,1.1E2,3.98E2,2.98E2,3.36E2,5.5E1,1.45E2,2.54E2,1.92E2,3.409E3,2.43E2,4.9E2,3.19E2,1.07E2,6.2E1,3.8E1,3.3E1,1E1,4.8E1,2.93E2,3.95E2,1.68E2,3.8E1,2.3E2,1.76E2,4.09E3,4.05E2,2.34E2,8.59E2,1.5E1,4.8E1,4.1E1,8.8E1,4.2E2,3.44E2,2.2E1,9E1,9.7E1,6.71E2,6.1E1,1.13E2,1.12E2,2.3E1,8E0,1.7E2,4.7E1,9E0,2.4E1,7.8E1,3.303E3,2.48E2,4.03E2,4.45E2,6.7E1,1.3E1,6E0,7.7E1,1.069E3,5E1],"tree_param":{"num_deleted":"0","num_feature":"6","num_nodes":"197","size_leaf_vector":"1"}},{"base_weights":[1.1506993E-3,-6.574654E-2,6.898078E-2,-2.1488497E-2,-1.3321397E-1,1.0092148E-1,-4.881249E-2,-5.0416138E-2,2.6614977E-2,5.6137417E-2,-1.4367303E-1,7.4645184E-2,2.069535E-1,-8.895943E-4,-1.8285538E-1,-1.6688142E-2,-1.2328016E-1,5.934904E-2,-2.7873812E-2,9.0640955E-2,-9.2176385E-2,-1.704265E-1,-6.0808785E-2,-5.08686E-2,9.684655E-2,8.5070655E-2,2.7694812E-1,5.3167623E-2,-4.151809E-2,-2.1484752E-1,-9.1305946E-4,1.1024363E-2,-5.4040797E-2,-7.957654E-2,-3.5709062E-1,-1.4684266E-2,9.060878E-2,-1.5398349E-1,7.058995E-2,4.6639872E-4,1.9576694E-1,1.9022677E-3,-2.5688645E-1,-1.1670228E-1,-3.0004612E-1,1.9705124E-2,-1.4755216E-1,1.1674305E-2,-1.1768397E-1,1.5133472E-1,7.816759E-3,7.462421E-3,2.5763499E-2,4.9180678E-1,1.09639496E-1,3.1809572E-2,3.0596372E-1,-6.401103E-2,1.604779E-1,-1.8479638E-1,-6.054002E-1,-1.2685832E-2,5.3585507E-3,-4.0093172E-2,-1.4934625E-1,-1.4841054E-1,-2.6393589E-2,-2.6862097E-1,-1.4663957E-2,1.606945E-1,-7.521537E-2,1.7696379E-1,4.2410336E-2,-8.5087664E-2,-3.4962752E-1,9.522706E-2,-7.1595654E-2,1.2578616E-2,2.8086735E-3,-1.1725527E-2,1.7969637E-3,-2.2371644E-1,-5.2280415E-2,-1.5759024E-1,-3.6400917E-1,-1.3059079E-2,8.660341E-3,-2.6678073E-1,-9.476604E-2,-1.01571426E-1,3.9431732E-2,-4.1111637E-2,-1.6022813E-1,2.1367751E-1,1.1205908E-1,-1.0183187E-1,9.580072E-2,1.2611467E-1,-1.0756083E-3,9.215573E-3,5.18373E-1,-2.816979E-3,3.0230522E-1,4.4147305E-2,-1.0451611E-2,1.2669801E-2,3.925847E-3,-1.115758E-1,-2.0822054E-2,1.3536001E-2,9.869314E-2,-2.0322591E-1,7.220723E-2,-9.124017E-3,-2.321984E-2,5.8335915E-2,-6.286307E-2,-6.2110033E-2,1.6352881E-1,-8.098078E-3,-3.513645E-2,-1.4396767E-4,-2.0591702E-1,-1.310169E-1,1.1224806E-2,-1.2381243E-2,7.679072E-3,2.701218E-3,8.327766E-3,-6.026324E-2,-3.9797878E-1,1.6341595E-1,1.5798442E-2,-1.3526562E-1,1.2176836E-1,-1.3038003E-1,2.4762432E-4,-2.6702927E-3,-3.9777336E-1,4.314588E-2,1.0145337E-2,-1.7037654E-2,1.1276471E-1,-2.1118765E-1,-1.4725125E-2,-3.1377576E-2,-1.6189378E-1,8.710206E-2,-2.2030436E-1,-4.7130406E-1,-4.255145E-3,4.422881E-2,-1.1629065E-1,-5.573449E-1,-6.277462E-3,5.6890515E-3,-1.2972203E-1,-2.855099E-1,7.6934495E-3,1.7371185E-2,1.6450661E-1,2.4177725E-3,-1.3282591E-1,4.221621E-3,-1.7934248E-1,1.7567737E-1,3.0628207E-1,-1.6189176E-1,1.3529724E-1,-6.5889634E-2,-3.4511694E-1,-2.339492E-2,1.6995701E-1,-4.3496498E-4,5.2410616E-3,1.8433984E-2,4.2003587E-1,4.5680786E-3,-8.5299686E-2,8.568491E-2,4.969426E-1,-2.8886413E-3,6.383119E-2,-1.6325721E-1,1.8600066E-4,1.1408787E-1,-9.931893E-2,4.399395E-4,7.053616E-3,-1.4860642E-1,-3.0131602E-1,7.0641134E-3,-9.607558E-3,3.7679353E-3,-1.00385E-3,-1.0621099E-2,-1.645689E-3,-4.090633E-4,-2.5686743E-3,1.1095051E-2,1.1081925E-3,4.625385E-3,-4.267347E-3,-8.017132E-3,-3.280613E-3,-5.3856336E-4,-6.658592E-3,2.96421E-3,-2.2220695E-3,-3.0010361E-3,2.7277942E-3,-9.57489E-5,-1.6866224E-2,3.151687E-3,6.4971168E-3,-8.418853E-4,-7.8073586E-3,8.069028E-3,2.6372059E-3,4.8599085E-3,-4.543019E-3,-1.3475723E-2,-2.1910265E-3,2.581988E-3,-1.2174206E-3,1.1384951E-2,-6.9494866E-4,-1.075794E-2,-5.6342883E-3,-1.3661103E-3,1.1844803E-2,1.8023024E-3,-7.754131E-3,4.687335E-3,-8.184425E-3,-1.2962126E-2,-4.58789E-3,-1.6192257E-2,-5.712909E-3,-6.708754E-4,9.153829E-3,-1.0296087E-2,2.4769935E-3,-6.0446054E-4,-2.12961E-2,-6.350977E-3,-8.603947E-4,3.88244E-4,-1.4217092E-2,3.5634693E-3,-7.4588526E-3,9.329074E-4,-1.119276E-2,-7.6956913E-4,9.267328E-3,-1.5547859E-2,-2.7354567E-3,-9.081117E-3,-3.1934252E-3,1.1281723E-2,4.476885E-3,1.2881923E-2,5.503263E-3,-6.735454E-3,4.923366E-3,-1.3251777E-3,4.3593314E-3,-2.1634188E-3,1.4397593E-2,-1.6114045E-2,-7.0476294E-3,4.2610606E-3,-4.360708E-3,1.7021995E-3,6.0687684E-3,5.490432E-3,1.5293237E-2,2.3556198E-3,-3.8144945E-3,9.002899E-3,-1.4089023E-3,1.917524E-2,1.0215021E-2,2.9037031E-3,-1.5590489E-3,-2.3871644E-3,-7.1316576E-3,2.5806E-3,9.174278E-3,-1.1847297E-2,-2.516746E-3,-1.2047508E-3,-5.5105416E-3,-1.33178895E-2,-5.461813E-3],"categories":[],"categories_nodes":[],"categories_segments":[],"categories_sizes":[],"default_left":[0,0,0,0,0,0,0,0,0,0,0,0,0,0,0,0,0,0,0,0,0,0,0,0,0,0,0,0,0,0,0,0,0,0,0,0,0,0,0,0,0,0,0,0,0,0,0,0,0,0,0,0,0,0,0,0,0,0,0,0,0,0,0,0,0,0,0,0,0,0,0,0,0,0,0,0,0,0,0,0,0,0,0,0,0,0,0,0,0,0,0,0,0,0,0,0,0,0,0,0,0,0,0,0,0,0,0,0,0,0,0,0,0,0,0,0,0,0,0,0,0,0,0,0,0,0,0,0,0,0,0,0,0,0,0,0,0,0,0,0,0,0,0,0,0,0,0,0,0,0,0,0,0,0,0,0,0,0,0,0,0,0,0,0,0,0,0,0,0,0,0,0,0,0,0,0,0,0,0,0,0,0,0,0,0,0,0,0,0,0,0,0,0,0,0,0,0,0,0,0,0,0,0,0,0,0,0,0,0,0,0,0,0,0,0,0,0,0,0,0,0,0,0,0,0,0,0,0,0,0,0,0,0,0,0,0,0,0,0,0,0,0,0,0,0,0,0,0,0,0,0,0,0,0,0,0,0,0,0,0,0,0,0,0,0,0,0,0,0,0,0,0,0,0,0,0,0,0,0,0,0,0,0,0,0,0,0,0,0,0,0,0,0,0,0],"id":1,"left_children":[1,3,5,7,9,11,13,15,17,19,21,23,25,27,29,31,33,35,37,39,41,43,45,47,49,51,53,55,57,59,-1,61,63,65,67,69,71,73,75,-1,77,-1,79,81,83,85,87,89,91,93,95,-1,97,99,101,103,105,107,109,111,113,115,-1,117,119,121,123,125,-1,127,129,131,133,135,137,139,141,-1,-1,-1,-1,143,145,147,149,151,-1,153,155,157,159,161,163,165,167,169,171,173,-1,-1,175,177,179,181,-1,-1,-1,183,185,-1,187,189,191,-1,-1,193,195,197,199,-1,201,-1,203,205,207,-1,-1,-1,-1,209,211,213,-1,215,217,219,-1,-1,221,223,-1,-1,225,227,-1,229,231,233,235,237,-1,239,241,243,-1,-1,245,247,249,251,253,-1,255,-1,257,259,261,263,265,267,269,271,273,-1,-1,-1,275,-1,277,279,281,-1,283,285,-1,287,289,-1,-1,291,293,-1,-1,-1,-1,-1,-1,-1,-1,-1,-1,-1,-1,-1,-1,-1,-1,-1,-1,-1,-1,-1,-1,-1,-1,-1,-1,-1,-1,-1,-1,-1,-1,-1,-1,-1,-1,-1,-1,-1,-1,-1,-1,-1,-1,-1,-1,-1,-1,-1,-1,-1,-1,-1,-1,-1,-1,-1,-1,-1,-1,-1,-1,-1,-1,-1,-1,-1,-1,-1,-1,-1,-1,-1,-1,-1,-1,-1,-1,-1,-1,-1,-1,-1,-1,-1,-1,-1,-1,-1,-1,-1,-1,-1,-1,-1,-1,-1,-1,-1,-1,-1,-1,-1,-1],"loss_changes":[1.1139918E2,3.6903805E1,4.5868576E1,1.0389038E1,9.7043E0,2.670353E1,1.6707943E1,1.1455075E1,5.0029793E0,1.323514E0,1.027607E1,2.1425343E1,1.6219734E1,4.212444E0,3.3336868E0,3.3006084E0,1.5043673E1,4.0559177E0,1.3086217E1,1.6468791E0,1.2719858E0,2.4386726E1,7.9228177E0,4.8320985E0,3.1686012E1,6.749804E0,4.3406853E1,4.433835E0,4.9853873E0,6.531019E0,0E0,7.2780857E0,1.799181E0,4.5501122E0,2.5719986E0,5.5429554E0,5.1202974E0,6.1975765E0,2.0806198E0,0E0,1.9470739E0,0E0,1.0419227E0,1.7092445E1,9.300568E0,5.1944404E0,3.4110317E0,1.8837643E0,1.8144708E0,9.897591E0,2.3944756E1,0E0,3.170396E0,2.4353485E0,1.4755744E1,3.5803611E0,1.2487597E0,2.023191E0,1.9313116E0,2.510786E0,1.7962742E0,5.723365E0,0E0,5.327133E0,2.3731618E0,4.475172E0,2.7683105E0,1.0763363E1,0E0,1.0817487E0,1.848505E0,2.002966E0,1.118368E1,1.4511673E0,1.4703121E0,6.3752594E0,8.116295E0,0E0,0E0,0E0,0E0,3.0154686E0,3.546327E0,4.929801E0,1.6810318E1,3.1158648E0,0E0,2.6750717E0,3.8023777E0,2.3737626E0,1.324327E0,2.2542667E0,2.0903616E0,5.4534073E0,1.5860796E1,9.639613E0,1.2175427E1,1.3347816E0,0E0,0E0,4.0981216E0,5.5263124E0,1.0540182E1,2.0434446E0,0E0,0E0,0E0,2.8557305E0,5.4969544E0,0E0,1.0512205E0,2.591177E0,2.3820791E0,0E0,0E0,4.1102343E0,2.1743865E0,1.2195115E0,3.0158072E0,0E0,1.8468919E0,0E0,2.262331E0,1.9084079E0,3.8768911E0,0E0,0E0,0E0,0E0,2.245936E0,1.1004069E0,1.2987375E0,0E0,3.2752476E0,2.7078E0,1.4464958E0,0E0,0E0,1.653615E0,1.5020139E0,0E0,0E0,2.365497E0,3.00663E0,0E0,7.8813396E0,5.3319798E0,1.6850675E0,3.5721874E0,9.066307E0,0E0,5.8964744E0,8.511482E0,2.1979675E0,0E0,0E0,2.801919E0,2.4800858E0,2.1651208E0,2.2089527E0,1.9850284E0,0E0,1.7986212E0,0E0,3.0072174E0,5.8370667E0,6.7872963E0,4.0178623E0,4.1291466E0,3.3096056E0,2.878479E0,1.0693861E1,3.0966263E0,0E0,0E0,0E0,4.820076E0,0E0,1.9433489E0,3.4270566E0,2.7195015E0,0E0,2.474387E0,2.01258E0,0E0,1.0015059E0,1.4626155E0,0E0,0E0,1.2023506E0,2.8954859E0,0E0,0E0,0E0,0E0,0E0,0E0,0E0,0E0,0E0,0E0,0E0,0E0,0E0,0E0,0E0,0E0,0E0,0E0,0E0,0E0,0E0,0E0,0E0,0E0,0E0,0E0,0E0,0E0,0E0,0E0,0E0,0E0,0E0,0E0,0E0,0E0,0E0,0E0,0E0,0E0,0E0,0E0,0E0,0E0,0E0,0E0,0E0,0E0,0E0,0E0,0E0,0E0,0E0,0E0,0E0,0E0,0E0,0E0,0E0,0E0,0E0,0E0,0E0,0E0,0E0,0E0,0E0,0E0,0E0,0E0,0E0,0E0,0E0,0E0,0E0,0E0,0E0,0E0,0E0,0E0,0E0,0E0,0E0,0E0,0E0,0E0,0E0,0E0,0E0,0E0,0E0,0E0,0E0,0E0,0E0,0E0,0E0,0E0,0E0,0E0,0E0,0E0,0E0,0E0],"parents":[2147483647,0,0,1,1,2,2,3,3,4,4,5,5,6,6,7,7,8,8,9,9,10,10,11,11,12,12,13,13,14,14,15,15,16,16,17,17,18,18,19,19,20,20,21,21,22,22,23,23,24,24,25,25,26,26,27,27,28,28,29,29,31,31,32,32,33,33,34,34,35,35,36,36,37,37,38,38,40,40,42,42,43,43,44,44,45,45,46,46,47,47,48,48,49,49,50,50,52,52,53,53,54,54,55,55,56,56,57,57,58,58,59,59,60,60,61,61,63,63,64,64,65,65,66,66,67,67,69,69,70,70,71,71,72,72,73,73,74,74,75,75,76,76,81,81,82,82,83,83,84,84,85,85,87,87,88,88,89,89,90,90,91,91,92,92,93,93,94,94,95,95,96,96,97,97,100,100,101,101,102,102,103,103,107,107,108,108,110,110,111,111,112,112,115,115,116,116,117,117,118,118,120,120,122,122,123,123,124,124,129,129,130,130,131,131,133,133,134,134,135,135,138,138,139,139,142,142,143,143,145,145,146,146,147,147,148,148,149,149,151,151,152,152,153,153,156,156,157,157,158,158,159,159,160,160,162,162,164,164,165,165,166,166,167,167,168,168,169,169,170,170,171,171,172,172,176,176,178,178,179,179,180,180,182,182,183,183,185,185,186,186,189,189,190,190],"right_children":[2,4,6,8,10,12,14,16,18,20,22,24,26,28,30,32,34,36,38,40,42,44,46,48,50,52,54,56,58,60,-1,62,64,66,68,70,72,74,76,-1,78,-1,80,82,84,86,88,90,92,94,96,-1,98,100,102,104,106,108,110,112,114,116,-1,118,120,122,124,126,-1,128,130,132,134,136,138,140,142,-1,-1,-1,-1,144,146,148,150,152,-1,154,156,158,160,162,164,166,168,170,172,174,-1,-1,176,178,180,182,-1,-1,-1,184,186,-1,188,190,192,-1,-1,194,196,198,200,-1,202,-1,204,206,208,-1,-1,-1,-1,210,212,214,-1,216,218,220,-1,-1,222,224,-1,-1,226,228,-1,230,232,234,236,238,-1,240,242,244,-1,-1,246,248,250,252,254,-1,256,-1,258,260,262,264,266,268,270,272,274,-1,-1,-1,276,-1,278,280,282,-1,284,286,-1,288,290,-1,-1,292,294,-1,-1,-1,-1,-1,-1,-1,-1,-1,-1,-1,-1,-1,-1,-1,-1,-1,-1,-1,-1,-1,-1,-1,-1,-1,-1,-1,-1,-1,-1,-1,-1,-1,-1,-1,-1,-1,-1,-1,-1,-1,-1,-1,-1,-1,-1,-1,-1,-1,-1,-1,-1,-1,-1,-1,-1,-1,-1,-1,-1,-1,-1,-1,-1,-1,-1,-1,-1,-1,-1,-1,-1,-1,-1,-1,-1,-1,-1,-1,-1,-1,-1,-1,-1,-1,-1,-1,-1,-1,-1,-1,-1,-1,-1,-1,-1,-1,-1,-1,-1,-1,-1,-1,-1],"split_conditions":[3.787549E1,2.015E3,3E0,2.011E3,3.6671165E1,3.9760242E1,2.019E3,2.009E3,3.7311913E1,2.023E3,3.761018E1,2.01E3,2.012E3,3.8884E1,3.9793846E1,2.007E3,3.7710903E1,3.699198E1,3.7422157E1,3.656134E1,3.65993E1,3.741506E1,3.77308E1,2.007E3,2.019E3,2.007E3,2.017E3,3.886586E1,4.0292072E1,3.948145E1,-9.1305946E-4,3.7497482E1,3.7727062E1,2.01E3,3.780257E1,3.6671165E1,3.7138504E1,3.7393936E1,3.78189E1,4.6639872E-4,3.65993E1,1.9022677E-3,3.6635796E1,3.699198E1,2.017E3,3.772944E1,3.7769535E1,1E0,2E0,3.8814404E1,2.022E3,7.462421E-3,4.011718E1,3.98746E1,2.022E3,3.8852898E1,2.014E3,2.011E3,4.0396618E1,3.9191936E1,2.022E3,3.7122105E1,5.3585507E-3,3.7684002E1,3.7741478E1,3.7065784E1,3.704697E1,3.7751976E1,-1.4663957E-2,3.656134E1,3.6980076E1,3.7132816E1,3.7172016E1,2.014E3,1E0,3.7684002E1,3.7847572E1,1.2578616E-2,2.8086735E-3,-1.1725527E-2,1.7969637E-3,3.6980076E1,3.7325375E1,1E0,3.754639E1,3.7697155E1,8.660341E-3,2.018E3,3.778467E1,3.858578E1,3.918075E1,3.8759583E1,3.7939976E1,3.866413E1,2.011E3,3.9421864E1,2E0,3.98746E1,-1.0756083E-3,9.215573E-3,4.0211903E1,2.019E3,2E0,2.008E3,-1.0451611E-2,1.2669801E-2,3.925847E-3,3.9807137E1,2.014E3,1.3536001E-2,2.01E3,3.8884E1,3.9454395E1,-9.124017E-3,-2.321984E-2,2.006E3,3.7132816E1,3.7082027E1,2E0,-8.098078E-3,3.778467E1,-1.4396767E-4,3.7405296E1,3.6748142E1,3.7236027E1,-1.2381243E-2,7.679072E-3,2.701218E-3,8.327766E-3,3.6934498E1,2.013E3,3.7065784E1,1.5798442E-2,3.716588E1,3.7182194E1,1E0,2.4762432E-4,-2.6702927E-3,3.741525E1,3.7527935E1,1.0145337E-2,-1.7037654E-2,3.7864994E1,2.016E3,-1.4725125E-2,3.731567E1,2E0,3.757249E1,3.7429497E1,2.022E3,-4.255145E-3,3.7684002E1,3.7710903E1,2.016E3,-6.277462E-3,5.6890515E-3,2.022E3,3.8206493E1,3.8941124E1,3.9079975E1,2.006E3,2.4177725E-3,3.8792835E1,4.221621E-3,3.8792835E1,3.7922005E1,3.8716465E1,3.971145E1,1E0,3.9397694E1,3.948145E1,3.844749E1,3.816675E1,-4.3496498E-4,5.2410616E-3,1.8433984E-2,4.0292072E1,4.5680786E-3,4.00452E1,4.019028E1,4.0211903E1,-2.8886413E-3,2.015E3,2.008E3,1.8600066E-4,3.98746E1,3.891881E1,4.399395E-4,7.053616E-3,3.7980503E1,3.898752E1,7.0641134E-3,-9.607558E-3,3.7679353E-3,-1.00385E-3,-1.0621099E-2,-1.645689E-3,-4.090633E-4,-2.5686743E-3,1.1095051E-2,1.1081925E-3,4.625385E-3,-4.267347E-3,-8.017132E-3,-3.280613E-3,-5.3856336E-4,-6.658592E-3,2.96421E-3,-2.2220695E-3,-3.0010361E-3,2.7277942E-3,-9.57489E-5,-1.6866224E-2,3.151687E-3,6.4971168E-3,-8.418853E-4,-7.8073586E-3,8.069028E-3,2.6372059E-3,4.8599085E-3,-4.543019E-3,-1.3475723E-2,-2.1910265E-3,2.581988E-3,-1.2174206E-3,1.1384951E-2,-6.9494866E-4,-1.075794E-2,-5.6342883E-3,-1.3661103E-3,1.1844803E-2,1.8023024E-3,-7.754131E-3,4.687335E-3,-8.184425E-3,-1.2962126E-2,-4.58789E-3,-1.6192257E-2,-5.712909E-3,-6.708754E-4,9.153829E-3,-1.0296087E-2,2.4769935E-3,-6.0446054E-4,-2.12961E-2,-6.350977E-3,-8.603947E-4,3.88244E-4,-1.4217092E-2,3.5634693E-3,-7.4588526E-3,9.329074E-4,-1.119276E-2,-7.6956913E-4,9.267328E-3,-1.5547859E-2,-2.7354567E-3,-9.081117E-3,-3.1934252E-3,1.1281723E-2,4.476885E-3,1.2881923E-2,5.503263E-3,-6.735454E-3,4.923366E-3,-1.3251777E-3,4.3593314E-3,-2.1634188E-3,1.4397593E-2,-1.6114045E-2,-7.0476294E-3,4.2610606E-3,-4.360708E-3,1.7021995E-3,6.0687684E-3,5.490432E-3,1.5293237E-2,2.3556198E-3,-3.8144945E-3,9.002899E-3,-1.4089023E-3,1.917524E-2,1.0215021E-2,2.9037031E-3,-1.5590489E-3,-2.3871644E-3,-7.1316576E-3,2.5806E-3,9.174278E-3,-1.1847297E-2,-2.516746E-3,-1.2047508E-3,-5.5105416E-3,-1.33178895E-2,-5.461813E-3],"split_indices":[1,4,5,4,1,1,4,4,1,4,1,4,4,1,1,4,1,1,1,1,1,1,1,4,4,4,4,1,1,1,0,1,1,4,1,1,1,1,1,0,1,0,1,1,4,1,1,5,5,1,4,0,1,1,4,1,4,4,1,1,4,1,0,1,1,1,1,1,0,1,1,1,1,4,5,1,1,0,0,0,0,1,1,5,1,1,0,4,1,1,1,1,1,1,4,1,5,1,0,0,1,4,5,4,0,0,0,1,4,0,4,1,1,0,0,4,1,1,5,0,1,0,1,1,1,0,0,0,0,1,4,1,0,1,1,5,0,0,1,1,0,0,1,4,0,1,5,1,1,4,0,1,1,4,0,0,4,1,1,1,4,0,1,0,1,1,1,1,5,1,1,1,1,0,0,0,1,0,1,1,1,0,4,4,0,1,1,0,0,1,1,0,0,0,0,0,0,0,0,0,0,0,0,0,0,0,0,0,0,0,0,0,0,0,0,0,0,0,0,0,0,0,0,0,0,0,0,0,0,0,0,0,0,0,0,0,0,0,0,0,0,0,0,0,0,0,0,0,0,0,0,0,0,0,0,0,0,0,0,0,0,0,0,0,0,0,0,0,0,0,0,0,0,0,0,0,0,0,0,0,0,0,0,0,0,0,0,0,0,0,0,0,0,0,0],"split_type":[0,0,0,0,0,0,0,0,0,0,0,0,0,0,0,0,0,0,0,0,0,0,0,0,0,0,0,0,0,0,0,0,0,0,0,0,0,0,0,0,0,0,0,0,0,0,0,0,0,0,0,0,0,0,0,0,0,0,0,0,0,0,0,0,0,0,0,0,0,0,0,0,0,0,0,0,0,0,0,0,0,0,0,0,0,0,0,0,0,0,0,0,0,0,0,0,0,0,0,0,0,0,0,0,0,0,0,0,0,0,0,0,0,0,0,0,0,0,0,0,0,0,0,0,0,0,0,0,0,0,0,0,0,0,0,0,0,0,0,0,0,0,0,0,0,0,0,0,0,0,0,0,0,0,0,0,0,0,0,0,0,0,0,0,0,0,0,0,0,0,0,0,0,0,0,0,0,0,0,0,0,0,0,0,0,0,0,0,0,0,0,0,0,0,0,0,0,0,0,0,0,0,0,0,0,0,0,0,0,0,0,0,0,0,0,0,0,0,0,0,0,0,0,0,0,0,0,0,0,0,0,0,0,0,0,0,0,0,0,0,0,0,0,0,0,0,0,0,0,0,0,0,0,0,0,0,0,0,0,0,0,0,0,0,0,0,0,0,0,0,0,0,0,0,0,0,0,0,0,0,0,0,0,0,0,0,0,0,0,0,0,0,0,0,0],"sum_hessian":[2.4548E4,1.2359E4,1.2189E4,7.464E3,4.895E3,9.589E3,2.6E3,4.661E3,2.803E3,2.56E2,4.639E3,7.686E3,1.903E3,1.916E3,6.84E2,3.187E3,1.474E3,1.751E3,1.052E3,2.08E2,4.8E1,3.506E3,1.133E3,1.155E3,6.531E3,6.95E2,1.208E3,8.22E2,1.094E3,5.65E2,1.19E2,1.83E3,1.357E3,1.243E3,2.31E2,5.2E2,1.231E3,4.61E2,5.91E2,1.22E2,8.6E1,2.5E1,2.3E1,2.48E3,1.026E3,5.88E2,5.45E2,5.97E2,5.58E2,4.051E3,2.48E3,1.84E2,5.11E2,5.28E2,6.8E2,7.59E2,6.3E1,9.85E2,1.09E2,5.26E2,3.9E1,1.604E3,2.26E2,1.185E3,1.72E2,5.41E2,7.02E2,1.4E2,9.1E1,1.33E2,3.87E2,4.4E2,7.91E2,3.42E2,1.19E2,5.04E2,8.7E1,2.6E1,6E1,1.6E1,7E0,9.31E2,1.549E3,3.19E2,7.07E2,5.25E2,6.3E1,1.66E2,3.79E2,1.17E2,4.8E2,2E2,3.58E2,1.564E3,2.487E3,1.104E3,1.376E3,1.94E2,3.17E2,6.8E1,4.6E2,4.3E2,2.5E2,7.36E2,2.3E1,3.7E1,2.6E1,4.68E2,5.17E2,1.8E1,9.1E1,4.91E2,3.5E1,1.5E1,2.4E1,6.64E2,9.4E2,1.07E3,1.15E2,8.3E1,8.9E1,1.55E2,3.86E2,1.85E2,5.17E2,1.1E2,3E1,8.4E1,4.9E1,3.71E2,1.6E1,4.25E2,1.5E1,2.44E2,5.47E2,2.3E2,1.12E2,1.9E1,1E2,4.16E2,8.8E1,2.3E1,6.4E1,8.91E2,4E1,1.302E3,2.47E2,6.5E1,2.54E2,4.76E2,2.31E2,3.38E2,1.87E2,2.6E1,1.4E2,4.1E1,3.38E2,4.3E1,7.4E1,4.09E2,7.1E1,8.6E1,1.14E2,2.1E1,3.37E2,1.111E3,4.53E2,1.94E2,2.293E3,9.63E2,1.41E2,5.28E2,8.48E2,5E1,1.44E2,2.3E2,2.3E2,1.49E2,2.81E2,1.19E2,1.31E2,9E1,6.46E2,3.25E2,1.43E2,1.9E2,3.27E2,5.7E1,3.4E1,3.17E2,1.74E2,2.5E1,1E1,3.83E2,2.81E2,2.4E1,9.16E2,3.5E2,7.2E2,4.3E1,7.2E1,3.2E1,5.7E1,2.35E2,1.51E2,8.3E1,1.02E2,2.55E2,2.62E2,2.94E2,7.7E1,5E0,1.1E1,2.04E2,2.21E2,1.32E2,1.12E2,1.01E2,4.46E2,1.5E1,2.15E2,8.6E1,1.4E1,2.75E2,1.41E2,2.1E1,4.3E1,1.2E2,7.71E2,1.261E3,4.1E1,7.5E1,1.72E2,5.5E1,1E1,6E1,1.94E2,3.82E2,9.4E1,2.7E2,6.8E1,8.7E1,1E2,6E0,2E1,1.86E2,1.52E2,1.7E1,2.6E1,5.2E1,2.2E1,3.96E2,1.3E1,3.1E1,4E1,1E1,1.04E2,1.24E2,2.13E2,1.28E2,9.83E2,2.25E2,2.28E2,1.63E2,3.1E1,1.21E2,2.172E3,9.53E2,1E1,5E1,9.1E1,2.24E2,3.04E2,1.89E2,6.59E2,6.4E1,1.66E2,5.7E1,2.24E2,4.5E1,7.4E1,6.7E1,6.4E1,5.03E2,1.43E2,1.54E2,1.71E2,1.67E2,2.3E1,1.5E1,3.12E2,7.8E1,2.39E2,7.8E1,9.6E1],"tree_param":{"num_deleted":"0","num_feature":"6","num_nodes":"295","size_leaf_vector":"1"}},{"base_weights":[-1.2828511E-3,-1.2160568E-1,5.2219175E-2,-2.6276946E-1,-5.2706506E-2,-1.0975487E-2,9.689575E-2,-2.213846E-1,-4.8352233E-1,-3.4950003E-2,-3.6690727E-1,-1.3240217E-1,1.8521596E-2,1.2839521E-1,-2.0096993E-2,-7.1613096E-2,-2.821308E-1,-9.9146307E-1,-3.9026943E-1,-4.0877968E-2,3.1649658E-1,-5.628046E-1,-1.964993E-1,-5.5639822E-2,-3.23972E-1,-3.5880115E-2,5.7936534E-2,1.7285421E-1,5.037163E-2,8.366232E-3,-3.9647162E-2,-1.7008588E-1,1.662074E-2,-3.2954864E-2,-3.232766E-1,-1.1369886E0,-4.5040785E-3,-4.357335E-3,-4.471145E-1,-2.2667283E-2,-1.9975424E-1,8.228538E-2,1.5793284E-2,-5.2337144E-3,-6.0215294E-1,8.310606E-3,-7.105068E-3,2.7439845E-1,-7.887202E-2,-8.9570534E-1,-1.4434773E-1,7.4351095E-2,-1.20653026E-1,1.4409645E-1,-2.8415851E-2,4.2652565E-1,1.6269885E-1,3.095423E-1,-4.565329E-3,-7.570294E-2,1.6099192E-1,-2.1352537E-1,1.3073247E-4,1.2645036E-1,-6.4798663E-3,-2.390537E-3,5.493449E-3,-3.8736287E-1,-2.3481089E-1,-9.6783006E-1,-5.775712E-2,-3.3155788E-2,-4.0112853E-1,-2.90009E-3,-1.0806585E-1,3.6254253E-2,-3.773155E-1,1.1950883E-2,-1.6834539E-3,-1.9582422E-2,-8.88156E-3,1.4116037E-2,-5.7130344E-3,-1.4463717E-1,-2.2720823E-2,-2.2854706E-2,-3.763354E-2,-2.1207716E-1,1.6937906E-1,-8.092043E-2,1.304936E-1,3.1006034E-2,-2.2683434E-1,5.1847573E-2,1.9760771E-1,-4.4030917E-1,-8.8444573E-4,2.5643064E-2,3.22221E-1,1.7683566E-1,8.587933E-2,-3.7855597E-3,3.3768305E-1,-1.5677398E-1,5.3306952E-2,-1.1406702E-1,-1.897519E-2,6.52007E-2,2.2608703E-1,-1.8620819E-1,-2.0759813E-2,2.3016433E-1,1.9035114E-3,-2.0624775E-1,-4.2006826E-1,-2.5354457E-1,1.30956685E-2,-3.797916E-2,-2.07181E-2,-6.753088E-2,-4.597759E-1,-5.9038863E-2,4.5888744E-2,-6.39134E-2,-3.9928383E-1,-7.143667E-2,3.410457E-1,-5.6258243E-1,-7.59769E-2,-5.9394725E-2,-1.9060709E-1,1.6908927E-1,-9.598141E-2,-5.0861277E-3,-1.6619766E-2,9.384899E-4,9.849574E-3,5.444775E-3,-7.170474E-1,8.770697E-2,5.158337E-3,-3.2727456E-1,6.8620846E-2,-3.3764416E-1,-4.7480214E-2,1.4286286E-1,-1.5604594E-1,8.7721266E-2,2.1685664E-1,-1.4359528E-2,-4.141403E-3,-6.893335E-2,6.1989773E-2,3.127009E-3,1.2632186E-2,1.4704385E-1,2.736688E-1,3.427831E-2,4.3290192E-1,2.2528577E-1,4.6279272E-1,-6.133256E-2,-3.661609E-1,1.8057887E-2,4.1462623E-2,-5.9447E-2,-2.216768E-1,-5.989402E-2,1.7878647E-1,7.614196E-3,-3.9700538E-4,1.0981573E-2,1.052379E-1,-6.083127E-3,6.628346E-3,2.7976767E-3,9.903997E-3,-7.1212323E-3,9.237088E-3,-1.1254939E-2,-1.4051868E-2,-5.8854506E-3,-1.1869317E-2,-6.879208E-3,5.3806165E-3,-1.1670703E-2,-1.684143E-2,3.079153E-3,-3.2205165E-3,4.1402043E-3,-1.8588165E-3,-2.8335978E-3,7.826232E-3,-8.194809E-3,-1.55362105E-2,-6.509979E-3,-5.811594E-4,1.761624E-2,3.002997E-3,-2.1137834E-2,-1.5008404E-2,-7.3197098E-3,6.0264976E-4,2.5426352E-4,-6.2493547E-3,-6.283579E-3,2.7030539E-3,1.9182464E-3,1.1997161E-2,-5.3988807E-3,-4.8493835E-5,3.491415E-3,-2.5052093E-3,-2.9010063E-2,-1.51868E-2,3.2150424E-3,-5.7177683E-3,1.0184961E-3,-1.8821688E-2,2.2469468E-3,-1.394655E-2,-8.694717E-3,-1.4893498E-2,-1.0379355E-2,5.416505E-3,8.794228E-4,6.0103084E-3,2.234687E-3,-1.1696908E-2,6.04546E-3,-1.37941E-3,7.582431E-3,5.0045033E-3,-4.9056723E-3,1.0055191E-4,8.958775E-3,1.1898072E-3,7.355496E-3,3.7060506E-3,1.23645E-2,6.370749E-3,2.7979007E-3,-9.95028E-3,9.428419E-3,1.7422691E-2,2.377533E-3,1.5183432E-2,1.6020156E-2,8.017548E-3,-4.76503E-3,1.8625648E-3,-2.7763044E-2,-9.6907215E-3,-1.0564881E-3,3.40153E-3,3.100141E-4,-3.6300349E-3,-1.1096377E-2,-3.2524958E-3,8.1099354E-4,-6.634592E-3,6.009105E-4,9.436355E-3,-1.8958814E-3,8.522072E-3,-8.856638E-3,9.116189E-3],"categories":[],"categories_nodes":[],"categories_segments":[],"categories_sizes":[],"default_left":[0,0,0,0,0,0,0,0,0,0,0,0,0,0,0,0,0,0,0,0,0,0,0,0,0,0,0,0,0,0,0,0,0,0,0,0,0,0,0,0,0,0,0,0,0,0,0,0,0,0,0,0,0,0,0,0,0,0,0,0,0,0,0,0,0,0,0,0,0,0,0,0,0,0,0,0,0,0,0,0,0,0,0,0,0,0,0,0,0,0,0,0,0,0,0,0,0,0,0,0,0,0,0,0,0,0,0,0,0,0,0,0,0,0,0,0,0,0,0,0,0,0,0,0,0,0,0,0,0,0,0,0,0,0,0,0,0,0,0,0,0,0,0,0,0,0,0,0,0,0,0,0,0,0,0,0,0,0,0,0,0,0,0,0,0,0,0,0,0,0,0,0,0,0,0,0,0,0,0,0,0,0,0,0,0,0,0,0,0,0,0,0,0,0,0,0,0,0,0,0,0,0,0,0,0,0,0,0,0,0,0,0,0,0,0,0,0,0,0,0,0,0,0,0,0,0,0,0,0,0,0,0,0,0,0,0,0,0,0,0,0,0,0,0,0,0,0,0,0,0,0,0,0,0,0,0,0,0,0,0,0,0,0,0,0,0,0],"id":2,"left_children":[1,3,5,7,9,11,13,15,17,19,21,23,25,27,29,31,33,35,37,39,41,43,45,47,49,51,53,55,57,-1,59,61,63,65,67,69,-1,-1,71,73,75,77,-1,-1,79,-1,-1,81,83,85,87,89,91,93,95,97,99,101,103,105,107,109,-1,111,-1,-1,-1,113,115,117,-1,-1,119,121,123,125,127,-1,-1,-1,-1,-1,-1,129,131,-1,-1,133,135,137,139,141,143,145,147,149,151,-1,153,155,157,-1,159,161,163,165,167,169,171,173,-1,175,-1,177,179,181,-1,-1,-1,183,185,187,189,191,193,195,197,199,201,203,205,207,209,-1,-1,-1,-1,211,213,215,-1,217,219,221,223,225,227,229,231,-1,-1,233,235,-1,-1,237,239,241,243,245,247,249,251,-1,253,255,257,259,261,-1,263,-1,265,-1,-1,-1,-1,-1,-1,-1,-1,-1,-1,-1,-1,-1,-1,-1,-1,-1,-1,-1,-1,-1,-1,-1,-1,-1,-1,-1,-1,-1,-1,-1,-1,-1,-1,-1,-1,-1,-1,-1,-1,-1,-1,-1,-1,-1,-1,-1,-1,-1,-1,-1,-1,-1,-1,-1,-1,-1,-1,-1,-1,-1,-1,-1,-1,-1,-1,-1,-1,-1,-1,-1,-1,-1,-1,-1,-1,-1,-1,-1,-1,-1,-1,-1,-1,-1,-1,-1,-1,-1,-1,-1,-1,-1,-1],"loss_changes":[1.5828552E2,7.359303E1,4.8053993E1,2.2568085E1,2.8368092E1,2.525367E1,3.6747795E1,1.9012917E1,1.8133537E1,1.0046417E1,8.96944E0,2.0245945E1,1.2166352E1,2.7242584E1,1.2378951E1,5.259449E0,1.524514E1,7.1753845E0,4.559311E0,1.3700776E1,3.8904219E0,1.8203392E0,2.873311E0,7.574142E0,4.0333397E1,2.2286545E1,2.4482073E1,1.2821533E1,4.0622562E1,0E0,1.4386543E1,2.1681652E0,8.202723E0,2.1551304E0,7.1489105E0,4.936989E0,0E0,0E0,7.6972504E0,7.175757E0,2.042188E1,1.72842E0,0E0,0E0,1.5722694E0,0E0,0E0,6.0156894E0,3.3977752E0,3.559105E0,6.431731E0,9.050434E0,2.1714357E1,8.11993E0,1.8642572E1,8.300785E0,5.211647E0,6.1612053E0,2.0752758E1,3.6649141E0,1.8746271E0,2.8642683E0,0E0,1.4098029E0,0E0,0E0,0E0,4.2907715E0,6.8894386E0,2.7624435E0,0E0,0E0,4.9188004E0,9.460287E0,1.0248014E1,6.91725E0,1.5477463E1,0E0,0E0,0E0,0E0,0E0,0E0,1.6501598E0,7.0141854E0,0E0,0E0,3.513215E0,1.1749756E0,1.5167133E1,1.3363609E0,7.515479E0,1.5744213E1,1.1488715E1,2.1850128E0,1.1276188E0,6.6017537E0,0E0,3.317669E0,1.1683723E1,1.34152E1,0E0,6.4908104E0,1.2947278E1,1.1067244E1,5.893858E0,5.5214796E0,1.5342423E0,3.0061245E0,1.5148969E0,0E0,1.0915136E0,0E0,1.9135256E0,1.1805801E0,4.2017746E0,0E0,0E0,0E0,1.5987889E0,1.3272057E0,1.2555328E1,1.8368187E1,6.9183283E0,1.429018E0,1.1780694E0,3.2033682E0,1.1693077E0,1.7319081E0,1.5178199E0,1.4736528E0,3.3236601E0,2.860594E0,0E0,0E0,0E0,0E0,2.4174929E0,1.2494335E0,2.062263E0,0E0,5.7669716E0,1.7227254E0,3.5772438E0,2.0754738E1,2.7484655E0,1.0002571E1,2.3979342E0,1.5490761E0,0E0,0E0,5.0670447E0,4.225902E0,0E0,0E0,7.1449203E0,8.020767E0,1.4148067E1,1.5187321E0,1.0171558E1,2.9347038E0,5.388827E0,4.5984974E0,0E0,9.224868E0,2.8705099E0,5.633381E0,7.9260283E0,2.515345E0,0E0,1.6793224E0,0E0,7.8851438E0,0E0,0E0,0E0,0E0,0E0,0E0,0E0,0E0,0E0,0E0,0E0,0E0,0E0,0E0,0E0,0E0,0E0,0E0,0E0,0E0,0E0,0E0,0E0,0E0,0E0,0E0,0E0,0E0,0E0,0E0,0E0,0E0,0E0,0E0,0E0,0E0,0E0,0E0,0E0,0E0,0E0,0E0,0E0,0E0,0E0,0E0,0E0,0E0,0E0,0E0,0E0,0E0,0E0,0E0,0E0,0E0,0E0,0E0,0E0,0E0,0E0,0E0,0E0,0E0,0E0,0E0,0E0,0E0,0E0,0E0,0E0,0E0,0E0,0E0,0E0,0E0,0E0,0E0,0E0,0E0,0E0,0E0,0E0,0E0,0E0,0E0,0E0,0E0,0E0,0E0,0E0,0E0,0E0,0E0],"parents":[2147483647,0,0,1,1,2,2,3,3,4,4,5,5,6,6,7,7,8,8,9,9,10,10,11,11,12,12,13,13,14,14,15,15,16,16,17,17,18,18,19,19,20,20,21,21,22,22,23,23,24,24,25,25,26,26,27,27,28,28,30,30,31,31,32,32,33,33,34,34,35,35,38,38,39,39,40,40,41,41,44,44,47,47,48,48,49,49,50,50,51,51,52,52,53,53,54,54,55,55,56,56,57,57,58,58,59,59,60,60,61,61,63,63,67,67,68,68,69,69,72,72,73,73,74,74,75,75,76,76,83,83,84,84,87,87,88,88,89,89,90,90,91,91,92,92,93,93,94,94,95,95,96,96,98,98,99,99,100,100,102,102,103,103,104,104,105,105,106,106,107,107,108,108,109,109,111,111,113,113,114,114,115,115,119,119,120,120,121,121,122,122,123,123,124,124,125,125,126,126,127,127,128,128,129,129,130,130,131,131,132,132,137,137,138,138,139,139,141,141,142,142,143,143,144,144,145,145,146,146,147,147,148,148,151,151,152,152,155,155,156,156,157,157,158,158,159,159,160,160,161,161,162,162,164,164,165,165,166,166,167,167,168,168,170,170,172,172],"right_children":[2,4,6,8,10,12,14,16,18,20,22,24,26,28,30,32,34,36,38,40,42,44,46,48,50,52,54,56,58,-1,60,62,64,66,68,70,-1,-1,72,74,76,78,-1,-1,80,-1,-1,82,84,86,88,90,92,94,96,98,100,102,104,106,108,110,-1,112,-1,-1,-1,114,116,118,-1,-1,120,122,124,126,128,-1,-1,-1,-1,-1,-1,130,132,-1,-1,134,136,138,140,142,144,146,148,150,152,-1,154,156,158,-1,160,162,164,166,168,170,172,174,-1,176,-1,178,180,182,-1,-1,-1,184,186,188,190,192,194,196,198,200,202,204,206,208,210,-1,-1,-1,-1,212,214,216,-1,218,220,222,224,226,228,230,232,-1,-1,234,236,-1,-1,238,240,242,244,246,248,250,252,-1,254,256,258,260,262,-1,264,-1,266,-1,-1,-1,-1,-1,-1,-1,-1,-1,-1,-1,-1,-1,-1,-1,-1,-1,-1,-1,-1,-1,-1,-1,-1,-1,-1,-1,-1,-1,-1,-1,-1,-1,-1,-1,-1,-1,-1,-1,-1,-1,-1,-1,-1,-1,-1,-1,-1,-1,-1,-1,-1,-1,-1,-1,-1,-1,-1,-1,-1,-1,-1,-1,-1,-1,-1,-1,-1,-1,-1,-1,-1,-1,-1,-1,-1,-1,-1,-1,-1,-1,-1,-1,-1,-1,-1,-1,-1,-1,-1,-1,-1,-1,-1],"split_conditions":[5E0,-9.392856E1,3.787549E1,3.7497482E1,3.9274143E1,1.3E1,3E0,-9.444286E1,3.7527935E1,3.904916E1,3.94602E1,-9.040664E1,-9.140456E1,1E1,-9.460767E1,3.6980076E1,1E0,-9.451224E1,-9.4563545E1,3.8943466E1,-9.22585E1,-9.263129E1,-9.263129E1,3.7138504E1,3.7489E1,3.715051E1,-9.099364E1,3.7922005E1,-9.4399155E1,8.366232E-3,-9.0473175E1,-9.4563545E1,3.7170296E1,3.7429497E1,-9.42741E1,-9.455048E1,-4.5040785E-3,-4.357335E-3,-9.452977E1,-8.9896645E1,-9.2160255E1,3.9111397E1,1.5793284E-2,-5.2337144E-3,-9.2492546E1,8.310606E-3,-7.105068E-3,-9.0749E1,3.765218E1,3.7434402E1,-9.0205E1,-9.368862E1,-9.157489E1,3.7172016E1,-9.098985E1,-9.3308525E1,4.011718E1,3.799434E1,-9.341675E1,-9.186902E1,3.8672894E1,-9.456687E1,1.3073247E-4,2E0,-6.4798663E-3,-2.390537E-3,5.493449E-3,3.6962563E1,3.7479168E1,3.7506702E1,-5.775712E-2,-3.3155788E-2,3.7587925E1,3.725486E1,3.778467E1,3.898752E1,-9.21225E1,1.1950883E-2,-1.6834539E-3,-1.9582422E-2,-8.88156E-3,1.4116037E-2,-5.7130344E-3,3.7405296E1,3.77308E1,-2.2854706E-2,-3.763354E-2,3.778467E1,3.757249E1,3.710846E1,-9.156255E1,-9.4125916E1,-9.143732E1,3.7154243E1,-9.132741E1,3E0,3.6934498E1,2.5643064E-2,3.7893303E1,3.937685E1,6E0,-3.7855597E-3,2.4E1,-9.378033E1,-9.340412E1,9E0,3.918075E1,3.84705E1,-9.031739E1,-9.45965E1,-2.0759813E-2,-9.4538536E1,1.9035114E-3,-9.430847E1,-9.431197E1,-9.40213E1,1.30956685E-2,-3.797916E-2,-2.07181E-2,-9.4125916E1,3.7741478E1,3.7003498E1,3.8770973E1,3.7751976E1,2E0,-9.232475E1,3.8995132E1,3.8977604E1,3.8968197E1,-9.0749E1,-9.055842E1,3.7710903E1,3.7847572E1,-5.0861277E-3,-1.6619766E-2,9.384899E-4,9.849574E-3,3.6889515E1,-9.396845E1,3.7058056E1,5.158337E-3,-9.4155685E1,1.45E2,3.7388493E1,3.7286827E1,-9.132741E1,-9.129184E1,-9.1361534E1,-9.12045E1,-1.4359528E-2,-4.141403E-3,-9.058924E1,-9.095917E1,3.127009E-3,1.2632186E-2,3.834852E1,-9.35409E1,-9.260392E1,-9.1844505E1,4.0349293E1,-9.449806E1,3.826796E1,3.8206493E1,1.8057887E-2,-9.186902E1,-9.35409E1,4.1E1,3.88234E1,-9.1638725E1,7.614196E-3,-9.027955E1,1.0981573E-2,3.88234E1,-6.083127E-3,6.628346E-3,2.7976767E-3,9.903997E-3,-7.1212323E-3,9.237088E-3,-1.1254939E-2,-1.4051868E-2,-5.8854506E-3,-1.1869317E-2,-6.879208E-3,5.3806165E-3,-1.1670703E-2,-1.684143E-2,3.079153E-3,-3.2205165E-3,4.1402043E-3,-1.8588165E-3,-2.8335978E-3,7.826232E-3,-8.194809E-3,-1.55362105E-2,-6.509979E-3,-5.811594E-4,1.761624E-2,3.002997E-3,-2.1137834E-2,-1.5008404E-2,-7.3197098E-3,6.0264976E-4,2.5426352E-4,-6.2493547E-3,-6.283579E-3,2.7030539E-3,1.9182464E-3,1.1997161E-2,-5.3988807E-3,-4.8493835E-5,3.491415E-3,-2.5052093E-3,-2.9010063E-2,-1.51868E-2,3.2150424E-3,-5.7177683E-3,1.0184961E-3,-1.8821688E-2,2.2469468E-3,-1.394655E-2,-8.694717E-3,-1.4893498E-2,-1.0379355E-2,5.416505E-3,8.794228E-4,6.0103084E-3,2.234687E-3,-1.1696908E-2,6.04546E-3,-1.37941E-3,7.582431E-3,5.0045033E-3,-4.9056723E-3,1.0055191E-4,8.958775E-3,1.1898072E-3,7.355496E-3,3.7060506E-3,1.23645E-2,6.370749E-3,2.7979007E-3,-9.95028E-3,9.428419E-3,1.7422691E-2,2.377533E-3,1.5183432E-2,1.6020156E-2,8.017548E-3,-4.76503E-3,1.8625648E-3,-2.7763044E-2,-9.6907215E-3,-1.0564881E-3,3.40153E-3,3.100141E-4,-3.6300349E-3,-1.1096377E-2,-3.2524958E-3,8.1099354E-4,-6.634592E-3,6.009105E-4,9.436355E-3,-1.8958814E-3,8.522072E-3,-8.856638E-3,9.116189E-3],"split_indices":[3,2,1,1,1,3,5,2,1,1,1,2,2,3,2,1,5,2,2,1,2,2,2,1,1,1,2,1,2,0,2,2,1,1,2,2,0,0,2,2,2,1,0,0,2,0,0,2,1,1,2,2,2,1,2,2,1,1,2,2,1,2,0,5,0,0,0,1,1,1,0,0,1,1,1,1,2,0,0,0,0,0,0,1,1,0,0,1,1,1,2,2,2,1,2,5,1,0,1,1,3,0,3,2,2,3,1,1,2,2,0,2,0,2,2,2,0,0,0,2,1,1,1,1,5,2,1,1,1,2,2,1,1,0,0,0,0,1,2,1,0,2,3,1,1,2,2,2,2,0,0,2,2,0,0,1,2,2,2,1,2,1,1,0,2,2,3,1,2,0,2,0,1,0,0,0,0,0,0,0,0,0,0,0,0,0,0,0,0,0,0,0,0,0,0,0,0,0,0,0,0,0,0,0,0,0,0,0,0,0,0,0,0,0,0,0,0,0,0,0,0,0,0,0,0,0,0,0,0,0,0,0,0,0,0,0,0,0,0,0,0,0,0,0,0,0,0,0,0,0,0,0,0,0,0,0,0,0,0,0,0,0,0,0,0,0,0],"split_type":[0,0,0,0,0,0,0,0,0,0,0,0,0,0,0,0,0,0,0,0,0,0,0,0,0,0,0,0,0,0,0,0,0,0,0,0,0,0,0,0,0,0,0,0,0,0,0,0,0,0,0,0,0,0,0,0,0,0,0,0,0,0,0,0,0,0,0,0,0,0,0,0,0,0,0,0,0,0,0,0,0,0,0,0,0,0,0,0,0,0,0,0,0,0,0,0,0,0,0,0,0,0,0,0,0,0,0,0,0,0,0,0,0,0,0,0,0,0,0,0,0,0,0,0,0,0,0,0,0,0,0,0,0,0,0,0,0,0,0,0,0,0,0,0,0,0,0,0,0,0,0,0,0,0,0,0,0,0,0,0,0,0,0,0,0,0,0,0,0,0,0,0,0,0,0,0,0,0,0,0,0,0,0,0,0,0,0,0,0,0,0,0,0,0,0,0,0,0,0,0,0,0,0,0,0,0,0,0,0,0,0,0,0,0,0,0,0,0,0,0,0,0,0,0,0,0,0,0,0,0,0,0,0,0,0,0,0,0,0,0,0,0,0,0,0,0,0,0,0,0,0,0,0,0,0,0,0,0,0,0,0,0,0,0,0,0,0],"sum_hessian":[2.4586E4,7.567E3,1.7019E4,2.481E3,5.086E3,7.049E3,9.97E3,2.091E3,3.9E2,4.815E3,2.71E2,1.377E3,5.672E3,7.855E3,2.115E3,6.04E2,1.487E3,5.9E1,3.31E2,4.736E3,7.9E1,1.25E2,1.46E2,9.84E2,3.93E2,2.383E3,3.289E3,5.003E3,2.852E3,1.29E2,1.986E3,2.85E2,3.19E2,2.11E2,1.276E3,5E1,9E0,6.3E1,2.68E2,4.25E3,4.86E2,3.8E1,4.1E1,1.2E1,1.13E2,1.1E1,1.35E2,6.4E1,9.2E2,9.3E1,3E2,1.036E3,1.347E3,1.646E3,1.643E3,1.91E2,4.812E3,4.98E2,2.354E3,1.684E3,3.02E2,2.28E2,5.7E1,2.17E2,1.02E2,1.74E2,3.7E1,7.38E2,5.38E2,4.3E1,7E0,1.6E1,2.52E2,3.452E3,7.98E2,2.09E2,2.77E2,1.1E1,2.7E1,9.6E1,1.7E1,4.5E1,1.9E1,4.23E2,4.97E2,7E1,2.3E1,2.47E2,5.3E1,2.75E2,7.61E2,5.55E2,7.92E2,6.05E2,1.041E3,1.02E2,1.541E3,3.6E1,1.55E2,4.063E3,7.49E2,3E1,4.68E2,6.48E2,1.706E3,1.004E3,6.8E2,1.23E2,1.79E2,2.17E2,1.1E1,8.1E1,1.36E2,1.14E2,6.24E2,5.24E2,1.4E1,1.9E1,2.4E1,3.8E1,2.14E2,1.605E3,1.847E3,6.94E2,1.04E2,1.55E2,5.4E1,1.71E2,1.06E2,1.49E2,2.74E2,1.37E2,3.6E2,2.21E2,2.6E1,2.9E1,2.4E1,2.43E2,3.2E1,3.76E2,3.85E2,5.2E1,5.03E2,4.89E2,3.03E2,4.21E2,1.84E2,1.56E2,8.85E2,9E1,1.2E1,7.4E2,8.01E2,4.9E1,1.06E2,3.109E3,9.54E2,6.53E2,9.6E1,2.48E2,2.2E2,4.46E2,2.02E2,3.5E1,1.671E3,6.67E2,3.37E2,5.64E2,1.16E2,3.1E1,9.2E1,8.2E1,9.7E1,2.09E2,8E0,3.5E1,4.6E1,1.08E2,6E0,3.28E2,2.96E2,3.75E2,1.49E2,2.3E1,1.5E1,1.29E2,8.5E1,3.69E2,1.236E3,9.96E2,8.51E2,6.35E2,5.9E1,5.2E1,5.2E1,4E1,1.15E2,2.6E1,2.8E1,4.9E1,1.22E2,3.8E1,6.8E1,1.03E2,4.6E1,2.57E2,1.7E1,9.5E1,4.2E1,1.9E2,1.7E2,1.08E2,1.35E2,1.3E1,1.9E1,3.52E2,2.4E1,2.4E1,2.8E1,4.98E2,5E0,3.78E2,1.11E2,1.31E2,1.72E2,1.42E2,2.79E2,9.3E1,9.1E1,8.4E1,7.2E1,5.13E2,3.72E2,3.2E2,4.2E2,6.8E1,7.33E2,5.99E2,2.51E3,2.91E2,6.63E2,5.63E2,9E1,5.5E1,4.1E1,1.64E2,8.4E1,1.6E2,6E1,2.49E2,1.97E2,1.3E1,1.89E2,8.09E2,8.62E2,3.13E2,3.54E2,1.45E2,1.92E2,3.67E2,1.97E2,5.4E1,6.2E1,7.6E1,1.6E1,3.2E1,6.5E1],"tree_param":{"num_deleted":"0","num_feature":"6","num_nodes":"267","size_leaf_vector":"1"}},{"base_weights":[-6.1090116E-4,-6.24115E-2,5.9930027E-2,-1.8618759E-2,-1.2954621E-1,8.9883484E-2,-5.020655E-2,-1.1537196E-2,-2.6548928E-1,1.8698099E-3,-1.4010279E-1,6.484374E-2,1.9211389E-1,-3.4314138E-3,-1.7825933E-1,-2.4858974E-2,9.405844E-2,3.7587114E-2,-4.9635583E-1,-1.0439225E-1,-1.7478144E-1,-5.4217417E-2,8.580717E-2,7.431114E-2,2.5956142E-1,5.0701823E-2,-4.615982E-2,-2.0297688E-1,-5.1904023E-2,1.9575622E-2,-5.073993E-2,1.2980041E-1,7.732489E-4,8.268632E-3,-4.0136385E-3,-5.875226E-1,-2.7491045E-1,-2.0615797E-1,-3.413075E-2,-2.8481638E-1,-9.284818E-2,4.1783582E-3,-7.7709116E-2,1.3737942E-1,4.8734904E-3,6.441148E-3,2.4855522E-2,4.551089E-1,1.1225065E-1,3.3275068E-2,2.9623273E-1,-6.660863E-2,1.5083516E-1,-1.7251714E-1,-6.00648E-1,1.3170363E-3,-4.2643994E-3,1.1438808E-1,6.9989014E-4,-8.819907E-2,5.2600857E-3,-1.9806752E-3,1.6250446E-1,-5.0045986E-2,8.587051E-3,-1.3127353E-2,-2.1212248E-2,4.18654E-3,-1.6350063E-2,-1.9436847E-1,-1.402488E-2,-5.0093293E-2,4.040371E-1,-2.3251724E-1,-4.7746497E-1,-4.772677E-2,-1.7999749E-1,-2.465611E-2,-1.3277066E-1,1.9989595E-1,1.01220235E-1,-1.4373656E-1,6.070752E-2,1.2498936E-1,-2.8818637E-2,2.638851E-1,4.9610692E-1,9.168968E-3,2.7539778E-1,4.958794E-2,-1.0510325E-2,1.2231092E-2,3.4117287E-3,-1.04887895E-1,-3.1667545E-2,2.720065E-1,5.213313E-2,-1.9101971E-1,1.1662588E-1,-6.90441E-3,-2.3330366E-2,1.1499964E-2,2.2487691E-1,-3.3145413E-2,5.5941753E-2,-6.334629E-2,-3.9843553E-1,-4.0572416E-2,9.160535E-2,1.9956624E-2,1.5399992E-1,3.0489229E-3,-6.5242993E-3,-3.3135897E-1,-1.7215137E-1,-3.6382772E-2,-2.3003961E-1,1.4507902E-2,-1.3279706E-3,5.689875E-4,-2.695825E-1,-3.1605153E-4,-6.120366E-1,-8.301569E-2,3.5546068E-3,-2.3487422E-1,-5.0359245E-2,-1.337691E-1,2.8461406E-2,-1.7007321E-1,-2.1842754E-2,1.6369104E-1,3.2644722E-1,-1.3621148E-1,1.2550586E-1,-8.989778E-2,-3.38231E-1,1.7028278E-1,3.601298E-4,6.720557E-4,6.266613E-3,-1.3895308E-3,5.8056666E-3,1.0628838E-2,5.6188058E-2,1.8185085E-2,4.304279E-1,1.7697875E-1,-4.7664687E-2,6.330441E-2,4.7934788E-1,-2.9271103E-3,7.081678E-2,-1.5583228E-1,-1.6742751E-2,2.6934375E-3,-1.0384362E-1,1.2413134E-2,2.0107175E-3,-3.613845E-3,9.600437E-3,-4.7654635E-3,-2.7048886E-1,7.5957975E-3,-4.645412E-3,-8.256243E-3,1.3301414E-3,1.5133449E-2,5.713827E-3,-1.2126098E-3,9.895784E-3,-3.7984236E-4,4.3683327E-3,-4.514344E-3,-1.0336385E-3,-4.483592E-3,-1.3367274E-2,6.193304E-4,-6.3156793E-3,1.4560622E-3,1.0613165E-2,-1.1843414E-2,4.8476188E-3,-1.8228907E-3,1.3805955E-2,-1.2033336E-2,-3.679381E-3,-9.486194E-3,-4.607105E-3,1.734997E-4,-3.3594207E-3,-8.688041E-3,8.441129E-3,-1.0087625E-2,-2.8485276E-3,-2.2057094E-2,-6.8252785E-3,-1.4284613E-3,-1.0787806E-2,-6.2668826E-3,-1.6332068E-2,-5.275558E-3,3.4711297E-4,-2.0925102E-3,-1.1423801E-2,4.577396E-3,-1.1053935E-3,-4.7921697E-3,-1.7556423E-2,-4.6630236E-3,3.8801555E-3,2.2668259E-3,5.929759E-3,2.018296E-3,1.0943284E-2,-5.514238E-3,4.7691935E-3,4.387893E-3,6.308157E-4,-4.8810807E-3,-7.6759286E-4,-8.719305E-3,-2.2794968E-2,2.5243782E-3,1.1475814E-2,-9.356648E-3,7.0102775E-4,6.302931E-3,-8.17923E-3,1.0124965E-2,1.8992636E-2,-3.3265736E-3,6.8308846E-3,-3.908005E-3,1.4022253E-3,7.4395663E-3,-1.8179367E-3,1.7140603E-2,1.0921172E-2,3.1143117E-3,-1.2572117E-3,-2.6906594E-3,-1.0461944E-2,4.928523E-3,-1.4896437E-3,-1.1308907E-2,-2.571376E-3,-1.1374988E-2,-5.4563805E-3],"categories":[],"categories_nodes":[],"categories_segments":[],"categories_sizes":[],"default_left":[0,0,0,0,0,0,0,0,0,0,0,0,0,0,0,0,0,0,0,0,0,0,0,0,0,0,0,0,0,0,0,0,0,0,0,0,0,0,0,0,0,0,0,0,0,0,0,0,0,0,0,0,0,0,0,0,0,0,0,0,0,0,0,0,0,0,0,0,0,0,0,0,0,0,0,0,0,0,0,0,0,0,0,0,0,0,0,0,0,0,0,0,0,0,0,0,0,0,0,0,0,0,0,0,0,0,0,0,0,0,0,0,0,0,0,0,0,0,0,0,0,0,0,0,0,0,0,0,0,0,0,0,0,0,0,0,0,0,0,0,0,0,0,0,0,0,0,0,0,0,0,0,0,0,0,0,0,0,0,0,0,0,0,0,0,0,0,0,0,0,0,0,0,0,0,0,0,0,0,0,0,0,0,0,0,0,0,0,0,0,0,0,0,0,0,0,0,0,0,0,0,0,0,0,0,0,0,0,0,0,0,0,0,0,0,0,0,0,0,0,0,0,0,0,0,0,0,0,0,0,0,0,0,0,0,0,0,0,0,0,0,0,0,0,0,0,0,0,0],"id":3,"left_children":[1,3,5,7,9,11,13,15,17,-1,19,21,23,25,27,29,31,33,35,37,39,41,43,45,47,49,51,53,55,57,59,61,63,-1,-1,65,67,69,71,73,75,-1,77,79,81,-1,83,85,87,89,91,93,95,97,99,-1,-1,101,103,105,107,-1,109,111,-1,-1,-1,-1,-1,113,-1,115,117,119,121,123,125,127,129,131,133,135,137,139,141,143,145,147,149,151,-1,-1,-1,153,155,157,159,161,163,-1,-1,165,167,169,171,173,175,177,179,-1,181,183,-1,185,187,189,191,-1,-1,-1,193,-1,195,197,-1,199,201,203,205,207,209,211,213,215,217,219,221,223,225,-1,-1,-1,-1,-1,227,-1,229,231,233,235,237,-1,239,241,243,-1,245,-1,-1,-1,-1,-1,247,-1,-1,-1,-1,-1,-1,-1,-1,-1,-1,-1,-1,-1,-1,-1,-1,-1,-1,-1,-1,-1,-1,-1,-1,-1,-1,-1,-1,-1,-1,-1,-1,-1,-1,-1,-1,-1,-1,-1,-1,-1,-1,-1,-1,-1,-1,-1,-1,-1,-1,-1,-1,-1,-1,-1,-1,-1,-1,-1,-1,-1,-1,-1,-1,-1,-1,-1,-1,-1,-1,-1,-1,-1,-1,-1,-1,-1,-1,-1,-1,-1,-1,-1,-1,-1,-1],"loss_changes":[9.229447E1,3.588632E1,4.1112995E1,1.2914602E1,9.7697525E0,2.506614E1,1.5961899E1,1.0108228E1,1.443252E1,0E0,5.6387253E0,1.9650116E1,1.5291695E1,4.519682E0,2.2163048E0,7.3380556E0,2.6839275E0,3.708252E0,2.2005348E0,1.6102392E1,2.0853508E1,5.3700275E0,2.793546E1,4.875777E0,3.5236565E1,3.6784744E0,4.4089646E0,7.1157017E0,1.0264348E0,4.2038183E0,8.458442E0,3.7379751E0,3.2638814E0,0E0,0E0,1.1605434E0,4.1059914E0,2.7436943E0,9.350601E0,9.84343E0,5.217436E0,0E0,3.069808E0,9.220886E0,2.1632006E1,0E0,2.8037684E0,3.9928207E0,1.17697115E1,5.0612645E0,1.1132579E0,1.3208222E0,1.217685E0,2.9914684E0,2.5758066E0,0E0,0E0,4.4309297E0,3.6664221E0,1.8602701E1,6.4028635E0,0E0,2.0309677E0,1.698599E0,0E0,0E0,0E0,0E0,0E0,2.6273499E0,0E0,3.1693306E0,1.6977463E0,7.266407E0,1.3189014E1,5.1538796E0,3.2108707E0,3.1161573E0,2.1314392E0,6.805485E0,1.4963034E1,7.425192E0,1.2530779E1,1.561769E0,1.3318206E0,1.7639828E0,2.8619308E0,4.1094503E0,1.1692154E1,2.4248853E0,0E0,0E0,0E0,2.1169071E0,4.5587206E0,1.3089945E0,2.720174E0,1.2915745E0,1.299734E0,0E0,0E0,1.9234356E0,1.7128067E0,3.2245808E0,4.584786E0,5.628722E0,2.0343475E0,1.1001167E1,6.3173666E0,0E0,2.112381E0,4.2870173E0,0E0,1.7269058E0,1.9884205E0,3.8194752E0,2.853393E0,0E0,0E0,0E0,7.873657E0,0E0,7.554638E0,7.0715194E0,0E0,2.4433002E0,1.0589888E0,2.756736E0,2.939962E0,1.562521E0,2.6658468E0,3.4755669E0,3.2734604E0,3.4152083E0,5.0976753E0,2.6131768E0,2.8688526E0,1.2271633E1,8.793373E0,0E0,0E0,0E0,0E0,0E0,1.57558E0,0E0,4.946575E0,1.6166205E0,2.517077E0,3.0812716E0,1.2560558E0,0E0,2.522226E0,3.7836795E0,1.0448432E0,0E0,1.5820282E0,0E0,0E0,0E0,0E0,0E0,1.3658867E0,0E0,0E0,0E0,0E0,0E0,0E0,0E0,0E0,0E0,0E0,0E0,0E0,0E0,0E0,0E0,0E0,0E0,0E0,0E0,0E0,0E0,0E0,0E0,0E0,0E0,0E0,0E0,0E0,0E0,0E0,0E0,0E0,0E0,0E0,0E0,0E0,0E0,0E0,0E0,0E0,0E0,0E0,0E0,0E0,0E0,0E0,0E0,0E0,0E0,0E0,0E0,0E0,0E0,0E0,0E0,0E0,0E0,0E0,0E0,0E0,0E0,0E0,0E0,0E0,0E0,0E0,0E0,0E0,0E0,0E0,0E0,0E0,0E0,0E0,0E0,0E0,0E0,0E0,0E0,0E0,0E0,0E0,0E0,0E0,0E0,0E0],"parents":[2147483647,0,0,1,1,2,2,3,3,4,4,5,5,6,6,7,7,8,8,10,10,11,11,12,12,13,13,14,14,15,15,16,16,17,17,18,18,19,19,20,20,21,21,22,22,23,23,24,24,25,25,26,26,27,27,28,28,29,29,30,30,31,31,32,32,35,35,36,36,37,37,38,38,39,39,40,40,42,42,43,43,44,44,46,46,47,47,48,48,49,49,50,50,51,51,52,52,53,53,54,54,57,57,58,58,59,59,60,60,62,62,63,63,69,69,71,71,72,72,73,73,74,74,75,75,76,76,77,77,78,78,79,79,80,80,81,81,82,82,83,83,84,84,85,85,86,86,87,87,88,88,89,89,93,93,94,94,95,95,96,96,97,97,98,98,101,101,102,102,103,103,104,104,105,105,106,106,107,107,108,108,110,110,111,111,113,113,114,114,115,115,116,116,120,120,122,122,123,123,125,125,126,126,127,127,128,128,129,129,130,130,131,131,132,132,133,133,134,134,135,135,136,136,137,137,138,138,144,144,146,146,147,147,148,148,149,149,150,150,152,152,153,153,154,154,156,156,162,162],"right_children":[2,4,6,8,10,12,14,16,18,-1,20,22,24,26,28,30,32,34,36,38,40,42,44,46,48,50,52,54,56,58,60,62,64,-1,-1,66,68,70,72,74,76,-1,78,80,82,-1,84,86,88,90,92,94,96,98,100,-1,-1,102,104,106,108,-1,110,112,-1,-1,-1,-1,-1,114,-1,116,118,120,122,124,126,128,130,132,134,136,138,140,142,144,146,148,150,152,-1,-1,-1,154,156,158,160,162,164,-1,-1,166,168,170,172,174,176,178,180,-1,182,184,-1,186,188,190,192,-1,-1,-1,194,-1,196,198,-1,200,202,204,206,208,210,212,214,216,218,220,222,224,226,-1,-1,-1,-1,-1,228,-1,230,232,234,236,238,-1,240,242,244,-1,246,-1,-1,-1,-1,-1,248,-1,-1,-1,-1,-1,-1,-1,-1,-1,-1,-1,-1,-1,-1,-1,-1,-1,-1,-1,-1,-1,-1,-1,-1,-1,-1,-1,-1,-1,-1,-1,-1,-1,-1,-1,-1,-1,-1,-1,-1,-1,-1,-1,-1,-1,-1,-1,-1,-1,-1,-1,-1,-1,-1,-1,-1,-1,-1,-1,-1,-1,-1,-1,-1,-1,-1,-1,-1,-1,-1,-1,-1,-1,-1,-1,-1,-1,-1,-1,-1,-1,-1,-1,-1,-1,-1],"split_conditions":[3.7847572E1,2.015E3,3E0,3.780257E1,3.6671165E1,3.9760242E1,2.019E3,2.014E3,2.009E3,1.8698099E-3,3.7325375E1,2.01E3,2.012E3,3.8884E1,3.9793846E1,3.7147E1,3.7333004E1,2.007E3,2.011E3,3.699198E1,3.754639E1,3.7956825E1,2.019E3,2.007E3,2.017E3,3.886586E1,4.0292072E1,3.948145E1,2.021E3,2.006E3,3.741525E1,3.6934498E1,3.761018E1,8.268632E-3,-4.0136385E-3,2E0,3.78189E1,3.6980076E1,3.731567E1,3.7497482E1,3.77308E1,4.1783582E-3,2.007E3,3.8759583E1,2.021E3,6.441148E-3,4.00853E1,3.9901443E1,2.022E3,3.8852898E1,2.014E3,2.011E3,4.04654E1,3.918075E1,2.022E3,1.3170363E-3,-4.2643994E-3,2.005E3,2.011E3,3.7388493E1,2.01E3,-1.9806752E-3,3.6939194E1,3.7527935E1,8.587051E-3,-1.3127353E-2,-2.1212248E-2,4.18654E-3,-1.6350063E-2,3.6708004E1,-1.402488E-2,3.7311913E1,3E0,1E0,2.018E3,3.7710903E1,2.022E3,3.858578E1,3.9248764E1,3.866413E1,2.011E3,3.92142E1,3.842891E1,3.9901443E1,4.0483253E1,2.016E3,4.019028E1,2.018E3,2E0,2.008E3,-1.0510325E-2,1.2231092E-2,3.4117287E-3,3.971145E1,2.014E3,2.008E3,2.01E3,3.8884E1,3.9421864E1,-6.90441E-3,-2.3330366E-2,3.656134E1,1E0,3.7138504E1,3.699198E1,3.716679E1,2.007E3,2.009E3,3.7684002E1,1.9956624E-2,3.6952206E1,3.7479168E1,-6.5242993E-3,2.021E3,2.016E3,2.02E3,2.018E3,1.4507902E-2,-1.3279706E-3,5.689875E-4,3.7437912E1,-3.1605153E-4,2.022E3,3.7697155E1,3.5546068E-3,3.7840374E1,3.7769535E1,3.8508297E1,3.891881E1,3.92142E1,2.008E3,2.012E3,1E0,3.971145E1,3.9454395E1,3.8566387E1,3.973463E1,3.816675E1,3.85447E1,6.720557E-4,6.266613E-3,-1.3895308E-3,5.8056666E-3,1.0628838E-2,3.9807137E1,1.8185085E-2,4.041307E1,2E0,4.0170597E1,4.0254196E1,4.0211903E1,-2.9271103E-3,2.015E3,2.01E3,2.006E3,2.6934375E-3,3.891881E1,1.2413134E-2,2.0107175E-3,-3.613845E-3,9.600437E-3,-4.7654635E-3,3.898752E1,7.5957975E-3,-4.645412E-3,-8.256243E-3,1.3301414E-3,1.5133449E-2,5.713827E-3,-1.2126098E-3,9.895784E-3,-3.7984236E-4,4.3683327E-3,-4.514344E-3,-1.0336385E-3,-4.483592E-3,-1.3367274E-2,6.193304E-4,-6.3156793E-3,1.4560622E-3,1.0613165E-2,-1.1843414E-2,4.8476188E-3,-1.8228907E-3,1.3805955E-2,-1.2033336E-2,-3.679381E-3,-9.486194E-3,-4.607105E-3,1.734997E-4,-3.3594207E-3,-8.688041E-3,8.441129E-3,-1.0087625E-2,-2.8485276E-3,-2.2057094E-2,-6.8252785E-3,-1.4284613E-3,-1.0787806E-2,-6.2668826E-3,-1.6332068E-2,-5.275558E-3,3.4711297E-4,-2.0925102E-3,-1.1423801E-2,4.577396E-3,-1.1053935E-3,-4.7921697E-3,-1.7556423E-2,-4.6630236E-3,3.8801555E-3,2.2668259E-3,5.929759E-3,2.018296E-3,1.0943284E-2,-5.514238E-3,4.7691935E-3,4.387893E-3,6.308157E-4,-4.8810807E-3,-7.6759286E-4,-8.719305E-3,-2.2794968E-2,2.5243782E-3,1.1475814E-2,-9.356648E-3,7.0102775E-4,6.302931E-3,-8.17923E-3,1.0124965E-2,1.8992636E-2,-3.3265736E-3,6.8308846E-3,-3.908005E-3,1.4022253E-3,7.4395663E-3,-1.8179367E-3,1.7140603E-2,1.0921172E-2,3.1143117E-3,-1.2572117E-3,-2.6906594E-3,-1.0461944E-2,4.928523E-3,-1.4896437E-3,-1.1308907E-2,-2.571376E-3,-1.1374988E-2,-5.4563805E-3],"split_indices":[1,4,5,1,1,1,4,4,4,0,1,4,4,1,1,1,1,4,4,1,1,1,4,4,4,1,1,1,4,4,1,1,1,0,0,5,1,1,1,1,1,0,4,1,4,0,1,1,4,1,4,4,1,1,4,0,0,4,4,1,4,0,1,1,0,0,0,0,0,1,0,1,5,5,4,1,4,1,1,1,4,1,1,1,1,4,1,4,5,4,0,0,0,1,4,4,4,1,1,0,0,1,5,1,1,1,4,4,1,0,1,1,0,4,4,4,4,0,0,0,1,0,4,1,0,1,1,1,1,1,4,4,5,1,1,1,1,1,1,0,0,0,0,0,1,0,1,5,1,1,1,0,4,4,4,0,1,0,0,0,0,0,1,0,0,0,0,0,0,0,0,0,0,0,0,0,0,0,0,0,0,0,0,0,0,0,0,0,0,0,0,0,0,0,0,0,0,0,0,0,0,0,0,0,0,0,0,0,0,0,0,0,0,0,0,0,0,0,0,0,0,0,0,0,0,0,0,0,0,0,0,0,0,0,0,0,0,0,0,0,0,0,0,0,0,0,0,0,0],"split_type":[0,0,0,0,0,0,0,0,0,0,0,0,0,0,0,0,0,0,0,0,0,0,0,0,0,0,0,0,0,0,0,0,0,0,0,0,0,0,0,0,0,0,0,0,0,0,0,0,0,0,0,0,0,0,0,0,0,0,0,0,0,0,0,0,0,0,0,0,0,0,0,0,0,0,0,0,0,0,0,0,0,0,0,0,0,0,0,0,0,0,0,0,0,0,0,0,0,0,0,0,0,0,0,0,0,0,0,0,0,0,0,0,0,0,0,0,0,0,0,0,0,0,0,0,0,0,0,0,0,0,0,0,0,0,0,0,0,0,0,0,0,0,0,0,0,0,0,0,0,0,0,0,0,0,0,0,0,0,0,0,0,0,0,0,0,0,0,0,0,0,0,0,0,0,0,0,0,0,0,0,0,0,0,0,0,0,0,0,0,0,0,0,0,0,0,0,0,0,0,0,0,0,0,0,0,0,0,0,0,0,0,0,0,0,0,0,0,0,0,0,0,0,0,0,0,0,0,0,0,0,0,0,0,0,0,0,0,0,0,0,0,0,0,0,0,0,0,0,0],"sum_hessian":[2.4666E4,1.2206E4,1.246E4,7.388E3,4.818E3,9.796E3,2.664E3,7.183E3,2.05E2,2.51E2,4.567E3,7.87E3,1.926E3,1.952E3,7.12E2,6.379E3,8.04E2,8.9E1,1.16E2,2.252E3,2.315E3,1.178E3,6.692E3,7.02E2,1.224E3,8.61E2,1.091E3,5.95E2,1.17E2,2.348E3,4.031E3,5.81E2,2.23E2,3.7E1,5.2E1,8.1E1,3.5E1,9.19E2,1.333E3,9.87E2,1.328E3,1.27E2,1.051E3,4.087E3,2.605E3,1.82E2,5.2E2,5.25E2,6.99E2,8.05E2,5.6E1,9.89E2,1.02E2,5.54E2,4.1E1,5.7E1,6E1,3.89E2,1.959E3,2.415E3,1.616E3,8.3E1,4.98E2,1.9E2,3.3E1,3.8E1,4.3E1,1.4E1,2.1E1,8.81E2,3.8E1,1.287E3,4.6E1,7.78E2,2.09E2,8.76E2,4.52E2,5.36E2,5.15E2,1.496E3,2.591E3,7.11E2,1.894E3,1.81E2,3.39E2,9.4E1,4.31E2,4.29E2,2.7E2,7.73E2,3.2E1,3.4E1,2.2E1,4.71E2,5.18E2,4.5E1,5.7E1,5.21E2,3.3E1,1.4E1,2.7E1,2.02E2,1.87E2,1.215E3,7.44E2,2.237E3,1.78E2,1.056E3,5.6E2,7E0,4.91E2,1.45E2,4.5E1,1.21E2,7.6E2,1.197E3,9E1,3.9E1,7E0,1E2,6.78E2,4.7E1,1.62E2,7.23E2,1.53E2,3.17E2,1.35E2,1.75E2,3.61E2,3.85E2,1.3E2,1.165E3,3.31E2,2.4E2,2.351E3,5.58E2,1.53E2,6.72E2,1.222E3,8.2E1,9.9E1,3.15E2,2.4E1,6.5E1,2.9E1,1.58E2,2.73E2,1.08E2,3.21E2,1.33E2,1.37E2,9.7E1,6.76E2,2.98E2,1.73E2,1.93E2,3.25E2,2.6E1,1.9E1,3.5E1,2.2E1,3.73E2,1.48E2,2.2E1,1.1E1,2E1,1.82E2,1.9E1,1.68E2,1.192E3,2.3E1,4.22E2,3.22E2,5.56E2,1.681E3,2.9E1,1.49E2,7.77E2,2.79E2,4.82E2,7.8E1,6E0,4.85E2,1.28E2,1.7E1,9E1,3.1E1,8.5E1,6.75E2,7.69E2,4.28E2,8.1E1,9E0,4.9E2,1.88E2,1.22E2,4E1,6.42E2,8.1E1,2.94E2,2.3E1,4.4E1,9.1E1,1.4E2,3.5E1,1.24E2,2.37E2,3.77E2,8E0,6.9E1,6.1E1,3.25E2,8.4E2,4.3E1,2.88E2,2.07E2,3.3E1,1.961E3,3.9E2,2.61E2,2.97E2,1.39E2,1.4E1,4.79E2,1.93E2,8.3E1,1.139E3,2E1,9E0,1.89E2,8.4E1,1.6E1,9.2E1,1.71E2,1.5E2,5.3E1,8E1,7.4E1,6.3E1,5.23E2,1.53E2,2.23E2,7.5E1,2.6E1,1.47E2,1.9E1,3.06E2,6.5E1,8.3E1],"tree_param":{"num_deleted":"0","num_feature":"6","num_nodes":"249","size_leaf_vector":"1"}},{"base_weights":[-1.3555753E-3,-6.2195737E-2,5.873456E-2,-2.3268136E-1,-1.0547223E-2,1.634767E-1,3.5928592E-2,-1.2270695E-1,-3.1709474E-1,2.5389815E-2,-7.67053E-2,-7.1144775E-2,2.2203939E-1,-1.6492128E-2,1.17070094E-1,3.8444288E-3,-2.2425014E-1,-2.569941E-1,-5.288473E-1,-1.4316422E-2,1.6747873E-1,-1.2985215E-2,-6.586566E-2,-2.0650108E-1,1.4584382E-1,-1.9695178E-1,2.6252452E-1,-4.415513E-2,7.308105E-2,1.6203916E-1,-1.1625838E-3,-3.0709011E-2,1.4202324E-1,-2.9762775E-1,-1.7546993E-2,-2.7322516E-1,-3.8864422E-3,-8.654154E-1,-4.0689445E-1,6.462209E-2,-4.8388332E-2,7.288039E-2,2.1421455E-1,9.754916E-2,-9.207833E-2,-2.984725E-1,8.6787935E-5,2.3923069E-1,2.9944977E-2,-8.560676E-2,-1.0307403E-2,3.206742E-1,1.7466564E-1,-1.1651031E-2,-1.7992207E-1,2.5190812E-1,2.3115147E-2,1.391033E-1,3.88699E-1,-1.328164E-1,9.975269E-2,1.01638235E-1,-1.0449048E-1,-9.3075476E-5,6.468679E-3,-3.738749E-1,-1.4427467E-1,2.3936497E-2,-5.515332E-2,-2.3129795E-1,-3.2976726E-1,-2.1615632E-1,-1.029196E0,-5.6691222E-2,-4.9797794E-1,-3.0037923E-2,1.1213298E-1,1.3598825E-1,-6.77705E-2,1.8946864E-1,-2.0569836E-1,2.4853556E-1,1.6794969E-1,6.4442256E-3,6.3958235E-2,-2.2796123E-1,-5.8281455E-2,-4.2809168E-4,-3.2647935E-1,8.607525E-3,-3.3161687E-3,7.0367297E-3,-1.3789197E-3,4.9829064E-3,-5.713699E-3,2.663179E-1,4.2872855E-1,1.3010436E-1,3.495105E-1,1.3375559E-2,-1.7617385E-1,-2.7062383E-1,-1.477855E-3,7.883103E-2,4.3002722E-1,8.065309E-2,-1.0632906E-1,7.744361E-2,1.8741925E-1,4.406223E-1,8.691299E-2,-1.579533E-1,8.945722E-2,6.1211795E-2,4.175205E-1,1.320954E-1,-1.2518226E-2,-1.5591004E-1,2.345148E-2,-2.69623E-1,-4.841848E-1,-2.0290364E-3,-2.5711316E-1,4.5267576E-3,-8.461281E-2,5.3424044E-3,-2.400839E-1,-3.009873E-1,-5.597483E-1,2.9956081E-3,-1.6264547E-2,-1.081105E0,-7.82129E-3,-5.392462E-3,5.577925E-3,-2.6286338E-2,-1.398004E-2,1.6700374E-1,-9.803255E-2,3.570329E-1,8.421786E-2,-1.5480368E-1,1.7406464E-1,-1.1280609E-1,-2.5741998E-2,4.3151346E-3,2.7112615E-1,5.8089555E-3,-1.1182313E-2,1.6383536E-1,8.492809E-3,8.9983664E-2,3.0558297E-1,-2.587638E-1,9.892167E-2,-1.0112454E-1,-4.0028566E-1,-1.4272957E-1,1.8129157E-2,-4.219193E-1,-2.1658282E-1,4.3810737E-1,2.0105608E-1,4.8110706E-1,2.9048088E-1,-2.2824116E-1,1.4207579E-1,-2.493089E-3,4.0666094E-1,-1.2375386E-1,6.0816426E-2,8.483593E-2,-4.0159804E-1,-1.1292862E-1,-3.8539872E-1,-3.5024893E-1,1.0110808E-1,1.2595245E-1,-1.4128249E-2,5.1153516E-3,1.840565E-2,-6.45028E-3,2.613497E-1,-1.789873E-1,1.3564364E-2,-8.86168E-3,8.530757E-2,7.368144E-2,2.3612389E-1,2.592649E-1,1.9362561E-2,1.1186616E-2,-1.4067173E-1,-3.2187384E-2,-2.0856649E-1,1.6913507E-2,-3.4914429E-3,-3.6208447E-2,1.5633406E-1,1.3901987E-2,-3.7845087E-3,-2.3697284E-3,6.0573355E-3,-2.9281192E-3,-1.5011106E-2,2.636884E-3,-1.5270976E-2,-5.928254E-3,-1.3846297E-2,-2.0133596E-2,-1.1691432E-2,-1.30124325E-2,-4.329944E-3,-5.3993915E-3,-3.387882E-4,-1.5924282E-2,-6.3680005E-3,-9.55727E-3,1.4257355E-3,-2.3849608E-2,-9.636099E-3,-2.254093E-2,-3.6583956E-2,1.2839222E-3,8.538484E-3,1.3135237E-3,-3.8426514E-3,1.6023891E-2,6.5350407E-3,-4.3162606E-3,3.258005E-3,2.2954834E-4,-1.6184535E-2,1.6708726E-2,3.2857163E-3,-6.601135E-3,-1.3052335E-3,9.148588E-3,-2.2826623E-3,9.682899E-3,1.1073963E-3,1.2434056E-2,4.043209E-3,8.2834053E-4,4.9340795E-3,1.0907426E-2,2.598134E-3,4.100799E-3,-1.0990572E-2,4.7502723E-3,2.9845964E-4,-8.354616E-3,-1.933883E-3,1.7544219E-3,-1.5060149E-2,-1.2056676E-3,-1.184155E-2,1.2952795E-3,-1.348732E-2,-3.1467704E-3,-1.43459495E-2,-1.158432E-2,-4.063182E-3,4.0410087E-3,1.53582655E-2,4.723563E-3,9.416582E-3,7.5503974E-3,1.5227993E-2,1.6928654E-2,5.168295E-3,5.267687E-4,-1.5208835E-2,1.2889295E-2,3.6023427E-3,1.3501221E-2,9.503405E-4,-7.701584E-3,4.180372E-3,1.6057806E-2,1.0387589E-3,1.2350086E-2,1.6667511E-3,-1.6004574E-2,-4.751046E-3,-1.3376286E-2,-2.1463505E-3,-1.6959528E-2,-9.286197E-3,2.081679E-3,-1.9462759E-2,2.1401197E-3,1.2661273E-2,2.754699E-3,1.5323575E-2,1.1165458E-3,-5.172331E-3,1.0091967E-2,4.7770923E-4,-6.0914867E-3,4.8057535E-3,7.767154E-3,-1.5411179E-3,4.9709138E-3,1.24266E-3,4.5941756E-3,-4.9177185E-3,1.0305278E-2,6.3392166E-3,1.4814173E-3,1.4591739E-2,-8.695771E-3,9.910064E-3,-3.6655245E-3,5.241147E-3,-6.9254176E-3,1.1820624E-3,9.162727E-4,-2.9683115E-3,8.256186E-3,4.2402753E-4],"categories":[],"categories_nodes":[],"categories_segments":[],"categories_sizes":[],"default_left":[0,0,0,0,0,0,0,0,0,0,0,0,0,0,0,0,0,0,0,0,0,0,0,0,0,0,0,0,0,0,0,0,0,0,0,0,0,0,0,0,0,0,0,0,0,0,0,0,0,0,0,0,0,0,0,0,0,0,0,0,0,0,0,0,0,0,0,0,0,0,0,0,0,0,0,0,0,0,0,0,0,0,0,0,0,0,0,0,0,0,0,0,0,0,0,0,0,0,0,0,0,0,0,0,0,0,0,0,0,0,0,0,0,0,0,0,0,0,0,0,0,0,0,0,0,0,0,0,0,0,0,0,0,0,0,0,0,0,0,0,0,0,0,0,0,0,0,0,0,0,0,0,0,0,0,0,0,0,0,0,0,0,0,0,0,0,0,0,0,0,0,0,0,0,0,0,0,0,0,0,0,0,0,0,0,0,0,0,0,0,0,0,0,0,0,0,0,0,0,0,0,0,0,0,0,0,0,0,0,0,0,0,0,0,0,0,0,0,0,0,0,0,0,0,0,0,0,0,0,0,0,0,0,0,0,0,0,0,0,0,0,0,0,0,0,0,0,0,0,0,0,0,0,0,0,0,0,0,0,0,0,0,0,0,0,0,0,0,0,0,0,0,0,0,0,0,0,0,0,0,0,0,0,0,0,0,0,0,0,0,0,0,0,0,0,0,0,0,0,0,0,0,0,0,0,0,0,0,0,0,0,0,0,0,0,0,0,0,0,0,0],"id":4,"left_children":[1,3,5,7,9,11,13,15,17,19,21,23,25,27,29,31,33,35,37,39,41,-1,43,45,47,49,51,53,55,57,59,61,63,65,67,69,-1,71,73,75,77,79,81,83,85,87,-1,89,91,93,-1,95,97,99,101,103,105,107,109,111,113,115,117,-1,-1,119,121,-1,123,125,127,129,131,133,135,137,139,141,143,145,147,149,151,-1,153,155,157,-1,159,-1,-1,-1,-1,-1,-1,161,163,165,167,169,171,173,175,177,179,181,183,185,187,189,191,193,195,197,199,201,-1,203,205,207,209,-1,211,-1,213,-1,215,217,219,-1,-1,221,-1,-1,-1,-1,-1,223,225,227,229,231,233,235,237,-1,239,-1,-1,241,-1,243,245,247,249,251,253,255,257,259,261,263,265,267,269,271,273,-1,275,277,279,281,283,285,287,289,291,293,-1,-1,-1,295,297,299,301,-1,303,305,307,309,-1,-1,311,313,315,-1,-1,317,319,-1,-1,-1,-1,-1,-1,-1,-1,-1,-1,-1,-1,-1,-1,-1,-1,-1,-1,-1,-1,-1,-1,-1,-1,-1,-1,-1,-1,-1,-1,-1,-1,-1,-1,-1,-1,-1,-1,-1,-1,-1,-1,-1,-1,-1,-1,-1,-1,-1,-1,-1,-1,-1,-1,-1,-1,-1,-1,-1,-1,-1,-1,-1,-1,-1,-1,-1,-1,-1,-1,-1,-1,-1,-1,-1,-1,-1,-1,-1,-1,-1,-1,-1,-1,-1,-1,-1,-1,-1,-1,-1,-1,-1,-1,-1,-1,-1,-1,-1,-1,-1,-1,-1,-1,-1,-1,-1,-1,-1,-1,-1,-1,-1,-1,-1,-1,-1,-1,-1,-1,-1,-1],"loss_changes":[8.9584E1,1.0721124E2,2.9442581E1,2.6242142E1,2.2222298E1,3.0298897E1,4.306858E1,1.5819744E1,2.0239151E1,3.4174877E1,1.2672138E1,1.2982628E1,2.9974289E1,1.5247038E1,2.11292E1,2.625591E0,1.0354099E1,2.5482635E0,1.41369095E1,1.2738314E1,5.833542E0,0E0,1.3690606E1,5.239111E0,1.8328199E0,2.517496E0,8.164314E0,2.0743336E1,1.2968167E1,1.4912819E1,1.4574574E1,4.3071213E0,1.1755974E0,5.8391953E0,5.563767E0,2.5480347E0,0E0,9.666786E0,8.297073E0,6.42563E0,1.1830747E1,1.4297257E1,1.3635101E0,1.7272182E0,1.2629639E1,1.4997101E0,0E0,1.5995789E0,1.2067403E0,2.4068327E0,0E0,5.5654373E0,4.96434E0,1.5623945E1,1.4695765E1,9.738682E0,8.46945E0,7.7789345E0,4.0985107E0,2.6736698E0,7.579864E0,2.552247E0,1.8654339E0,0E0,0E0,3.7334557E0,1.4441147E0,0E0,1.0628753E0,2.3410912E0,2.9357605E0,2.114491E0,2.670105E0,1.6755266E0,2.095272E0,6.420507E0,6.4713573E0,3.5147228E0,5.664076E0,1.1160927E0,8.743992E0,1.434721E0,4.0501766E0,0E0,3.9183946E0,1.1937189E1,1.4237314E1,0E0,1.7126465E0,0E0,0E0,0E0,0E0,0E0,0E0,7.1544113E0,2.1919098E0,2.2374392E0,3.2479248E0,2.1436771E1,2.9511868E1,1.08523445E1,1.1019568E1,4.2561007E0,7.324053E0,1.2388503E1,3.0513632E0,3.399866E0,8.103596E0,8.189468E0,2.655789E0,2.7176847E0,4.8497143E0,5.1487536E0,1.7296486E0,2.2265234E0,0E0,4.008154E0,2.858634E0,2.3274784E0,2.5993462E0,0E0,1.2920346E0,0E0,1.0607954E0,0E0,4.949894E0,2.5835114E0,2.606514E0,0E0,0E0,2.23172E0,0E0,0E0,0E0,0E0,0E0,1.7846282E0,1.5230298E0,2.27485E0,4.770655E0,2.3163848E0,6.833702E0,1.0728189E1,2.5829798E1,0E0,1.3184366E0,0E0,0E0,1.0294318E0,0E0,1.129044E0,1.7084513E0,1.4966652E0,1.6479194E0,2.043318E0,1.0855728E1,2.7063503E1,1.3596591E1,1.5734577E0,1.0759206E0,3.8961983E0,2.2629032E0,1.282383E0,2.8480244E0,1.1735618E0,3.098669E0,0E0,1.856411E0,2.9666546E1,3.0400856E1,2.2066798E0,8.544769E0,3.481635E0,4.574665E0,8.8136425E0,2.243853E0,1.9232035E0,0E0,0E0,0E0,3.861955E0,4.709915E0,1.8117142E0,2.1321487E0,0E0,3.9726534E0,8.351002E0,2.6616516E0,5.7440844E0,0E0,0E0,1.7119215E0,2.3301811E0,1.6941986E0,0E0,0E0,1.1546214E0,4.746021E0,0E0,0E0,0E0,0E0,0E0,0E0,0E0,0E0,0E0,0E0,0E0,0E0,0E0,0E0,0E0,0E0,0E0,0E0,0E0,0E0,0E0,0E0,0E0,0E0,0E0,0E0,0E0,0E0,0E0,0E0,0E0,0E0,0E0,0E0,0E0,0E0,0E0,0E0,0E0,0E0,0E0,0E0,0E0,0E0,0E0,0E0,0E0,0E0,0E0,0E0,0E0,0E0,0E0,0E0,0E0,0E0,0E0,0E0,0E0,0E0,0E0,0E0,0E0,0E0,0E0,0E0,0E0,0E0,0E0,0E0,0E0,0E0,0E0,0E0,0E0,0E0,0E0,0E0,0E0,0E0,0E0,0E0,0E0,0E0,0E0,0E0,0E0,0E0,0E0,0E0,0E0,0E0,0E0,0E0,0E0,0E0,0E0,0E0,0E0,0E0,0E0,0E0,0E0,0E0,0E0,0E0,0E0,0E0,0E0,0E0,0E0,0E0,0E0,0E0,0E0,0E0,0E0,0E0,0E0,0E0,0E0,0E0],"parents":[2147483647,0,0,1,1,2,2,3,3,4,4,5,5,6,6,7,7,8,8,9,9,10,10,11,11,12,12,13,13,14,14,15,15,16,16,17,17,18,18,19,19,20,20,22,22,23,23,24,24,25,25,26,26,27,27,28,28,29,29,30,30,31,31,32,32,33,33,34,34,35,35,37,37,38,38,39,39,40,40,41,41,42,42,43,43,44,44,45,45,47,47,48,48,49,49,51,51,52,52,53,53,54,54,55,55,56,56,57,57,58,58,59,59,60,60,61,61,62,62,65,65,66,66,68,68,69,69,70,70,71,71,72,72,73,73,74,74,75,75,76,76,77,77,78,78,79,79,80,80,81,81,82,82,84,84,85,85,86,86,88,88,95,95,96,96,97,97,98,98,99,99,100,100,101,101,102,102,103,103,104,104,105,105,106,106,107,107,108,108,109,109,110,110,111,111,112,112,113,113,114,114,115,115,117,117,118,118,119,119,120,120,122,122,124,124,126,126,127,127,128,128,131,131,137,137,138,138,139,139,140,140,141,141,142,142,143,143,144,144,146,146,149,149,151,151,152,152,153,153,154,154,155,155,156,156,157,157,158,158,159,159,160,160,161,161,162,162,163,163,164,164,165,165,166,166,168,168,169,169,170,170,171,171,172,172,173,173,174,174,175,175,176,176,177,177,181,181,182,182,183,183,184,184,186,186,187,187,188,188,189,189,192,192,193,193,194,194,197,197,198,198],"right_children":[2,4,6,8,10,12,14,16,18,20,22,24,26,28,30,32,34,36,38,40,42,-1,44,46,48,50,52,54,56,58,60,62,64,66,68,70,-1,72,74,76,78,80,82,84,86,88,-1,90,92,94,-1,96,98,100,102,104,106,108,110,112,114,116,118,-1,-1,120,122,-1,124,126,128,130,132,134,136,138,140,142,144,146,148,150,152,-1,154,156,158,-1,160,-1,-1,-1,-1,-1,-1,162,164,166,168,170,172,174,176,178,180,182,184,186,188,190,192,194,196,198,200,202,-1,204,206,208,210,-1,212,-1,214,-1,216,218,220,-1,-1,222,-1,-1,-1,-1,-1,224,226,228,230,232,234,236,238,-1,240,-1,-1,242,-1,244,246,248,250,252,254,256,258,260,262,264,266,268,270,272,274,-1,276,278,280,282,284,286,288,290,292,294,-1,-1,-1,296,298,300,302,-1,304,306,308,310,-1,-1,312,314,316,-1,-1,318,320,-1,-1,-1,-1,-1,-1,-1,-1,-1,-1,-1,-1,-1,-1,-1,-1,-1,-1,-1,-1,-1,-1,-1,-1,-1,-1,-1,-1,-1,-1,-1,-1,-1,-1,-1,-1,-1,-1,-1,-1,-1,-1,-1,-1,-1,-1,-1,-1,-1,-1,-1,-1,-1,-1,-1,-1,-1,-1,-1,-1,-1,-1,-1,-1,-1,-1,-1,-1,-1,-1,-1,-1,-1,-1,-1,-1,-1,-1,-1,-1,-1,-1,-1,-1,-1,-1,-1,-1,-1,-1,-1,-1,-1,-1,-1,-1,-1,-1,-1,-1,-1,-1,-1,-1,-1,-1,-1,-1,-1,-1,-1,-1,-1,-1,-1,-1,-1,-1,-1,-1,-1,-1],"split_conditions":[3.7847572E1,-9.381424E1,-9.4125916E1,2.015E3,-9.099364E1,2.011E3,-9.186902E1,3.7179974E1,3.7489E1,-9.132741E1,-9.098985E1,3.9421864E1,3.826796E1,3.9793846E1,2.019E3,3.7094685E1,-9.42654E1,2.024E3,3.754639E1,3.7122105E1,3.7172016E1,-1.2985215E-2,2.008E3,-9.444286E1,2.008E3,2.019E3,2.018E3,3.9421864E1,4.00452E1,3.9620903E1,2.022E3,3.6635796E1,2.011E3,2.013E3,-9.422475E1,2.019E3,-3.8864422E-3,2.018E3,3.759797E1,-9.337032E1,-9.341675E1,3.715408E1,-9.12045E1,3.699198E1,2.01E3,2.006E3,8.6787935E-5,-9.438528E1,3.9901443E1,3.809387E1,-1.0307403E-2,3.93417E1,2.023E3,-9.2160255E1,3.971145E1,3.9901443E1,2.018E3,-9.077385E1,2.017E3,3.9573906E1,3.918075E1,2.014E3,3.699198E1,-9.3075476E-5,6.468679E-3,-9.43161E1,-9.431197E1,2.3936497E-2,2.007E3,3.656134E1,3.712092E1,-9.45719E1,-9.451224E1,-9.4125916E1,2.017E3,2.006E3,-9.32807E1,-9.378033E1,3.7286827E1,3.7065784E1,-9.129184E1,2.01E3,3.7636147E1,6.4442256E-3,3.7245945E1,2.009E3,-9.029586E1,-4.2809168E-4,3.9191936E1,8.607525E-3,-3.3161687E-3,7.0367297E-3,-1.3789197E-3,4.9829064E-3,-5.713699E-3,3.8906403E1,-9.4429016E1,3.866413E1,-9.513271E1,-9.341675E1,3.891881E1,-9.2581726E1,-9.3026695E1,-9.202725E1,2.012E3,2.012E3,2.022E3,-9.1844505E1,2.01E3,2.012E3,-9.1735596E1,3.842891E1,3.971145E1,-9.092146E1,-9.114514E1,2.005E3,-1.2518226E-2,3.6980076E1,3.7082027E1,3.7333004E1,-9.430847E1,-2.0290364E-3,2.014E3,4.5267576E-3,2.012E3,5.3424044E-3,3.6708004E1,-9.3846596E1,3.7147E1,2.9956081E-3,-1.6264547E-2,-9.45719E1,-7.82129E-3,-5.392462E-3,5.577925E-3,-2.6286338E-2,-1.398004E-2,2.005E3,-9.35409E1,3.65993E1,-9.307623E1,2.018E3,-9.37191E1,-9.3215904E1,-9.318183E1,4.3151346E-3,3.7132816E1,5.8089555E-3,-1.1182313E-2,-9.1304E1,8.492809E-3,3.73621E1,2.02E3,-9.077385E1,3.7712643E1,3.686957E1,3.761018E1,-9.053646E1,3.778467E1,3.87414E1,-9.46154E1,2.012E3,2.016E3,2.012E3,3.94602E1,2.02E3,3.8882E1,-2.493089E-3,-9.426067E1,3.8792835E1,-9.32926E1,3.8206493E1,-9.21225E1,2.008E3,3.94602E1,2.019E3,2.023E3,2.022E3,-1.4128249E-2,5.1153516E-3,1.840565E-2,-9.260392E1,2.017E3,4.0483253E1,4.0211903E1,-8.86168E-3,-9.150688E1,-9.029586E1,3.812377E1,-9.167108E1,1.9362561E-2,1.1186616E-2,-9.165E1,-9.072061E1,-9.0473175E1,1.6913507E-2,-3.4914429E-3,3.8759583E1,3.844749E1,1.3901987E-2,-3.7845087E-3,-2.3697284E-3,6.0573355E-3,-2.9281192E-3,-1.5011106E-2,2.636884E-3,-1.5270976E-2,-5.928254E-3,-1.3846297E-2,-2.0133596E-2,-1.1691432E-2,-1.30124325E-2,-4.329944E-3,-5.3993915E-3,-3.387882E-4,-1.5924282E-2,-6.3680005E-3,-9.55727E-3,1.4257355E-3,-2.3849608E-2,-9.636099E-3,-2.254093E-2,-3.6583956E-2,1.2839222E-3,8.538484E-3,1.3135237E-3,-3.8426514E-3,1.6023891E-2,6.5350407E-3,-4.3162606E-3,3.258005E-3,2.2954834E-4,-1.6184535E-2,1.6708726E-2,3.2857163E-3,-6.601135E-3,-1.3052335E-3,9.148588E-3,-2.2826623E-3,9.682899E-3,1.1073963E-3,1.2434056E-2,4.043209E-3,8.2834053E-4,4.9340795E-3,1.0907426E-2,2.598134E-3,4.100799E-3,-1.0990572E-2,4.7502723E-3,2.9845964E-4,-8.354616E-3,-1.933883E-3,1.7544219E-3,-1.5060149E-2,-1.2056676E-3,-1.184155E-2,1.2952795E-3,-1.348732E-2,-3.1467704E-3,-1.43459495E-2,-1.158432E-2,-4.063182E-3,4.0410087E-3,1.53582655E-2,4.723563E-3,9.416582E-3,7.5503974E-3,1.5227993E-2,1.6928654E-2,5.168295E-3,5.267687E-4,-1.5208835E-2,1.2889295E-2,3.6023427E-3,1.3501221E-2,9.503405E-4,-7.701584E-3,4.180372E-3,1.6057806E-2,1.0387589E-3,1.2350086E-2,1.6667511E-3,-1.6004574E-2,-4.751046E-3,-1.3376286E-2,-2.1463505E-3,-1.6959528E-2,-9.286197E-3,2.081679E-3,-1.9462759E-2,2.1401197E-3,1.2661273E-2,2.754699E-3,1.5323575E-2,1.1165458E-3,-5.172331E-3,1.0091967E-2,4.7770923E-4,-6.0914867E-3,4.8057535E-3,7.767154E-3,-1.5411179E-3,4.9709138E-3,1.24266E-3,4.5941756E-3,-4.9177185E-3,1.0305278E-2,6.3392166E-3,1.4814173E-3,1.4591739E-2,-8.695771E-3,9.910064E-3,-3.6655245E-3,5.241147E-3,-6.9254176E-3,1.1820624E-3,9.162727E-4,-2.9683115E-3,8.256186E-3,4.2402753E-4],"split_indices":[1,2,2,4,2,4,2,1,1,2,2,1,1,1,4,1,2,4,1,1,1,0,4,2,4,4,4,1,1,1,4,1,4,4,2,4,0,4,1,2,2,1,2,1,4,4,0,2,1,1,0,1,4,2,1,1,4,2,4,1,1,4,1,0,0,2,2,0,4,1,1,2,2,2,4,4,2,2,1,1,2,4,1,0,1,4,2,0,1,0,0,0,0,0,0,1,2,1,2,2,1,2,2,2,4,4,4,2,4,4,2,1,1,2,2,4,0,1,1,1,2,0,4,0,4,0,1,2,1,0,0,2,0,0,0,0,0,4,2,1,2,4,2,2,2,0,1,0,0,2,0,1,4,2,1,1,1,2,1,1,2,4,4,4,1,4,1,0,2,1,2,1,2,4,1,4,4,4,0,0,0,2,4,1,1,0,2,2,1,2,0,0,2,2,2,0,0,1,1,0,0,0,0,0,0,0,0,0,0,0,0,0,0,0,0,0,0,0,0,0,0,0,0,0,0,0,0,0,0,0,0,0,0,0,0,0,0,0,0,0,0,0,0,0,0,0,0,0,0,0,0,0,0,0,0,0,0,0,0,0,0,0,0,0,0,0,0,0,0,0,0,0,0,0,0,0,0,0,0,0,0,0,0,0,0,0,0,0,0,0,0,0,0,0,0,0,0,0,0,0,0,0,0,0,0,0,0,0,0,0,0,0,0,0,0,0,0,0,0,0,0],"split_type":[0,0,0,0,0,0,0,0,0,0,0,0,0,0,0,0,0,0,0,0,0,0,0,0,0,0,0,0,0,0,0,0,0,0,0,0,0,0,0,0,0,0,0,0,0,0,0,0,0,0,0,0,0,0,0,0,0,0,0,0,0,0,0,0,0,0,0,0,0,0,0,0,0,0,0,0,0,0,0,0,0,0,0,0,0,0,0,0,0,0,0,0,0,0,0,0,0,0,0,0,0,0,0,0,0,0,0,0,0,0,0,0,0,0,0,0,0,0,0,0,0,0,0,0,0,0,0,0,0,0,0,0,0,0,0,0,0,0,0,0,0,0,0,0,0,0,0,0,0,0,0,0,0,0,0,0,0,0,0,0,0,0,0,0,0,0,0,0,0,0,0,0,0,0,0,0,0,0,0,0,0,0,0,0,0,0,0,0,0,0,0,0,0,0,0,0,0,0,0,0,0,0,0,0,0,0,0,0,0,0,0,0,0,0,0,0,0,0,0,0,0,0,0,0,0,0,0,0,0,0,0,0,0,0,0,0,0,0,0,0,0,0,0,0,0,0,0,0,0,0,0,0,0,0,0,0,0,0,0,0,0,0,0,0,0,0,0,0,0,0,0,0,0,0,0,0,0,0,0,0,0,0,0,0,0,0,0,0,0,0,0,0,0,0,0,0,0,0,0,0,0,0,0,0,0,0,0,0,0,0,0,0,0,0,0,0,0,0,0,0,0],"sum_hessian":[2.4502E4,1.2175E4,1.2327E4,2.83E3,9.345E3,2.203E3,1.0124E4,1.23E3,1.6E3,6.056E3,3.289E3,4.4E2,1.763E3,6.151E3,3.973E3,5.48E2,6.82E2,1.248E3,3.52E2,4.734E3,1.322E3,9.6E1,3.193E3,2.71E2,1.69E2,1.55E2,1.608E3,4.7E3,1.451E3,2.878E3,1.095E3,4.39E2,1.09E2,5.03E2,1.79E2,1.106E3,1.42E2,9.2E1,2.6E2,1.427E3,3.307E3,4.38E2,8.84E2,4.41E2,2.752E3,1.88E2,8.3E1,9.3E1,7.6E1,8.9E1,6.6E1,9.66E2,6.42E2,3.793E3,9.07E2,3.16E2,1.135E3,2.615E3,2.63E2,4.75E2,6.2E2,1.57E2,2.82E2,3.7E1,7.2E1,3.35E2,1.68E2,7E0,1.72E2,6.38E2,4.68E2,1.9E1,7.3E1,5.4E1,2.06E2,4.77E2,9.5E2,3.14E2,2.993E3,3.09E2,1.29E2,5.05E2,3.79E2,9.7E1,3.44E2,5.47E2,2.205E3,1.7E1,1.71E2,8.2E1,1.1E1,2E1,5.6E1,2.6E1,6.3E1,6.45E2,3.21E2,5.13E2,1.29E2,3.293E3,5E2,6.01E2,3.06E2,1.61E2,1.55E2,7.86E2,3.49E2,1.15E3,1.465E3,2.24E2,3.9E1,4.27E2,4.8E1,5.54E2,6.6E1,1.49E2,8E0,2.01E2,8.1E1,1.74E2,1.61E2,1.01E2,6.7E1,2.1E1,1.51E2,1.3E1,6.25E2,4.18E2,5E1,1E1,9E0,6.8E1,5E0,3.6E1,1.8E1,1.4E1,1.92E2,1.22E2,3.55E2,9.6E1,8.54E2,3.6E1,2.78E2,1.444E3,1.549E3,2E2,1.09E2,3.8E1,9.1E1,1.48E2,3.57E2,2.43E2,1.36E2,3.3E1,3.11E2,3.16E2,2.31E2,1.047E3,1.158E3,9E1,8.1E1,1.76E2,4.69E2,2.31E2,9E1,1.6E1,4.97E2,1.5E1,1.14E2,8.46E2,2.447E3,2.32E2,2.68E2,2.54E2,3.47E2,6.9E1,2.37E2,1.49E2,1.2E1,6.5E1,9E1,5.31E2,2.55E2,2.17E2,1.32E2,2.3E1,1.127E3,4.4E2,1.025E3,1.2E2,1.04E2,1.7E1,2.2E1,1.23E2,3.04E2,1.4E1,3.4E1,2.74E2,2.8E2,6.1E1,5E0,3.7E1,1.12E2,1.73E2,2.8E1,7.3E1,8E0,1.28E2,4.6E1,5.2E1,1.09E2,2.5E1,4.2E1,6.5E1,8.6E1,5.3E1,5.72E2,3.98E2,2E1,2.4E1,2.6E1,2.2E1,4.6E1,6E1,6.2E1,6.2E1,2.93E2,4.1E1,5.5E1,8.2E1,7.72E2,2.6E1,1E1,3.9E1,2.39E2,5.66E2,8.78E2,2.04E2,1.345E3,8.9E1,2E1,1.4E1,1.34E2,1.33E2,1.1E2,1.07E2,2.9E1,7E0,2.6E1,1.86E2,1.25E2,5.3E1,2.63E2,4.2E1,1.89E2,7.45E2,3.02E2,1.1E3,5.8E1,1.4E1,7.6E1,2.5E1,5.6E1,3.5E1,1.41E2,3.4E2,1.29E2,2.5E1,2.06E2,2.6E1,6.4E1,9E0,7E0,3.4E1,4.63E2,1.02E2,1.2E1,5.62E2,2.84E2,1.27E2,2.32E3,1.8E1,2.14E2,1.73E2,9.5E1,2.7E1,2.27E2,1.01E2,2.46E2,2.9E1,4E1,2.18E2,1.9E1,1.38E2,1.1E1,4.21E2,1.1E2,1.95E2,6E1,2.03E2,1.4E1,2.7E1,1.05E2,3.97E2,7.3E2,3.3E2,1.1E2,1.9E2,8.35E2,6.3E1,5.7E1,1.7E1,5E0,8.6E1,3.7E1,2.79E2,2.5E1,1.33E2,1.41E2,1.52E2,1.28E2],"tree_param":{"num_deleted":"0","num_feature":"6","num_nodes":"321","size_leaf_vector":"1"}},{"base_weights":[-8.4866997E-4,-5.7907358E-2,5.7058927E-2,-2.1657573E-1,-1.0870668E-2,9.049113E-2,-1.9452458E-2,-1.5264973E-1,-3.2751307E-1,2.3013161E-2,-7.267149E-2,-5.724144E-3,1.5111725E-1,-1.0957752E-1,6.4780556E-2,5.0144456E-2,-1.7684999E-1,-2.2256793E-1,-4.9544618E-1,-1.3766817E-2,1.5418263E-1,8.2424805E-2,-9.8203085E-2,-7.4533835E-2,1.13982E-1,2.5140053E-1,9.915446E-2,7.311047E-2,-1.4475831E-1,2.4212591E-1,3.5309073E-2,-8.845242E-3,1.0088116E-1,-4.582227E-2,-2.3241806E-1,-2.3922846E-1,8.00195E-4,-8.748597E-1,-4.031782E-1,7.191852E-2,-4.0419195E-2,6.096675E-2,1.9804226E-1,-9.71869E-3,1.007978E-1,-2.3551361E-1,-6.535159E-2,-1.406669E-1,4.2192966E-2,1.5170404E-1,-1.3623014E-1,8.62849E-2,2.9372478E-1,8.144536E-3,2.0115009E-1,-1.0888995E-2,1.1366782E-1,2.38679E-2,-1.6535248E-1,1.5355787E-1,1.3881384E-2,-9.26376E-2,1.0089042E-1,4.016507E-3,-1.14433415E-1,2.0228378E-2,-1.5937948E-1,-3.0387267E-1,-1.4098303E-1,-2.6411486E-1,-4.388364E-2,-4.8284146E-1,-9.543107E-1,-2.65524E-1,-4.8581964E-1,1.6365176E-2,1.4006095E-1,1.2766074E-1,-5.545252E-2,5.571033E-3,-2.299107E-1,7.00897E-3,1.5005742E-1,1.40706785E-2,8.123166E-2,-9.7752854E-2,-4.2401358E-1,-1.4232193E-1,1.20022185E-2,-2.0843549E-1,-9.173086E-2,1.206595E-1,-3.97713E-2,1.0211579E-1,1.1272618E-2,-3.4323698E-1,9.937778E-3,-1.5270458E-4,7.3325997E-3,3.308526E-1,1.707979E-1,-4.1212417E-2,1.5331328E-1,1.6859126E-1,5.0624764E-1,1.7375998E-2,9.140199E-2,-7.9801284E-2,1.9737963E-1,-3.1372008E-1,-1.5121415E-1,-3.9194512E-1,2.17411E-1,-1.4402562E-1,1.1889543E-1,2.2384876E-1,1.5330383E-2,-1.0734777E-2,2.0277654E-3,-1.9354005E-1,9.709511E-2,-6.0221035E-4,-2.5249872E-1,-3.76146E-1,-2.2517401E-1,-3.3573765E-2,-2.7436763E-1,-2.133648E-1,-3.3402097E-1,3.4202195E-3,-1.8351926E-1,-2.2143262E-2,-2.5698994E-3,-2.5673307E-2,-4.3512817E-2,-1.1954323E-2,-1.5916668E-1,-2.2698177E-2,-4.4810107E-1,7.385737E-2,-1.5405771E-1,2.1731003E-1,8.0321714E-2,-7.308208E-2,1.5672228E-1,-6.836436E-2,6.1147343E-2,5.683834E-3,-1.102137E-2,1.2332283E-2,6.6698636E-3,1.1617792E-1,3.591273E-4,-1.5475341E-2,-8.561267E-2,-2.7849022E-2,-5.324896E-1,-6.6936955E-2,-4.3545124E-1,3.618783E-2,-3.8190186E-1,-1.3142954E-1,-4.0133455E-1,5.7639074E-2,-2.2420093E-1,7.9197725E-3,2.9137398E-3,3.18055E-3,-6.333783E-2,2.4652302E-1,3.9159276E-2,-4.209362E-1,1.531678E-3,-3.3872522E-2,8.614387E-3,2.7378947E-1,4.412987E-1,2.8808767E-1,6.712158E-2,1.2110102E-2,-3.6148483E-1,1.14974566E-1,1.99469E-2,8.648651E-2,2.600359E-1,6.3784516E-1,2.1450399E-1,-1.3752553E-1,1.22399114E-1,-1.250102E-2,-2.7093668E-2,1.2275951E-1,1.7193848E-2,-3.9527017E-1,6.620171E-3,7.5780773E-3,-1.6015168E-1,-6.640773E-3,-2.3445511E-2,4.1457084E-3,5.035555E-1,-1.1862679E-1,-2.785076E-2,1.7444508E-2,1.5921148E-2,1.1233684E-1,3.174603E-1,-2.971896E-1,5.884669E-2,4.1066776E-3,-8.121351E-3,-2.379081E-3,4.3613953E-3,-1.2679446E-2,-5.296048E-3,-9.0983845E-3,-1.3226838E-2,-2.7790254E-3,-8.034162E-3,-2.5221847E-3,3.5962118E-3,-4.739342E-4,-1.15098385E-2,-9.658069E-4,-7.0426473E-3,-9.183753E-3,-2.0957258E-2,-1.9560377E-4,-1.3280499E-2,2.0754964E-3,-1.2974825E-2,-1.498317E-2,-9.314E-3,5.4400642E-3,5.2410644E-4,-8.591279E-3,-2.0890671E-3,9.272329E-3,1.9082039E-3,5.1803753E-4,8.182388E-3,1.1236958E-3,-1.3371178E-2,1.5415009E-2,2.7285633E-3,-1.734581E-3,-1.197394E-2,6.805848E-3,1.10814624E-4,6.888436E-3,-2.0216482E-3,2.58762E-3,1.1825056E-2,2.687844E-4,-4.7730426E-3,-1.2524158E-2,1.5743851E-3,-3.482522E-2,-1.4819433E-2,-5.898262E-3,-3.4876994E-5,1.5450359E-3,-1.7290318E-2,5.456359E-3,-1.629541E-4,-1.3080759E-2,7.501347E-3,-7.820617E-3,1.5280585E-4,-3.6737073E-2,-1.0488292E-2,3.2639343E-3,-1.1500258E-3,-1.2093647E-3,-8.832371E-3,7.236038E-4,-2.9782464E-3,4.12283E-3,1.2676576E-2,1.9627411E-4,5.153471E-3,-1.710348E-2,-4.490543E-3,3.3106713E-3,-3.295965E-3,7.194176E-3,1.7289339E-2,1.5816271E-2,1.109996E-2,7.4412595E-3,1.595417E-2,3.0340063E-3,-1.0082962E-2,1.4933E-3,-4.5574787E-3,-8.362407E-3,-1.7825853E-2,6.0255663E-3,-2.432188E-3,1.0208699E-3,5.1378165E-3,1.2722069E-2,6.54569E-3,2.9803899E-3,2.077009E-2,1.339059E-2,-1.0559754E-3,-1.0724375E-2,1.3195767E-2,-3.3458725E-3,4.4071963E-3,1.0193784E-2,-1.8513807E-3,-1.414303E-2,5.8342875E-3,-1.387382E-2,-6.6251187E-3,-4.20654E-3,-8.010794E-3,2.2242628E-2,6.8000364E-3,1.3032248E-3,-5.213202E-3,-7.6191087E-4,1.3433155E-2,-1.1601609E-3,8.5731195E-3,1.1899526E-2,6.6388226E-3,1.9085273E-3,-1.5581707E-2,-5.7631347E-4,8.398877E-3],"categories":[],"categories_nodes":[],"categories_segments":[],"categories_sizes":[],"default_left":[0,0,0,0,0,0,0,0,0,0,0,0,0,0,0,0,0,0,0,0,0,0,0,0,0,0,0,0,0,0,0,0,0,0,0,0,0,0,0,0,0,0,0,0,0,0,0,0,0,0,0,0,0,0,0,0,0,0,0,0,0,0,0,0,0,0,0,0,0,0,0,0,0,0,0,0,0,0,0,0,0,0,0,0,0,0,0,0,0,0,0,0,0,0,0,0,0,0,0,0,0,0,0,0,0,0,0,0,0,0,0,0,0,0,0,0,0,0,0,0,0,0,0,0,0,0,0,0,0,0,0,0,0,0,0,0,0,0,0,0,0,0,0,0,0,0,0,0,0,0,0,0,0,0,0,0,0,0,0,0,0,0,0,0,0,0,0,0,0,0,0,0,0,0,0,0,0,0,0,0,0,0,0,0,0,0,0,0,0,0,0,0,0,0,0,0,0,0,0,0,0,0,0,0,0,0,0,0,0,0,0,0,0,0,0,0,0,0,0,0,0,0,0,0,0,0,0,0,0,0,0,0,0,0,0,0,0,0,0,0,0,0,0,0,0,0,0,0,0,0,0,0,0,0,0,0,0,0,0,0,0,0,0,0,0,0,0,0,0,0,0,0,0,0,0,0,0,0,0,0,0,0,0,0,0,0,0,0,0,0,0,0,0,0,0,0,0,0,0,0,0,0,0,0,0,0,0,0,0,0,0,0,0,0,0,0,0,0,0,0,0,0,0,0,0,0,0,0,0,0,0,0,0],"id":5,"left_children":[1,3,5,7,9,11,13,15,17,19,21,23,25,27,29,31,33,35,37,39,41,43,45,47,49,51,53,55,57,59,61,-1,63,65,67,69,-1,71,73,75,77,79,81,-1,83,85,87,89,91,93,95,97,99,101,103,-1,105,107,109,111,-1,113,115,-1,117,119,121,123,125,127,129,131,133,135,137,139,141,143,145,-1,147,-1,149,-1,151,153,155,157,159,161,163,165,167,169,-1,171,-1,173,-1,175,177,179,181,183,185,-1,187,189,191,193,195,197,199,201,203,205,207,-1,-1,209,211,-1,213,215,217,219,221,223,225,-1,227,-1,-1,-1,-1,-1,229,-1,231,233,235,237,239,241,243,245,247,-1,-1,249,-1,251,-1,-1,253,255,257,259,261,263,265,267,269,271,273,-1,-1,-1,275,277,279,281,-1,283,-1,285,287,289,291,293,295,297,-1,299,301,303,305,307,309,-1,311,313,-1,315,-1,-1,317,-1,-1,-1,319,321,-1,-1,323,325,327,329,331,-1,-1,-1,-1,-1,-1,-1,-1,-1,-1,-1,-1,-1,-1,-1,-1,-1,-1,-1,-1,-1,-1,-1,-1,-1,-1,-1,-1,-1,-1,-1,-1,-1,-1,-1,-1,-1,-1,-1,-1,-1,-1,-1,-1,-1,-1,-1,-1,-1,-1,-1,-1,-1,-1,-1,-1,-1,-1,-1,-1,-1,-1,-1,-1,-1,-1,-1,-1,-1,-1,-1,-1,-1,-1,-1,-1,-1,-1,-1,-1,-1,-1,-1,-1,-1,-1,-1,-1,-1,-1,-1,-1,-1,-1,-1,-1,-1,-1,-1,-1,-1,-1,-1,-1,-1,-1,-1,-1,-1,-1,-1,-1,-1,-1,-1,-1,-1,-1,-1,-1,-1,-1,-1,-1],"loss_changes":[8.144684E1,9.266117E1,3.1295654E1,2.0083572E1,2.005847E1,4.9664375E1,2.8255089E1,8.857403E0,1.816558E1,2.9850744E1,1.3439926E1,2.7124512E1,2.7192116E1,1.15665245E1,1.0047489E1,3.407909E0,1.1718971E1,2.6639767E0,1.3580345E1,1.1040115E1,5.527729E0,3.616546E0,1.3124735E1,1.6147411E1,1.1365758E1,1.24279785E1,3.1949123E1,5.1879206E0,5.2408047E0,5.28207E0,1.3862747E1,0E0,1.2162179E0,3.6109776E0,7.346493E0,2.9052658E0,0E0,1.9374809E0,3.5340614E0,4.3397202E0,9.323391E0,1.5825544E1,1.5378075E0,0E0,3.2760801E0,1.4552509E1,1.4005396E1,4.4081783E0,4.873408E0,1.1571835E1,1.5403915E1,4.9891567E0,6.4152527E0,1.3046777E1,1.6036919E1,0E0,2.7146385E0,2.9837415E0,2.7718277E0,6.947132E0,0E0,6.104471E0,1.1484756E1,0E0,1.0431705E0,5.030454E0,2.2909837E0,3.5213776E0,7.1255045E0,1.8161278E0,1.5421793E0,1.4575698E0,1.8384628E0,1.6758661E0,1.7036972E0,6.2135024E0,2.359168E0,1.7791238E0,5.100361E0,0E0,7.6217976E0,0E0,3.9289255E0,0E0,1.0587461E0,1.6105199E0,1.0170094E1,2.6023857E1,1.11982975E1,8.250851E0,1.5387457E1,1.2798338E0,1.2813804E0,7.7816544E0,0E0,3.3914795E0,0E0,2.3057036E0,0E0,6.7361755E0,4.00568E0,2.3213017E1,8.984966E0,1.0999313E1,5.8524475E0,0E0,1.8334334E0,1.8354552E0,1.6680241E0,5.142476E0,4.4760647E0,1.22257E0,3.94275E0,8.874307E0,5.2305574E0,4.6409225E0,8.789305E0,0E0,0E0,2.1025393E0,1.9279261E0,0E0,1.2954588E0,1.4185104E0,1.7042017E0,2.1565382E0,6.267668E0,1.1976528E0,2.043787E0,0E0,1.6943707E0,0E0,0E0,0E0,0E0,0E0,4.398923E0,0E0,1.102665E0,2.8694546E0,1.7673533E0,3.1398554E0,3.538155E0,1.6230783E0,6.177392E0,1.0608152E1,3.2172155E0,0E0,0E0,2.3885684E0,0E0,2.386705E0,0E0,0E0,2.2115223E0,1.6493961E0,3.9271774E0,8.008579E0,1.656422E1,6.7133913E0,2.4348392E0,7.077639E0,6.3423576E0,1.8011833E0,5.3075027E0,0E0,0E0,0E0,1.0081482E0,4.934971E0,2.5856698E0,3.6374645E0,0E0,2.3466752E0,0E0,7.263958E0,2.065216E0,1.380867E0,2.4614248E0,7.211458E0,3.5696392E0,7.272642E0,0E0,3.4406252E0,4.6712036E0,3.070961E0,2.9103835E0,4.094173E0,1.312037E0,0E0,1.1767833E0,2.3502064E0,0E0,1.0816164E0,0E0,0E0,2.5254383E0,0E0,0E0,0E0,2.3347006E0,3.9221663E0,0E0,0E0,1.6351107E0,5.4062004E0,1.7627792E0,6.3665996E0,9.791615E0,0E0,0E0,0E0,0E0,0E0,0E0,0E0,0E0,0E0,0E0,0E0,0E0,0E0,0E0,0E0,0E0,0E0,0E0,0E0,0E0,0E0,0E0,0E0,0E0,0E0,0E0,0E0,0E0,0E0,0E0,0E0,0E0,0E0,0E0,0E0,0E0,0E0,0E0,0E0,0E0,0E0,0E0,0E0,0E0,0E0,0E0,0E0,0E0,0E0,0E0,0E0,0E0,0E0,0E0,0E0,0E0,0E0,0E0,0E0,0E0,0E0,0E0,0E0,0E0,0E0,0E0,0E0,0E0,0E0,0E0,0E0,0E0,0E0,0E0,0E0,0E0,0E0,0E0,0E0,0E0,0E0,0E0,0E0,0E0,0E0,0E0,0E0,0E0,0E0,0E0,0E0,0E0,0E0,0E0,0E0,0E0,0E0,0E0,0E0,0E0,0E0,0E0,0E0,0E0,0E0,0E0,0E0,0E0,0E0,0E0,0E0,0E0,0E0,0E0,0E0,0E0,0E0,0E0,0E0,0E0,0E0,0E0,0E0,0E0],"parents":[2147483647,0,0,1,1,2,2,3,3,4,4,5,5,6,6,7,7,8,8,9,9,10,10,11,11,12,12,13,13,14,14,15,15,16,16,17,17,18,18,19,19,20,20,21,21,22,22,23,23,24,24,25,25,26,26,27,27,28,28,29,29,30,30,32,32,33,33,34,34,35,35,37,37,38,38,39,39,40,40,41,41,42,42,44,44,45,45,46,46,47,47,48,48,49,49,50,50,51,51,52,52,53,53,54,54,56,56,57,57,58,58,59,59,61,61,62,62,64,64,65,65,66,66,67,67,68,68,69,69,70,70,71,71,72,72,73,73,74,74,75,75,76,76,77,77,78,78,80,80,82,82,84,84,85,85,86,86,87,87,88,88,89,89,90,90,91,91,92,92,93,93,95,95,97,97,99,99,100,100,101,101,102,102,103,103,104,104,106,106,107,107,108,108,109,109,110,110,111,111,112,112,113,113,114,114,115,115,116,116,119,119,120,120,122,122,123,123,124,124,125,125,126,126,127,127,128,128,130,130,136,136,138,138,139,139,140,140,141,141,142,142,143,143,144,144,145,145,146,146,149,149,151,151,154,154,155,155,156,156,157,157,158,158,159,159,160,160,161,161,162,162,163,163,164,164,168,168,169,169,170,170,171,171,173,173,175,175,176,176,177,177,178,178,179,179,180,180,181,181,183,183,184,184,185,185,186,186,187,187,188,188,190,190,191,191,193,193,196,196,200,200,201,201,204,204,205,205,206,206,207,207,208,208],"right_children":[2,4,6,8,10,12,14,16,18,20,22,24,26,28,30,32,34,36,38,40,42,44,46,48,50,52,54,56,58,60,62,-1,64,66,68,70,-1,72,74,76,78,80,82,-1,84,86,88,90,92,94,96,98,100,102,104,-1,106,108,110,112,-1,114,116,-1,118,120,122,124,126,128,130,132,134,136,138,140,142,144,146,-1,148,-1,150,-1,152,154,156,158,160,162,164,166,168,170,-1,172,-1,174,-1,176,178,180,182,184,186,-1,188,190,192,194,196,198,200,202,204,206,208,-1,-1,210,212,-1,214,216,218,220,222,224,226,-1,228,-1,-1,-1,-1,-1,230,-1,232,234,236,238,240,242,244,246,248,-1,-1,250,-1,252,-1,-1,254,256,258,260,262,264,266,268,270,272,274,-1,-1,-1,276,278,280,282,-1,284,-1,286,288,290,292,294,296,298,-1,300,302,304,306,308,310,-1,312,314,-1,316,-1,-1,318,-1,-1,-1,320,322,-1,-1,324,326,328,330,332,-1,-1,-1,-1,-1,-1,-1,-1,-1,-1,-1,-1,-1,-1,-1,-1,-1,-1,-1,-1,-1,-1,-1,-1,-1,-1,-1,-1,-1,-1,-1,-1,-1,-1,-1,-1,-1,-1,-1,-1,-1,-1,-1,-1,-1,-1,-1,-1,-1,-1,-1,-1,-1,-1,-1,-1,-1,-1,-1,-1,-1,-1,-1,-1,-1,-1,-1,-1,-1,-1,-1,-1,-1,-1,-1,-1,-1,-1,-1,-1,-1,-1,-1,-1,-1,-1,-1,-1,-1,-1,-1,-1,-1,-1,-1,-1,-1,-1,-1,-1,-1,-1,-1,-1,-1,-1,-1,-1,-1,-1,-1,-1,-1,-1,-1,-1,-1,-1,-1,-1,-1,-1,-1,-1],"split_conditions":[3.787549E1,-9.381424E1,2.019E3,2.017E3,-9.099364E1,2.011E3,2.022E3,3.6671165E1,3.712092E1,-9.132741E1,2.008E3,-9.1844505E1,-9.3215904E1,-9.43474E1,-9.422475E1,-9.460449E1,-9.4399155E1,-9.3846596E1,-9.444286E1,3.7082027E1,3.7172016E1,-9.098985E1,2.01E3,3.973463E1,-9.029586E1,2.012E3,-9.186902E1,3.799434E1,3.8007202E1,-9.4371E1,-9.285395E1,-8.845242E-3,2.014E3,3.7170296E1,-9.42741E1,3.71043E1,8.00195E-4,2.018E3,2.019E3,2.011E3,-9.341675E1,3.715408E1,-9.12045E1,-9.71869E-3,3.6748142E1,2.009E3,-9.029586E1,-9.341675E1,-9.310732E1,-9.0353424E1,3.88234E1,3.9061604E1,2.017E3,3.971145E1,3.9620903E1,-1.0888995E-2,3.8716465E1,2.021E3,3.8220703E1,3.893215E1,1.3881384E-2,3.9793846E1,3.8591496E1,4.016507E-3,2.015E3,3.6708004E1,-9.4563545E1,2.014E3,2.015E3,3.6939194E1,-9.451947E1,3.7506702E1,-9.452977E1,-9.42741E1,3.7147E1,2.009E3,3.6934498E1,-9.378033E1,-9.140456E1,5.571033E-3,-9.129184E1,7.00897E-3,3.73621E1,1.40706785E-2,3.7712643E1,3.656134E1,3.761018E1,-9.0487564E1,3.778467E1,-9.378033E1,3.8924E1,3.9977703E1,2.006E3,2.007E3,1.1272618E-2,-9.0177E1,9.937778E-3,-9.341675E1,7.3325997E-3,3.93417E1,-9.43283E1,3.9454395E1,-9.197595E1,-9.077385E1,-9.17263E1,1.7375998E-2,-9.513271E1,-9.403706E1,3.7980503E1,-9.117558E1,3.834852E1,3.799434E1,4.0349293E1,3.974584E1,4.0006275E1,3.799434E1,-9.2655594E1,-1.0734777E-2,2.0277654E-3,2.011E3,2.011E3,-6.0221035E-4,-9.4538536E1,-9.43161E1,2.015E3,3.7455E1,-9.403706E1,2.019E3,-9.4058E1,3.4202195E-3,3.710846E1,-2.2143262E-2,-2.5698994E-3,-2.5673307E-2,-4.3512817E-2,-1.1954323E-2,3.7741478E1,-2.2698177E-2,-9.42741E1,2.006E3,-9.337032E1,-9.186902E1,-9.156255E1,2.018E3,-9.37191E1,-9.1407555E1,-9.1361534E1,5.683834E-3,-1.102137E-2,3.7182194E1,6.6698636E-3,3.7684002E1,3.591273E-4,-1.5475341E-2,-8.9822655E1,-9.098985E1,3.762987E1,3.6952206E1,3.7279926E1,2.015E3,3.7840374E1,-9.444286E1,3.8206493E1,3.8759583E1,-9.289805E1,7.9197725E-3,2.9137398E-3,3.18055E-3,3.9977703E1,3.893215E1,-9.044097E1,2.01E3,1.531678E-3,-9.438528E1,8.614387E-3,-9.341675E1,2.014E3,4.020026E1,4.041307E1,-9.2160255E1,2.017E3,2.016E3,1.99469E-2,3.9061604E1,3.812377E1,2.012E3,2.017E3,4.011718E1,3.893215E1,-1.250102E-2,-9.307623E1,-9.403706E1,1.7193848E-2,-9.29697E1,6.620171E-3,7.5780773E-3,-9.1020065E1,-6.640773E-3,-2.3445511E-2,4.1457084E-3,-9.477738E1,3.8007202E1,-2.785076E-2,1.7444508E-2,4.04654E1,-9.092146E1,-9.2655594E1,2.023E3,3.950937E1,4.1066776E-3,-8.121351E-3,-2.379081E-3,4.3613953E-3,-1.2679446E-2,-5.296048E-3,-9.0983845E-3,-1.3226838E-2,-2.7790254E-3,-8.034162E-3,-2.5221847E-3,3.5962118E-3,-4.739342E-4,-1.15098385E-2,-9.658069E-4,-7.0426473E-3,-9.183753E-3,-2.0957258E-2,-1.9560377E-4,-1.3280499E-2,2.0754964E-3,-1.2974825E-2,-1.498317E-2,-9.314E-3,5.4400642E-3,5.2410644E-4,-8.591279E-3,-2.0890671E-3,9.272329E-3,1.9082039E-3,5.1803753E-4,8.182388E-3,1.1236958E-3,-1.3371178E-2,1.5415009E-2,2.7285633E-3,-1.734581E-3,-1.197394E-2,6.805848E-3,1.10814624E-4,6.888436E-3,-2.0216482E-3,2.58762E-3,1.1825056E-2,2.687844E-4,-4.7730426E-3,-1.2524158E-2,1.5743851E-3,-3.482522E-2,-1.4819433E-2,-5.898262E-3,-3.4876994E-5,1.5450359E-3,-1.7290318E-2,5.456359E-3,-1.629541E-4,-1.3080759E-2,7.501347E-3,-7.820617E-3,1.5280585E-4,-3.6737073E-2,-1.0488292E-2,3.2639343E-3,-1.1500258E-3,-1.2093647E-3,-8.832371E-3,7.236038E-4,-2.9782464E-3,4.12283E-3,1.2676576E-2,1.9627411E-4,5.153471E-3,-1.710348E-2,-4.490543E-3,3.3106713E-3,-3.295965E-3,7.194176E-3,1.7289339E-2,1.5816271E-2,1.109996E-2,7.4412595E-3,1.595417E-2,3.0340063E-3,-1.0082962E-2,1.4933E-3,-4.5574787E-3,-8.362407E-3,-1.7825853E-2,6.0255663E-3,-2.432188E-3,1.0208699E-3,5.1378165E-3,1.2722069E-2,6.54569E-3,2.9803899E-3,2.077009E-2,1.339059E-2,-1.0559754E-3,-1.0724375E-2,1.3195767E-2,-3.3458725E-3,4.4071963E-3,1.0193784E-2,-1.8513807E-3,-1.414303E-2,5.8342875E-3,-1.387382E-2,-6.6251187E-3,-4.20654E-3,-8.010794E-3,2.2242628E-2,6.8000364E-3,1.3032248E-3,-5.213202E-3,-7.6191087E-4,1.3433155E-2,-1.1601609E-3,8.5731195E-3,1.1899526E-2,6.6388226E-3,1.9085273E-3,-1.5581707E-2,-5.7631347E-4,8.398877E-3],"split_indices":[1,2,4,4,2,4,4,1,1,2,4,2,2,2,2,2,2,2,2,1,1,2,4,1,2,4,2,1,1,2,2,0,4,1,2,1,0,4,4,4,2,1,2,0,1,4,2,2,2,2,1,1,4,1,1,0,1,4,1,1,0,1,1,0,4,1,2,4,4,1,2,1,2,2,1,4,1,2,2,0,2,0,1,0,1,1,1,2,1,2,1,1,4,4,0,2,0,2,0,1,2,1,2,2,2,0,2,2,1,2,1,1,1,1,1,1,2,0,0,4,4,0,2,2,4,1,2,4,2,0,1,0,0,0,0,0,1,0,2,4,2,2,2,4,2,2,2,0,0,1,0,1,0,0,2,2,1,1,1,4,1,2,1,1,2,0,0,0,1,1,2,4,0,2,0,2,4,1,1,2,4,4,0,1,1,4,4,1,1,0,2,2,0,2,0,0,2,0,0,0,2,1,0,0,1,2,2,4,1,0,0,0,0,0,0,0,0,0,0,0,0,0,0,0,0,0,0,0,0,0,0,0,0,0,0,0,0,0,0,0,0,0,0,0,0,0,0,0,0,0,0,0,0,0,0,0,0,0,0,0,0,0,0,0,0,0,0,0,0,0,0,0,0,0,0,0,0,0,0,0,0,0,0,0,0,0,0,0,0,0,0,0,0,0,0,0,0,0,0,0,0,0,0,0,0,0,0,0,0,0,0,0,0,0,0,0,0,0,0,0,0,0,0,0,0,0,0,0,0,0,0,0,0],"split_type":[0,0,0,0,0,0,0,0,0,0,0,0,0,0,0,0,0,0,0,0,0,0,0,0,0,0,0,0,0,0,0,0,0,0,0,0,0,0,0,0,0,0,0,0,0,0,0,0,0,0,0,0,0,0,0,0,0,0,0,0,0,0,0,0,0,0,0,0,0,0,0,0,0,0,0,0,0,0,0,0,0,0,0,0,0,0,0,0,0,0,0,0,0,0,0,0,0,0,0,0,0,0,0,0,0,0,0,0,0,0,0,0,0,0,0,0,0,0,0,0,0,0,0,0,0,0,0,0,0,0,0,0,0,0,0,0,0,0,0,0,0,0,0,0,0,0,0,0,0,0,0,0,0,0,0,0,0,0,0,0,0,0,0,0,0,0,0,0,0,0,0,0,0,0,0,0,0,0,0,0,0,0,0,0,0,0,0,0,0,0,0,0,0,0,0,0,0,0,0,0,0,0,0,0,0,0,0,0,0,0,0,0,0,0,0,0,0,0,0,0,0,0,0,0,0,0,0,0,0,0,0,0,0,0,0,0,0,0,0,0,0,0,0,0,0,0,0,0,0,0,0,0,0,0,0,0,0,0,0,0,0,0,0,0,0,0,0,0,0,0,0,0,0,0,0,0,0,0,0,0,0,0,0,0,0,0,0,0,0,0,0,0,0,0,0,0,0,0,0,0,0,0,0,0,0,0,0,0,0,0,0,0,0,0,0,0,0,0,0,0,0,0,0,0,0,0,0,0,0,0,0,0,0],"sum_hessian":[2.4648E4,1.2415E4,1.2233E4,2.838E3,9.577E3,8.513E3,3.72E3,1.802E3,1.036E3,6.186E3,3.391E3,3.291E3,5.222E3,1.797E3,1.923E3,1.92E2,1.61E3,6.39E2,3.97E2,4.832E3,1.354E3,4.79E2,2.912E3,2.09E3,1.201E3,1.781E3,3.441E3,2.9E2,1.507E3,2.73E2,1.65E3,2.4E1,1.68E2,4.8E2,1.13E3,5.99E2,4E1,7.6E1,3.21E2,1.146E3,3.686E3,4.34E2,9.2E2,2E1,4.59E2,5.61E2,2.351E3,1.334E3,7.56E2,1.044E3,1.57E2,3.64E2,1.417E3,1.819E3,1.622E3,2.4E1,2.66E2,1.64E2,1.343E3,1.96E2,7.7E1,5.59E2,1.091E3,1.46E2,2.2E1,3.04E2,1.76E2,6.33E2,4.97E2,5.31E2,6.8E1,1.4E1,6.2E1,1.22E2,1.99E2,6.32E2,5.14E2,3.02E2,3.384E3,3.04E2,1.3E2,5.26E2,3.94E2,2.2E1,4.37E2,3.25E2,2.36E2,1.178E3,1.173E3,5.58E2,7.76E2,3.86E2,3.7E2,8.56E2,1.88E2,1.09E2,4.8E1,2.36E2,1.28E2,1.087E3,3.3E2,1.358E3,4.61E2,1.467E3,1.55E2,1.1E1,2.55E2,1.03E2,6.1E1,1.15E2,1.228E3,2E1,1.76E2,4.5E2,1.09E2,4.47E2,6.44E2,9E0,1.3E1,8E1,2.24E2,7.1E1,1.05E2,3.28E2,3.05E2,2.76E2,2.21E2,3.1E2,2.21E2,3.2E1,3.6E1,8E0,6E0,5.4E1,8E0,5.3E1,6.9E1,2.2E1,1.77E2,4.73E2,1.59E2,2.23E2,2.91E2,3.8E1,2.64E2,3.047E3,3.37E2,3.2E1,9.8E1,1.36E2,2.58E2,2.9E2,1.47E2,8E0,3.17E2,5.1E1,1.85E2,9.38E2,2.4E2,1.106E3,6.7E1,4E2,1.58E2,3.65E2,4.11E2,5.3E1,3.33E2,5.1E1,3.19E2,2.59E2,5.97E2,9.1E1,1.8E1,2.12E2,2.4E1,7.19E2,3.68E2,1.54E2,1.76E2,1.165E3,1.93E2,4.3E2,3.1E1,7.74E2,6.93E2,1.06E2,4.9E1,3E1,2.25E2,1.3E1,9E1,5.2E1,9E0,1E2,1.5E1,2.6E1,1.202E3,1.5E1,5E0,1.39E2,3.7E1,4.37E2,1.3E1,1.9E1,9E1,2.05E2,2.42E2,7.8E1,5.66E2,1.5E1,6.5E1,4.8E1,1.76E2,3.1E1,7.4E1,1.57E2,1.71E2,7.5E1,2.3E2,2.08E2,6.8E1,6.6E1,1.55E2,3.3E1,2.77E2,2.07E2,1.4E1,2.2E1,1.4E1,3.8E1,3.1E1,1.27E2,5E1,1.62E2,3.11E2,6.1E1,9.8E1,1.39E2,8.4E1,2.2E2,7.1E1,3E1,8E0,4E1,2.24E2,2.954E3,9.3E1,8.6E1,2.51E2,3.6E1,1E2,2.63E2,2.7E1,1.39E2,1.78E2,8E0,4.3E1,9E0,1.76E2,3.15E2,6.23E2,5.4E1,1.86E2,2.45E2,8.61E2,6.2E1,5E0,2.05E2,1.95E2,8E0,1.5E2,2.38E2,1.27E2,1.14E2,2.97E2,9.3E1,2.26E2,1.61E2,9.8E1,4.8E2,1.17E2,5.8E1,3.3E1,7.3E1,1.39E2,6.48E2,7.1E1,1.64E2,2.04E2,1.34E2,2E1,1.63E2,1.3E1,9.48E2,2.17E2,1.44E2,4.9E1,2.99E2,1.31E2,4.79E2,2.95E2,1.39E2,5.54E2,1E1,9.6E1,2.5E1,2.4E1,2.2E1,8E0,2.1E1,2.04E2,7E0,8.3E1,5E0,4.7E1,7.1E1,2.9E1,1.015E3,1.87E2,1.9E1,1.8E1,1.11E2,3.26E2,8.3E1,7E0,1.1E2,9.5E1,1.31E2,1.11E2,3E1,4.8E1,4.19E2,1.47E2],"tree_param":{"num_deleted":"0","num_feature":"6","num_nodes":"333","size_leaf_vector":"1"}},{"base_weights":[5.792524E-4,-5.730244E-2,5.7244603E-2,-2.0966093E-1,-1.0660602E-2,9.063406E-2,-1.8193541E-2,-1.3879637E-1,-3.3513007E-1,2.1731146E-2,-6.934348E-2,-9.981967E-4,1.479652E-1,-1.0206348E-1,6.0134187E-2,-2.1804808E-2,-1.8894476E-1,-2.223649E-1,-5.1636785E-1,-1.5280307E-2,1.566177E-1,-1.2148894E-2,-5.8725495E-2,-6.9835626E-2,1.1516928E-1,2.5996485E-1,1.0290584E-1,4.7498893E-2,-1.4066632E-1,2.2392422E-1,3.2654136E-2,3.6140997E-2,-1.3885652E-1,-2.917822E-1,-9.44958E-2,-2.4687147E-1,-1.8472498E-2,-9.4466394E-1,-4.086743E-1,7.031975E-2,-4.239992E-2,6.5144144E-2,2.00855E-1,-4.375081E-2,-2.684469E-1,-1.2734684E-1,3.336058E-2,1.5346427E-1,-1.292783E-1,-7.294398E-2,3.046902E-1,3.9133914E-2,1.7923805E-1,-1.0227112E-2,1.2063304E-1,1.03130415E-2,-1.619391E-1,1.2825996E-1,1.3552279E-2,-8.177784E-2,9.321834E-2,-1.0497354E-1,1.1714188E-1,-2.8755793E-1,-8.605783E-2,-3.645543E-1,-2.0802802E-1,3.696987E-3,-2.5301054E-1,-2.6582113E-1,-1.2568511E-3,4.529469E-3,-1.6068517E-1,-1.8964024E-2,-1.0561554E0,-2.6810998E-1,-4.9150923E-1,2.0034185E-2,1.360922E-1,-7.739205E-2,3.833555E-2,5.257369E-3,-2.061312E-1,7.078899E-3,1.516917E-1,-1.0622649E-1,-1.0907489E-3,-3.5793838E-1,2.2838593E-2,-1.0656515E-1,-2.697288E-1,8.677726E-2,-1.9859124E-2,1.061873E-1,1.0980837E-2,-3.0585682E-1,2.6711375E-1,8.862402E-2,-2.505721E-1,1.7534146E-1,3.316206E-1,5.7763312E-2,-2.7515224E-1,1.4512086E-1,4.1254118E-1,-6.7815416E-2,1.5356623E-1,-8.508744E-2,1.6639915E-1,-1.6769017E-1,8.28955E-2,-4.0353245E-1,1.9290338E-1,1.9501115E-1,-1.1040093E-1,1.9329275E-1,2.001925E-2,-3.3456285E-2,-8.349731E-3,-1.7950187E-3,1.6831635E-1,9.839266E-4,-1.1250807E-2,-1.1675868E-1,6.3311793E-3,-2.6078972E-3,-3.7869412E-1,-2.2398753E-3,-7.508556E-3,1.0786766E-1,-2.9702898E-2,-2.1894044E-1,-2.7655378E-2,-2.5409004E-1,-1.851811E-2,-7.475451E-4,-1.25957625E-2,-2.1488534E-2,-1.2250758E0,-1.20808E-2,-1.576469E-1,-2.5162483E-2,-1.3685399E-2,1.9858293E-1,-4.5349684E-2,2.7648056E-1,8.448505E-2,-1.708328E-1,-3.327982E-2,1.9060098E-1,-3.987971E-2,5.691148E-3,-1.0836709E-2,2.6555186E-2,6.920845E-3,-1.54705215E-2,-2.8770012E-1,-8.6298145E-2,4.9014308E-2,-2.2191629E-3,-5.058649E-1,4.3262504E-3,-7.550123E-3,-1.8816945E-1,-2.6581042E-2,8.276633E-3,-3.8947257E-1,-7.1073864E-3,1.0013462E-1,-6.2084727E-2,1.4547103E-3,9.0554476E-2,1.7745113E-2,-4.2055836E-1,-5.056307E-4,1.0472579E-2,-1.6966856E-4,-1.4272353E-1,2.910165E-1,-5.4177577E-3,-1.5719583E-2,9.939582E-3,1.0864741E-1,2.8967965E-1,3.9229393E-1,4.717201E-2,4.4871658E-1,7.4875157E-4,-9.717212E-3,6.693686E-2,2.2342458E-1,5.314281E-1,6.741454E-2,1.451054E-2,-1.9020756E-1,9.700511E-2,2.2288162E-1,-1.3150813E-2,-4.269172E-2,8.592145E-2,1.7487751E-2,-1.4919508E-1,-2.645277E-1,5.830122E-3,-7.4358573E-3,-5.782965E-3,-2.4829138E-2,1.2678894E-1,4.2698628E-1,1.2747999E-3,5.9889245E-1,-1.66625E-1,8.684241E-2,8.433223E-2,3.042553E-1,-4.0992907E-1,6.3796334E-2,-9.320697E-3,1.8981016E-3,9.516186E-3,2.277353E-3,7.397412E-4,-6.3219806E-3,-1.6505627E-2,-1.0177148E-2,5.286221E-3,-1.808104E-2,-2.2171084E-3,3.6411425E-3,-2.3316855E-3,-8.874007E-3,-6.566439E-3,-9.839421E-3,-3.193223E-2,-5.5530444E-2,2.3127124E-3,-1.25039965E-2,-3.467035E-3,6.8800026E-3,1.2524784E-4,-4.4396035E-3,2.7547479E-3,1.2795607E-2,3.2703336E-3,-3.2520117E-3,-6.557322E-3,7.927242E-5,8.7028724E-4,-6.0877358E-3,-3.2041548E-3,6.9787847E-3,2.255745E-3,-3.3818497E-3,7.220009E-3,-1.619762E-3,-1.4448038E-3,9.296028E-3,-7.8104157E-4,-1.5192876E-2,5.7320733E-4,-1.15979565E-2,6.15298E-3,4.19726E-4,-1.6746193E-2,-5.8778175E-3,-3.0666308E-3,-1.1734011E-2,1.4026035E-3,-8.424845E-3,-1.5680982E-2,-6.61373E-3,7.365135E-3,2.2697714E-3,8.781333E-4,-5.159715E-3,5.5793165E-3,1.5384067E-3,-1.6256215E-2,-5.2792565E-3,-1.1039249E-2,-1.7274264E-4,1.1934051E-2,2.7069214E-3,2.6699684E-3,1.833671E-2,1.1039233E-2,4.679067E-3,1.3289654E-2,5.9000333E-3,2.2117572E-3,-5.3952476E-3,8.723338E-3,1.8428454E-2,4.797539E-3,3.4558022E-4,1.0058916E-2,5.595929E-3,1.7578833E-2,1.0513596E-2,1.698205E-2,-1.1362844E-3,7.9411855E-3,-1.1838731E-2,5.0967005E-3,-3.9645247E-3,9.045667E-3,3.381991E-3,-1.3215019E-2,1.6274606E-5,-1.3789455E-2,4.348476E-3,-1.0254765E-2,-4.0467116E-3,5.2476153E-3,-8.5879285E-3,6.577467E-5,6.4148977E-3,1.8528169E-2,6.4505273E-3,2.5934268E-2,7.753431E-3,-3.6401364E-3,-1.2908611E-2,1.9735767E-2,-4.7348186E-4,-1.3368615E-3,5.974405E-3,1.1956415E-2,5.5236947E-3,-6.309955E-4,-1.921788E-2,-4.5366088E-4,8.627568E-3],"categories":[],"categories_nodes":[],"categories_segments":[],"categories_sizes":[],"default_left":[0,0,0,0,0,0,0,0,0,0,0,0,0,0,0,0,0,0,0,0,0,0,0,0,0,0,0,0,0,0,0,0,0,0,0,0,0,0,0,0,0,0,0,0,0,0,0,0,0,0,0,0,0,0,0,0,0,0,0,0,0,0,0,0,0,0,0,0,0,0,0,0,0,0,0,0,0,0,0,0,0,0,0,0,0,0,0,0,0,0,0,0,0,0,0,0,0,0,0,0,0,0,0,0,0,0,0,0,0,0,0,0,0,0,0,0,0,0,0,0,0,0,0,0,0,0,0,0,0,0,0,0,0,0,0,0,0,0,0,0,0,0,0,0,0,0,0,0,0,0,0,0,0,0,0,0,0,0,0,0,0,0,0,0,0,0,0,0,0,0,0,0,0,0,0,0,0,0,0,0,0,0,0,0,0,0,0,